\data\
ngram 1=6959
ngram 2=17863
ngram 3=21488

\1-grams:
-1.1187 </s>	-3.1332
-1.1184 <s>	-0.1003
-3.5871 a	-0.0780
-3.0073 aa	-0.1133
-99.9990 aaaishhbhauau	-0.0523
-99.9990 aabhaa	-0.0449
-99.9990 aabharii	-0.0375
-99.9990 aabilit:y	-0.0531
-99.9990 aachaarasan:hitaakei	-0.0533
-99.9990 aachaarya	-0.0529
-99.9990 aachchhaadita	-0.0375
-99.9990 aad:d:eid:	-0.0533
-99.9990 aadaanapradaana	-0.0524
-3.3318 aadamii	-0.0638
-99.9990 aadamiiaurata	-0.0470
-99.9990 aadamiyoon:	-0.0412
-99.9990 aadarsha	-0.0532
-99.9990 aadata	-0.0506
-3.9850 aadeisha	-0.0524
-3.8089 aadhaa	-0.0504
-3.6840 aadhaara	-0.2167
-99.9990 aadhaarita	-0.0375
-3.6840 aadhii	-0.0523
-99.9990 aadhivyaadhiupaadhi	-0.0375
-3.5871 aadhunika	-0.0523
-99.9990 aadhyamaana	-0.0533
-2.7420 aadi	-0.0937
-99.9990 aadideiva	-0.0533
-99.9990 aadijhaarakhand~d:a	-0.0533
-99.9990 aadima	-0.0533
-99.9990 aadimein:	-0.0511
-3.6840 aadivaasii	-0.0500
-99.9990 aaei	-0.0190
-3.9850 aaeigaa	-0.0109
-3.3830 aaga	-0.0583
-99.9990 aagajhulasaatii	-0.0375
-99.9990 aagchhl	-0.0533
-3.6840 aagei	-0.0442
-99.9990 aageipiichhei	-0.0532
-99.9990 aaghaata	-0.0530
-99.9990 aaghaatavarya	-0.0532
-99.9990 aagyaa	-0.0533
-3.8089 aahaara	-0.0297
-3.9850 aahaaravihaara	-0.0375
-99.9990 aahaaravihaaroon:	-0.0375
-99.9990 aahata	-0.0515
-3.9850 aahvaana	-0.2258
-3.9850 aai	-0.0532
-99.9990 aaiei	-0.0533
-3.9850 aaii	-0.1935
-3.8089 aaisoot:oopa	-0.0520
-99.9990 aait:ama	-0.0375
-99.9990 aait:amsa	-0.0533
-3.1721 aaja	-0.0612
-99.9990 aajaada	-0.0459
-99.9990 aajakala	-0.0528
-99.9990 aajiivikaa	-0.0533
-99.9990 aaj~aada	-0.0532
-3.2069 aakaara	-0.0052
-3.5079 aakara	-0.0526
-3.9850 aakarshhaka	-0.0518
-3.9850 aakarshhita	-0.2269
-99.9990 aakhein:	-0.0532
-3.9850 aakhira	-0.0505
-99.9990 aakraantaakii	-0.0533
-3.9850 aakramand~a	-0.0435
-99.9990 aakramand~oon:	-0.0375
-99.9990 aakrxti	-0.0533
-99.9990 aakrxtiyoon:	-0.0382
-3.8089 aaksaaid:a	-0.0411
-99.9990 aakshheipa	-0.0533
-3.9850 aaksiijana	-0.0412
-99.9990 aala	-0.0533
-99.9990 aalaavaa	-0.0526
-99.9990 aalamaariyoon:	-0.0375
-99.9990 aaloochaka	-0.0531
-99.9990 aalookita	-0.0506
-99.9990 aalseisiyan	-0.0533
-3.8089 aaluu	-0.0450
-3.6840 aama	-0.0297
-99.9990 aamaashaya	-0.0449
-3.9850 aamadanii	-0.2251
-99.9990 aaman:trita	-0.0529
-99.9990 aamataura	-0.0490
-99.9990 aamrapaalii	-0.0511
-99.9990 aan:doolana	-0.0531
-3.8089 aan:gana	-0.0344
-3.8089 aan:kad~ei	-0.0161
-99.9990 aan:khei	-0.0533
-3.9850 aan:khein:	-0.0533
-99.9990 aan:khoon:	-0.0382
-3.4410 aan:ta	-0.4285
-99.9990 aan:taka	-0.0375
-99.9990 aan:tra	-0.0532
-99.9990 aan:valaa	-0.0533
-3.9850 aanaa	-0.0532
-99.9990 aanakha	-0.0375
-3.9850 aanakhein:	-0.0524
-99.9990 aanakhoon:	-0.0412
-99.9990 aananda	-0.0533
-99.9990 aanasuoon:	-0.0449
-99.9990 aanasuu	-0.0533
-99.9990 aandhra	-0.0532
-99.9990 aandoolana	-0.0382
-3.8089 aanei	-0.1380
-99.9990 aaneivaalii	-0.0375
-99.9990 aantarika	-0.0533
-99.9990 aanuupadeisha	-0.0382
-3.9850 aanuvan:shika	-0.0532
-3.9850 aanuvan:shikataa	-0.0219
-3.9850 aaoo	-0.0530
-2.8881 aapa	-0.0392
-99.9990 aapaatakaaliina	-0.0531
-3.8089 aapakaa	-0.0532
-99.9990 aapakaasaa	-0.0532
-3.3830 aapakei	-0.0529
-3.8089 aapakii	-0.0511
-3.4410 aapakoo	-0.0504
-3.0556 aapanei	-0.0642
-3.8089 aapasa	-0.2802
-3.9850 aapasei	-0.0532
-99.9990 aapasii	-0.0533
-99.9990 aapha	-0.0533
-99.9990 aaphisa	-0.0375
-99.9990 aapreisd:a	-0.0533
-3.9850 aara	-0.0533
-99.9990 aarambha	-0.0515
-99.9990 aaran:bha	-0.0532
-99.9990 aaran:bhika	-0.0531
-99.9990 aard:ara	-0.0524
-99.9990 aaroogyavardhinii	-0.0495
-99.9990 aaroopa	-0.0533
-99.9990 aarseinika	-0.0375
-3.9850 aart:asa	-0.0533
-3.5871 aarthika	-0.0528
-99.9990 aarund~eiya	-0.0459
-99.9990 aarya	-0.0459
-99.9990 aaryapurii	-0.0533
-99.9990 aaryoon:	-0.0375
-99.9990 aasa	-0.0529
-99.9990 aasaanii	-0.0449
-99.9990 aasamaana	-0.0524
-99.9990 aasana	-0.0533
-3.9850 aasapaasa	-0.0528
-3.8089 aashaa	-0.1427
-99.9990 aashaavaada	-0.0458
-99.9990 aashan:kaa	-0.0506
-99.9990 aashhaadh~a	-0.0533
-3.8089 aashrama	-0.0172
-99.9990 aast:reiliyaa	-0.0449
-3.9850 aat:ha	-0.0445
-3.6840 aat:hasau	-0.0529
-99.9990 aat:hoon:	-0.0533
-99.9990 aat:msamarpan	-0.0532
-3.3318 aataa	-0.2056
-99.9990 aatan:kita	-0.0533
-3.5079 aatei	-0.4099
-99.9990 aateidikhaayii	-0.0532
-99.9990 aatharsa	-0.0533
-3.2069 aatii	-0.5031
-3.9850 aatmaa	-0.0470
-99.9990 aatmaaoon:	-0.0459
-99.9990 aatmaseiviyaun:	-0.0382
-99.9990 aatmashaamaka	-0.0375
-99.9990 aaturavrxtta	-0.0532
-99.9990 aauun:gaa	-0.0510
-3.5871 aavaaja	-0.0377
-3.9850 aavaaj~a	-0.0507
-3.8089 aavaaksa	-0.0529
-99.9990 aavaaraa	-0.0533
-99.9990 aavalikuaa	-0.0375
-99.9990 aavaritaa	-0.0533
-3.9850 aavarta	-0.2278
-3.5871 aavashyaka	-0.1572
-3.4410 aavashyakataa	-0.1748
-99.9990 aaveisha	-0.0382
-3.8089 aavishhkaara	-0.0457
-3.9850 aavrxtti	-0.2194
-3.4410 aayaa	-0.0743
-3.9850 aayana	-0.0533
-99.9990 aayataakaara	-0.0525
-99.9990 aayatein:	-0.0459
-3.4410 aayei	-0.1483
-99.9990 aayeigaa	-0.0190
-99.9990 aayii	-0.0532
-3.9850 aayood:aaid:a	-0.2203
-99.9990 aayood:aaijakamavaashhpashiilahai	-0.0190
-3.9850 aayooga	-0.2157
-99.9990 aayoojana	-0.0510
-99.9990 aayoojita	-0.0533
-3.6840 aayu	-0.0293
-99.9990 aayumein:	-0.0533
-3.2861 aayurveida	-0.1948
-99.9990 aayurveidaachaarya	-0.0375
-99.9990 aayurveidagya	-0.0463
-99.9990 aayurveidajnj~a	-0.0463
-99.9990 aayurveidaratna	-0.0375
-3.9850 aayurveidiiya	-0.0531
-99.9990 aayurveidika	-0.0533
-3.0556 aba	-0.0637
-3.9850 abhaava	-0.0351
-99.9990 abhadrataakaa	-0.0533
-3.3318 abhii	-0.0454
-99.9990 abhiishht:a	-0.0532
-3.9850 abhikarmaka	-0.2120
-3.9850 abhikriyaa	-0.0526
-99.9990 abhikriyaan:	-0.0495
-99.9990 abhinan:dana	-0.0513
-99.9990 abhinishchita	-0.0533
-99.9990 abhishaapa	-0.0449
-99.9990 abhivyakti	-0.0530
-99.9990 abhraka	-0.0525
-99.9990 abhuutapuurva	-0.0375
-99.9990 abhyaasa	-0.0519
-99.9990 abhyasta	-0.0529
-3.9850 achaanaka	-0.0533
-99.9990 achaara	-0.0525
-3.4410 achchhaa	-0.0336
-3.5871 achchhei	-0.0525
-99.9990 achchheiachchhei	-0.0533
-3.0308 achchhii	-0.0971
-99.9990 acheita	-0.0533
-99.9990 achhuutaa	-0.0528
-99.9990 achhuutei	-0.0532
-99.9990 achmbhei	-0.0412
-99.9990 ad:d:oo	-0.0470
-3.9850 ad:hasat:ha	-0.0530
-99.9990 ad:hatiisa	-0.0458
-99.9990 ad:uusaa	-0.0532
-99.9990 adaalata	-0.0449
-99.9990 adada	-0.0533
-3.9850 adhapakii	-0.0532
-3.9850 adheid~a	-0.2276
-99.9990 adhigama	-0.0533
-3.8089 adhiina	-0.0174
-2.6840 adhika	-0.0639
-3.6840 adhikaan:sha	-0.0524
-3.9850 adhikaara	-0.0382
-99.9990 adhikaarii	-0.0518
-3.9850 adhikataa	-0.0524
-99.9990 adhikatara	-0.0533
-99.9990 adhivaasa	-0.0510
-99.9990 adhnyaa	-0.0532
-99.9990 adhoo	-0.0533
-3.8089 adhyaaya	-0.1464
-3.5871 adhyayana	-0.0308
-99.9990 adhyyatana	-0.0532
-99.9990 adh~aunaa	-0.0495
-99.9990 aditi	-0.0525
-99.9990 ad~aa	-0.0526
-99.9990 agada	-0.0533
-99.9990 agalei	-0.0526
-99.9990 agara	-0.0530
-99.9990 agastasitambara	-0.0382
-99.9990 agavarl:t:au	-0.0527
-99.9990 agei	-0.0531
-99.9990 aghikahootii	-0.0375
-99.9990 aghulanashiila	-0.0532
-3.5079 agni	-0.0340
-99.9990 agnikarma	-0.0523
-99.9990 agnisaha	-0.0533
-99.9990 agrand~ii	-0.0533
-3.9850 agrima	-0.2278
-99.9990 ahaatoon:	-0.0459
-99.9990 ahalya	-0.0533
-99.9990 ahalyaa	-0.0470
-99.9990 aham	-0.0470
-99.9990 ahamada	-0.0533
-3.9850 ahamadaabaada	-0.0219
-99.9990 ahan:kaara	-0.0533
-99.9990 ai	-0.0533
-99.9990 aichoonoomika	-0.0533
-99.9990 aid:aminist:reit:iva	-0.0533
-99.9990 aikt:inaaid:a	-0.0532
-99.9990 ailijairina	-0.0470
-99.9990 ailkooho-la	-0.0458
-99.9990 ailoopaithii	-0.0375
-99.9990 ailuminiyama	-0.0533
-99.9990 ailyuminiyaklooraaid:akaa	-0.0531
-3.9850 ailyuminiyama	-0.0532
-99.9990 aimiinoon:	-0.0382
-99.9990 ain:t:hana	-0.0530
-3.8089 ain:t:iimanii	-0.0309
-99.9990 ainthraiksa	-0.0532
-3.3318 aisaa	-0.0830
-3.0073 aisei	-0.0784
-99.9990 aiseijalatii	-0.0375
-99.9990 aishvarya	-0.0449
-3.2069 aisii	-0.0491
-99.9990 aisiit:ika	-0.0532
-99.9990 aitareiya	-0.0533
-99.9990 aithiliina	-0.0375
-99.9990 aivachueiei	-0.0533
-99.9990 ajiibasii	-0.0533
-99.9990 ajiijudiina	-0.0449
-99.9990 ajiirnd~a	-0.0533
-99.9990 ajnj~aana	-0.0533
-3.9850 ajnj~aatavaasa	-0.0257
-99.9990 akaaja	-0.0509
-99.9990 akaala	-0.0382
-99.9990 akaalaura	-0.0533
-99.9990 akaarbanika	-0.0532
-99.9990 akasara	-0.0511
-99.9990 akeilei	-0.0523
-3.9850 akeilii	-0.0504
-99.9990 akhaad~aa	-0.0533
-99.9990 akhand~d:ataapara	-0.0533
-3.9850 aksara	-0.0506
-99.9990 akshhikuut:a	-0.0382
-99.9990 akshhund~nd~a	-0.0528
-99.9990 akt:uubara	-0.0532
-99.9990 alaarma	-0.0533
-3.4410 alaavaa	-0.0432
-3.3830 alaga	0.0023
-99.9990 alagaalaga	-0.0533
-3.9850 alaphaan:soo	-0.0527
-99.9990 aleikjein:d:ara	-0.0495
-99.9990 alii	-0.0533
-3.9850 aliigadh~a	-0.0519
-99.9990 allaaha	-0.0533
-99.9990 almaariyoon:	-0.0382
-3.6840 alphaa	-0.2234
-99.9990 amala	-0.0470
-3.9850 amariikaa	-0.0378
-3.8089 ameirikaa	-0.0514
-3.9850 ameirikana	-0.2278
-99.9990 amiinuddiina	-0.0533
-99.9990 amita	-0.0533
-99.9990 amitaabha	-0.0533
-3.4410 amla	-0.0593
-3.9850 amlapitta	-0.0350
-99.9990 amlapittootpaadaka	-0.0531
-99.9990 amloo	-0.0509
-99.9990 amloon:	-0.0509
-99.9990 ammaana	-0.0531
-3.9850 amooniyaa	-0.0387
-3.5871 amooniyama	-0.0523
-99.9990 amrxta	-0.0458
-99.9990 amrxtasara	-0.0533
-3.9850 amrxtayaana	-0.0460
-99.9990 amuutrataa	-0.0528
-99.9990 an	-0.0533
-3.9850 an:d:a	-0.0531
-3.4410 an:d:ei	-0.0743
-3.6840 an:d:oon:	-0.2061
-99.9990 an:dhakaara	-0.0382
-99.9990 an:dheirei	-0.0382
-99.9990 an:ga	-0.0382
-99.9990 an:gaghaata	-0.0525
-99.9990 an:garakheiaura	-0.0533
-99.9990 an:gareij~ii	-0.0533
-99.9990 an:girasa	-0.0533
-99.9990 an:goon:	-0.0458
-99.9990 an:greija	-0.0533
-99.9990 an:greijii	-0.0382
-3.9850 an:greijoon:	-0.0249
-99.9990 an:guliyoon:	-0.0375
-99.9990 an:guut:haa	-0.0531
-99.9990 an:ka	-0.0382
-99.9990 an:kala	-0.0533
-99.9990 an:kita	-0.0375
-3.9850 an:kurand~a	-0.2249
-3.6840 an:sha	-0.0526
-99.9990 an:shadaana	-0.0533
-99.9990 an:t:ii	-0.0490
-99.9990 an:ta	-0.0382
-99.9990 an:taa	-0.0533
-3.9850 an:tararaashht:riiya	-0.0532
-99.9990 an:tarddashht:i	-0.0533
-99.9990 an:targata	-0.0533
-3.8089 an:tarikshha	-0.2802
-99.9990 an:tdrxshht:i	-0.0533
-3.8089 anaaja	-0.2794
-99.9990 anaajoon:	-0.0412
-99.9990 anaatha	-0.0509
-99.9990 anagadh~ei	-0.0533
-99.9990 anaginata	-0.0533
-99.9990 anagreijii	-0.0375
-99.9990 anajaana	-0.0533
-99.9990 anamoola	-0.0533
-3.8089 anannaasa	-0.0328
-99.9990 anasulajhii	-0.0533
-99.9990 and:	-0.0533
-99.9990 andaajaa	-0.0510
-3.4410 andara	-0.0417
-99.9990 andhakaara	-0.0458
-99.9990 andhataa	-0.0533
-99.9990 and~ad:ir	-0.0375
-99.9990 and~d:a	-0.0470
-99.9990 and~d:aakaara	-0.0509
-99.9990 and~d:akooshha	-0.0382
-99.9990 and~d:oon:	-0.0449
-99.9990 and~u	-0.0529
-99.9990 and~uoon:	-0.0449
-99.9990 aneichd:oot:eis	-0.0530
-2.9850 aneika	-0.0577
-99.9990 aneikaaneika	-0.0533
-99.9990 aneikoon:	-0.0532
-99.9990 anivaarya	-0.0527
-3.9850 aniyamita	-0.0459
-99.9990 anna	-0.0531
-99.9990 anookhaa	-0.0533
-3.5871 anta	-0.0975
-99.9990 antaa	-0.0382
-99.9990 antajnj~aanaatmaka	-0.0532
-3.8089 antara	-0.0421
-99.9990 antaraala	-0.0532
-3.9850 antargata	-0.0533
-99.9990 antargrathita	-0.0528
-99.9990 antarraashht:riiya	-0.0533
-99.9990 antatah:	-0.0526
-99.9990 antima	-0.0530
-99.9990 anu	-0.0533
-3.8089 anubhava	-0.0515
-99.9990 anubhavajanya	-0.0533
-99.9990 anubhuuti	-0.0524
-99.9990 anumati	-0.0532
-99.9990 anupaana	-0.0533
-3.9850 anupaata	-0.2203
-99.9990 anupasthiti	-0.0382
-3.9850 anuroodha	-0.0512
-99.9990 anuruupa	-0.0463
-3.3830 anusaara	-0.0487
-99.9990 anusan:dhaana	-0.0532
-99.9990 anusandhaana	-0.0513
-99.9990 anushht:haana	-0.0449
-99.9990 anushiilana	-0.0495
-99.9990 anusuuchii	-0.0449
-99.9990 anut:hii	-0.0533
-99.9990 anuubhava	-0.0412
-99.9990 anuupa	-0.0533
-99.9990 anuvaan:shika	-0.0533
-99.9990 anveishhand~aalaya	-0.0533
-3.0073 anya	-0.0822
-3.9850 anyathaa	-0.0514
-99.9990 apaadaana	-0.0382
-3.9850 apaghat:ana	-0.0508
-99.9990 apaghat:ita	-0.0506
-99.9990 apaharand~a	-0.0515
-99.9990 apamaana	-0.0458
-3.2861 apanaa	-0.0328
-99.9990 apanaaein:	-0.0510
-99.9990 apanaakara	-0.0524
-99.9990 apanaanaa	-0.0502
-99.9990 apanaanei	-0.0375
-99.9990 apanaayaa	-0.0524
-2.6233 apanei	-0.0648
-99.9990 apaneiaapakoo	-0.0533
-99.9990 apaneishooshhand~a	-0.0412
-3.1100 apanii	-0.0526
-3.9850 aparaadha	-0.0526
-99.9990 aparivartita	-0.0526
-99.9990 apasaamaanya	-0.0533
-99.9990 apashakuna	-0.0533
-99.9990 apataa	-0.0531
-99.9990 apaurushheiya	-0.0533
-99.9990 apavitra	-0.0459
-3.8089 apeikshhaa	-0.0525
-3.9850 apeikshhita	-0.0519
-99.9990 apha	-0.0533
-99.9990 aphagaanistaana	-0.0533
-3.9850 aphasara	-0.0530
-99.9990 aphriikaa	-0.0382
-99.9990 aph~asoosa	-0.0375
-99.9990 apiila	-0.0412
-99.9990 apitu	-0.0496
-99.9990 aplaaii	-0.0504
-99.9990 aprashan:sita	-0.0509
-99.9990 apriiti	-0.0470
-99.9990 apuurva	-0.0533
-99.9990 araba	-0.0525
-99.9990 arahara	-0.0533
-99.9990 arajana	-0.0529
-99.9990 aravinda	-0.0412
-3.9850 arddhaa	-0.0533
-99.9990 ardhaseiloon:	-0.0470
-99.9990 ardhvaadhooga	-0.0533
-99.9990 ardita	-0.0533
-3.8089 arei	-0.0481
-99.9990 areiarei	-0.0533
-99.9990 arjein:t:eit:ama	-0.0449
-3.5079 arjuna	-0.1980
-99.9990 arood~aa	-0.0506
-3.8089 artha	-0.0365
-3.9850 arthaat	-0.0533
-3.5871 arthaata	-0.0502
-99.9990 arthaatjnj~aanaruupii	-0.0533
-99.9990 arthashaastra	-0.0382
-99.9990 arthoopaarjana	-0.0458
-99.9990 aruchi	-0.0531
-99.9990 asaadhya	-0.0375
-99.9990 asaadhyan:	-0.0533
-3.6840 asagandha	-0.0307
-99.9990 asagandhaadi	-0.0533
-99.9990 asahaaya	-0.0533
-99.9990 asala	-0.0382
-99.9990 asalii	-0.0533
-99.9990 asamarthataa	-0.0533
-99.9990 asararasuukh~a	-0.0449
-99.9990 asharphiyoon:	-0.0490
-99.9990 ashastaanaam	-0.0190
-99.9990 ashht:a	-0.0533
-99.9990 ashht:aan:gayooga	-0.0412
-99.9990 ashkhaabaada	-0.0533
-99.9990 ashmaroon:	-0.0533
-99.9990 ashooka	-0.0506
-99.9990 ashubha	-0.0533
-99.9990 asipatra	-0.0533
-3.9850 aspashht:a	-0.0533
-99.9990 aspataala	-0.0449
-99.9990 assii	-0.0382
-3.9850 asthaayii	-0.0524
-99.9990 asthimajjaa	-0.0533
-99.9990 astitva	-0.0382
-99.9990 astrashastroon:	-0.0412
-99.9990 astu	-0.0533
-99.9990 asuvidhaa	-0.0528
-99.9990 at:alaan:t:ika	-0.0533
-99.9990 at:haaiisa	-0.0526
-99.9990 at:haaliisa	-0.0532
-99.9990 at:haaraa	-0.0490
-3.6840 at:haaraasau	-0.0529
-3.8089 at:haarasau	-0.0531
-99.9990 at:haasii	-0.0459
-99.9990 at:uut:a	-0.0533
-3.2861 ata	-0.0761
-3.4410 atah:	-0.0521
-99.9990 atamain:	-0.0531
-99.9990 ateiva	-0.0532
-99.9990 atharvaveida	-0.0458
-3.0556 athavaa	-0.0492
-3.8089 ati	-0.0531
-99.9990 atiisa	-0.0533
-99.9990 atiita	-0.0459
-99.9990 atiiva	-0.0533
-99.9990 atimaanasa	-0.0533
-3.5079 atirikta	-0.1028
-99.9990 atisa	-0.0531
-3.9850 atisaara	-0.0505
-99.9990 atithisatkaara	-0.0513
-99.9990 atri	-0.0525
-99.9990 atrxpti	-0.0412
-99.9990 atyaachaara	-0.0495
-3.8089 atyadhika	-0.0529
-3.6840 atyan:ta	-0.0531
-99.9990 atyan:taavashyaka	-0.0375
-3.9850 atyanta	-0.0532
-3.8089 au	-0.0506
-99.9990 audyaanika	-0.0531
-3.9850 aujhaa	-0.0533
-99.9990 aupachaarikataaoon:	-0.0458
-1.7702 aura	-0.0224
-3.9850 auratein:	-0.0528
-99.9990 aurusei	-0.0496
-99.9990 ausata	-0.0532
-99.9990 ausatana	-0.0496
-99.9990 aushhadha	-0.0523
-3.5079 aushhadhi	-0.0850
-3.9850 aushhadhiyaan:	-0.0532
-99.9990 aushhadhiyaan:ein:	-0.0190
-99.9990 aushhadhiyoon:	-0.0375
-3.9850 avaan:chhita	-0.2277
-3.9850 avadhi	-0.0382
-99.9990 avaheilanaaoon:	-0.0375
-99.9990 avaijnj~aanika	-0.0531
-99.9990 avakshheipa	-0.0470
-99.9990 avakshheipand~a	-0.0190
-99.9990 avanadha	-0.0533
-99.9990 avaroodha	-0.0449
-99.9990 avaroodhaka	-0.0533
-99.9990 avasaadapuurnd~a	-0.0533
-3.6840 avasara	-0.1243
-99.9990 avasheishha	-0.0524
-3.8089 avashya	-0.0456
-3.2447 avasthaa	-0.5597
-99.9990 avasthaaoon:	-0.0382
-99.9990 avataara	-0.0412
-99.9990 avatarita	-0.0375
-99.9990 avayavii	-0.0523
-99.9990 avivaahita	-0.0533
-99.9990 avyavasthita	-0.0525
-99.9990 ayoodhyaa	-0.0375
-3.9850 b	-0.0533
-99.9990 ba	-0.0533
-3.9850 baabaa	-0.0375
-99.9990 baabajuuda	-0.0515
-99.9990 baabuu	-0.0533
-2.6733 baada	-0.0647
-99.9990 baadala	-0.0532
-99.9990 baadhaa	-0.0504
-99.9990 baadhiyaan:eikaaeika	-0.0533
-99.9990 baaga	-0.0502
-99.9990 baagabagiichoon:	-0.0533
-99.9990 baagadii	-0.0533
-3.8089 baagavaana	-0.0466
-3.9850 baagavaanii	-0.0368
-99.9990 baagavaanoon:	-0.0412
-3.2861 baahara	-0.0747
-99.9990 baahoon:	-0.0382
-99.9990 baahulya	-0.0533
-3.9850 baaii	-0.0529
-3.8089 baaiisa	-0.0529
-3.5871 baajaara	-0.0098
-99.9990 baajaarii	-0.0532
-99.9990 baajei	-0.0533
-99.9990 baakaayadaa	-0.0533
-3.9850 baakii	-0.0518
-3.9850 baala	-0.0533
-3.8089 baalaka	-0.0374
-99.9990 baalakoon:	-0.0412
-99.9990 baalakrxshhnd~a	-0.0533
-99.9990 baalapana	-0.0412
-3.9850 baalavarma	-0.0495
-99.9990 baaliti	-0.0190
-3.9850 baaliyoon:	-0.0317
-99.9990 baaloon:	-0.0458
-99.9990 baalt:ii	-0.0458
-99.9990 baaluu	-0.0458
-99.9990 baalyaavasthaa	-0.0458
-99.9990 baambei	-0.0533
-99.9990 baan:dhakara	-0.0528
-99.9990 baan:dheibahuta	-0.0502
-99.9990 baan:dh~a	-0.0459
-3.2447 baan:sa	-0.0268
-99.9990 baan:t:aa	-0.0524
-99.9990 baanasa	-0.0412
-99.9990 baanasuriivaadaka	-0.0533
-99.9990 baanat:abuun:e-t:akara	-0.0532
-99.9990 baanei	-0.0470
-99.9990 baapa	-0.0375
-99.9990 baapuu	-0.0412
-3.1100 baara	-0.0490
-99.9990 baaraa	-0.0533
-99.9990 baaraanii	-0.0532
-3.6840 baarabaara	-0.0530
-3.5871 baaraha	-0.0381
-3.4410 baarei	-0.8880
-99.9990 baareimein:	-0.0533
-99.9990 baariibaarii	-0.0449
-99.9990 baariika	-0.0515
-99.9990 baashara	-0.0533
-3.0073 baata	-0.0652
-3.6840 baatachiita	-0.0498
-99.9990 baatakaranaa	-0.0533
-99.9990 baatapitta	-0.0533
-3.9850 baatein:	-0.0506
-3.8089 baatoon:	-0.1413
-3.9850 baavana	-0.0530
-99.9990 baavuu	-0.0375
-99.9990 baayabid:an:ga	-0.0459
-99.9990 babbara	-0.0375
-99.9990 babhuuvu	-0.0190
-3.9850 babuula	-0.0249
-3.9850 bachaa	-0.0515
-99.9990 bachaaei	-0.0532
-99.9990 bachaaein:	-0.0533
-3.9850 bachaanaa	-0.0526
-99.9990 bachaanei	-0.0375
-3.9850 bachaayaa	-0.2269
-99.9990 bachanaa	-0.0375
-99.9990 bachapana	-0.0449
-3.8089 bachchaa	-0.0519
-99.9990 bachchana	-0.0375
-3.4410 bachchei	-0.0205
-99.9990 bachchoo	-0.0412
-3.8089 bachchoon:	-0.1392
-99.9990 bachchuu	-0.0533
-3.9850 bachei	-0.0372
-99.9990 bachiikhuchii	-0.0522
-99.9990 bad:haa	-0.0190
-99.9990 bad:hatii	-0.0463
-99.9990 badaamii	-0.0533
-3.5079 badala	-0.1005
-3.9850 badalaa	-0.2269
-99.9990 badalei	-0.0382
-99.9990 badalii	-0.0523
-99.9990 badaluu	-0.0533
-99.9990 badana	-0.0382
-99.9990 badanaama	-0.0530
-3.9850 badh~a	-0.0527
-99.9990 badh~aanaa	-0.0502
-3.5871 badh~aanei	-0.0908
-99.9990 badh~aavaa	-0.0531
-99.9990 badh~aayei	-0.0190
-3.9850 badh~akara	-0.0533
-3.9850 badh~anei	-0.0368
-99.9990 badh~ata	-0.0375
-99.9990 badh~ataa	-0.0375
-3.9850 badh~atei	-0.0502
-99.9990 badh~iei	-0.0533
-99.9990 badh~oottarii	-0.0529
-3.1399 bad~aa	-0.0420
-99.9990 bad~aabuudh~aa	-0.0529
-99.9990 bad~aasan:bala	-0.0532
-99.9990 bad~abad~aayei	-0.0518
-3.1721 bad~ei	-0.0443
-3.6840 bad~eibad~ei	-0.0532
-3.3318 bad~ii	-0.0529
-99.9990 bad~iibad~ii	-0.0533
-3.9850 bagaira	-0.0526
-99.9990 bagala	-0.0382
-99.9990 bag~aira	-0.0531
-3.9850 baha	-0.2273
-99.9990 bahaadura	-0.0459
-99.9990 bahaamaa	-0.0533
-99.9990 bahana	-0.0533
-99.9990 bahattara	-0.0533
-99.9990 baheid~aa	-0.0533
-99.9990 bahist:ei	-0.0533
-3.9850 bahu	-0.0533
-99.9990 bahuaayaamii	-0.0533
-99.9990 bahucharchita	-0.0533
-99.9990 bahukalana	-0.0449
-99.9990 bahumukhii	-0.0533
-99.9990 bahushhu	-0.0533
-2.7675 bahuta	-0.1045
-99.9990 bahutakuchha	-0.0533
-99.9990 bahutasaa	-0.0533
-99.9990 bahutasei	-0.0533
-3.9850 bahutasii	-0.0533
-99.9990 bahuudhaa	-0.0532
-99.9990 baiaa	-0.0533
-3.9850 baiga	-0.0533
-99.9990 baigaa	-0.0523
-99.9990 baikaala	-0.0533
-99.9990 baikt:eiraaid:a	-0.0527
-99.9990 baikt:eiriyaa	-0.0459
-99.9990 baikt:riyaa	-0.0470
-3.9850 bailoon:	-0.0459
-99.9990 bain:cha	-0.0533
-99.9990 bain:kara	-0.0459
-99.9990 baind~d:a	-0.0533
-99.9990 baipavartha	-0.0412
-99.9990 bairaka	-0.0533
-99.9990 bairaksa	-0.0412
-99.9990 bairama	-0.0533
-99.9990 bairoojei	-0.0458
-3.9850 bait:ha	-0.0522
-99.9990 bait:haa	-0.0459
-99.9990 bait:haka	-0.0531
-99.9990 bait:hakara	-0.0533
-99.9990 bait:hanaa	-0.0533
-99.9990 bait:hataa	-0.0526
-3.5871 bait:hei	-0.0179
-99.9990 baja	-0.0526
-99.9990 bajaataa	-0.0526
-99.9990 bajaatei	-0.0463
-99.9990 bajaaya	-0.0533
-99.9990 bajat:a	-0.0382
-3.9850 bajatei	-0.0343
-3.5871 bajei	-0.0204
-99.9990 bajii	-0.0522
-3.9850 bakaraaja	-0.0506
-99.9990 bakarii	-0.0533
-99.9990 bakhshii	-0.0459
-99.9990 bakkhaun:	-0.0533
-99.9990 bakshiyoosa	-0.0458
-99.9990 bala	-0.0533
-99.9990 balakarttaa	-0.0533
-99.9990 balaraama	-0.0533
-99.9990 balaviirya	-0.0382
-99.9990 bali	-0.0533
-3.6840 balki	-0.0528
-99.9990 ballabha	-0.0533
-99.9990 ban:ban:ii	-0.0529
-99.9990 ban:bii	-0.0525
-99.9990 ban:dara	-0.0533
-99.9990 ban:dhii	-0.0533
-99.9990 ban:dii	-0.0533
-99.9990 ban:ga	-0.0533
-3.9850 ban:gaala	-0.0298
-99.9990 ban:gaapallii	-0.0533
-99.9990 ban:galaurii	-0.0533
-3.3830 bana	-0.1224
-3.1721 banaa	-0.1053
-3.8089 banaaei	-0.0528
-99.9990 banaaii	-0.0524
-3.5871 banaakara	-0.0488
-3.9850 banaanaa	-0.0506
-3.3318 banaanei	-0.2082
-99.9990 banaataa	-0.0375
-3.6840 banaatei	-0.2138
-99.9990 banaatii	-0.0375
-99.9990 banaatiin:	-0.0463
-99.9990 banaauunagaa	-0.0190
-99.9990 banaavein:	-0.0190
-3.3318 banaayaa	-0.1573
-3.9850 banaayei	-0.0521
-99.9990 banaayein:	-0.0190
-99.9990 banadha	-0.0528
-99.9990 banadhaanaa	-0.0533
-99.9990 banagalei	-0.0382
-99.9990 banajaaraa	-0.0533
-99.9990 banajaatei	-0.0463
-99.9990 banakara	-0.0531
-3.6840 bananei	-0.1116
-3.9850 banataa	-0.0018
-99.9990 banatei	-0.0463
-99.9990 banavaayei	-0.0518
-99.9990 bandha	-0.0531
-99.9990 bandhubhaava	-0.0510
-99.9990 bandii	-0.0533
-99.9990 banei	-0.0533
-99.9990 baneigaa	-0.0190
-3.9850 banii	-0.0369
-99.9990 baniyei	-0.0470
-99.9990 banuun:	-0.0190
-3.9850 baraabara	-0.0533
-99.9990 baraaha	-0.0412
-99.9990 baraasau	-0.0532
-3.8089 baragada	-0.0249
-99.9990 baramuud:aa	-0.0533
-99.9990 barapaanii	-0.0532
-99.9990 barasa	-0.0524
-3.9850 barasaata	-0.0382
-3.9850 barbaada	-0.0510
-99.9990 barmii	-0.0533
-3.9850 barphii	-0.0527
-99.9990 bartaava	-0.0519
-99.9990 bartana	-0.0532
-99.9990 bartanoon:	-0.0531
-99.9990 basa	-0.0496
-99.9990 basatei	-0.0463
-99.9990 bashiira	-0.0375
-3.9850 bastara	-0.0375
-99.9990 basu	-0.0533
-99.9990 bat:avrxkshha	-0.0375
-99.9990 bat:t:aasat:t:aa	-0.0533
-99.9990 bataa	-0.0532
-99.9990 bataaei	-0.0531
-3.9850 bataaii	-0.0501
-3.2447 bataayaa	-0.2421
-99.9990 battiisa	-0.0375
-99.9990 bauchhaara	-0.0495
-99.9990 bauddha	-0.0509
-99.9990 bauddhagrantha	-0.0533
-99.9990 baud~ama	-0.0375
-99.9990 baunei	-0.0459
-99.9990 beian:ta	-0.0531
-99.9990 beichanei	-0.0375
-99.9990 beidhanei	-0.0458
-99.9990 beidii	-0.0412
-99.9990 beid~iyaana	-0.0532
-99.9990 beid~uu	-0.0533
-99.9990 beigama	-0.0506
-99.9990 beigamapaakistaana	-0.0412
-99.9990 beig~ama	-0.0449
-99.9990 beihada	-0.0533
-99.9990 beihatara	-0.0506
-99.9990 beihayaa	-0.0506
-99.9990 beihoosha	-0.0506
-99.9990 beihooshii	-0.0470
-99.9990 beiiimaanii	-0.0463
-3.9850 beikaara	-0.0502
-99.9990 beila	-0.0375
-99.9990 beilipha	-0.0470
-99.9990 beiljiyama	-0.0525
-99.9990 beit:aa	-0.0522
-99.9990 beit:ei	-0.0470
-3.9850 beit:ii	-0.0190
-99.9990 beitaaba	-0.0518
-99.9990 beiyaraa	-0.0470
-99.9990 bh	-0.0533
-99.9990 bha	-0.0533
-99.9990 bhaa	-0.0190
-99.9990 bhaabhii	-0.0530
-99.9990 bhaabhiisaahibaa	-0.0533
-99.9990 bhaad:ha	-0.0533
-2.9436 bhaaga	-0.0290
-99.9990 bhaagaa	-0.0524
-99.9990 bhaagadaud~a	-0.0412
-99.9990 bhaaganeivaalaa	-0.0533
-99.9990 bhaagiirathii	-0.0523
-3.6840 bhaagoon:	-0.1057
-99.9990 bhaagya	-0.0533
-3.6840 bhaaii	-0.0197
-99.9990 bhaaiiyoon:	-0.0470
-3.9850 bhaaluu	-0.0412
-99.9990 bhaan:ti	-0.0463
-99.9990 bhaanati	-0.0533
-99.9990 bhaand~asin:ha	-0.0470
-3.9850 bhaapa	-0.0374
-3.6840 bhaara	-0.0430
-99.9990 bhaaradvaaja	-0.0190
-3.0556 bhaarata	-0.1256
-99.9990 bhaaratamein:	-0.0533
-99.9990 bhaaratapraveisha	-0.0533
-3.4410 bhaaratiiya	-0.0531
-99.9990 bhaaratiiyoon:	-0.0412
-3.9850 bhaarii	-0.0533
-3.6840 bhaashhaa	0.0088
-99.9990 bhaashhaarjana	-0.0382
-3.8089 bhaashhand~a	-0.0532
-99.9990 bhaashhand~oon:	-0.0523
-3.9850 bhaat:iyaa	-0.0347
-99.9990 bhaata	-0.0382
-99.9990 bhaauu	-0.0531
-3.4410 bhaava	-0.0416
-99.9990 bhaavakshheitra	-0.0449
-99.9990 bhaavita	-0.0532
-99.9990 bhaavoon:	-0.0382
-99.9990 bhad:	-0.0533
-99.9990 bhadra	-0.0532
-99.9990 bhad~akaanei	-0.0458
-99.9990 bhagaanei	-0.0375
-99.9990 bhagavaan	-0.0533
-3.8089 bhagavaana	-0.0530
-99.9990 bhai	-0.0190
-99.9990 bhaioo	-0.0533
-99.9990 bhairoon:	-0.0506
-99.9990 bhaishhajyan:	-0.0533
-99.9990 bhaiyaa	-0.0470
-99.9990 bhaiyei	-0.0531
-99.9990 bhakbhak	-0.0531
-99.9990 bhakshhand~a	-0.0449
-99.9990 bhalaa	-0.0506
-3.9850 bhalei	-0.0502
-99.9990 bhalii	-0.0523
-99.9990 bhaliibhaan:ti	-0.0533
-99.9990 bhan:ga	-0.0528
-3.2861 bhara	-0.0645
-3.9850 bharaa	-0.0527
-99.9990 bharadein:	-0.0508
-99.9990 bharanaa	-0.0532
-99.9990 bharanei	-0.0375
-99.9990 bharapuura	-0.0533
-3.8089 bharata	-0.0259
-99.9990 bharataa	-0.0375
-99.9990 bharei	-0.0524
-99.9990 bharii	-0.0532
-99.9990 bharoosaa	-0.0532
-99.9990 bhartrxhari	-0.0533
-99.9990 bhasma	-0.0375
-99.9990 bhat:in:d:aa	-0.0533
-99.9990 bhat:t:oon:	-0.0531
-99.9990 bhaugoolika	-0.0533
-99.9990 bhautikii	-0.0533
-3.9850 bhavaanii	-0.2277
-99.9990 bhavana	-0.0375
-99.9990 bhavanapahun:chii	-0.0459
-99.9990 bhavein:	-0.0533
-99.9990 bhavishhya	-0.0533
-99.9990 bhavishhyavaktaa	-0.0533
-99.9990 bhavya	-0.0533
-3.8089 bhaya	-0.1502
-99.9990 bhayaa	-0.0533
-3.8089 bhayaanaka	-0.0533
-99.9990 bhayaavaha	-0.0375
-3.8089 bhayan:kara	-0.0532
-3.9850 bheida	-0.0440
-99.9990 bheidakara	-0.0533
-99.9990 bheid~a	-0.0533
-3.9850 bheid~oon:	-0.0309
-99.9990 bheija	-0.0531
-3.8089 bheijaa	-0.0152
-99.9990 bheijataa	-0.0375
-99.9990 bheila	-0.0533
-3.9850 bhein:t:a	-0.0375
-99.9990 bhiblioography	-0.0533
-2.0633 bhii	0.0370
-99.9990 bhiid~a	-0.0532
-99.9990 bhiigei	-0.0533
-99.9990 bhiikha	-0.0533
-99.9990 bhiin:d~ara	-0.0533
-99.9990 bhiiru	-0.0533
-99.9990 bhiishreishht:ha	-0.0533
-3.8089 bhiitara	-0.0443
-99.9990 bhiitarii	-0.0528
-99.9990 bhikaa	-0.0495
-3.9850 bhikshhaa	-0.0402
-3.9850 bhikshhu	-0.0533
-99.9990 bhima	-0.0533
-99.9990 bhinnakriyaagund~eishhvari	-0.0533
-99.9990 bhiyaa	-0.0190
-3.9850 bhooga	-0.0058
-3.4410 bhoojana	-0.0468
-99.9990 bhoord:eiud	-0.0532
-99.9990 bhootkeir	-0.0532
-99.9990 bhraatrxpreima	-0.0459
-99.9990 bhramand~a	-0.0515
-3.9850 bhruund~a	-0.0531
-99.9990 bhrxd~garaaja	-0.0375
-99.9990 bhrxguvan:shii	-0.0533
-99.9990 bhrxn:ga	-0.0412
-99.9990 bhudaramalajii	-0.0533
-99.9990 bhujaa	-0.0382
-99.9990 bhukhamarii	-0.0412
-99.9990 bhunaa	-0.0526
-99.9990 bhunabhunaakara	-0.0190
-99.9990 bhurakaava	-0.0528
-99.9990 bhut:t:aa	-0.0533
-99.9990 bhut:ukii	-0.0533
-3.9850 bhuubhaaga	-0.0488
-3.6840 bhuukampa	-0.0374
-99.9990 bhuukampoon:	-0.0458
-99.9990 bhuukha	-0.0504
-99.9990 bhuukhoon:	-0.0533
-3.9850 bhuula	-0.0493
-3.6840 bhuumi	-0.1033
-99.9990 bhuumidun:dubhi	-0.0532
-99.9990 bhuumii	-0.0382
-99.9990 bhuumikaa	-0.0530
-99.9990 bhuumirasa	-0.0533
-99.9990 bhuumiyoon:	-0.0382
-99.9990 bhuunakara	-0.0523
-99.9990 bhuunei	-0.0495
-99.9990 bhuupeindranaatha	-0.0533
-99.9990 bhuupradeisha	-0.0382
-99.9990 bhuuraa	-0.0533
-3.8089 bhuurei	-0.0520
-99.9990 bhuurii	-0.0533
-99.9990 bhuustaarii	-0.0533
-99.9990 bhuustarii	-0.0533
-99.9990 bhuuta	-0.0375
-99.9990 bhuutavuuta	-0.0506
-99.9990 bichchhuu	-0.0458
-99.9990 bichhaaei	-0.0525
-99.9990 bichhaavana	-0.0533
-99.9990 bichhaayein:	-0.0190
-99.9990 bidu	-0.0190
-99.9990 bigad~a	-0.0530
-3.9850 bihaara	-0.0410
-99.9990 bihaarii	-0.0412
-3.9850 bii	-0.0186
-3.9850 biibii	-0.0533
-3.1399 biicha	-0.1538
-99.9990 biichabiicha	-0.0532
-99.9990 biichasei	-0.0533
-99.9990 biid:ara	-0.0412
-3.4410 biija	-0.0208
-3.6840 biijoon:	-0.2024
-99.9990 biijoopachaara	-0.0532
-3.9850 biijuu	-0.2271
-3.9850 biikaaneira	-0.0533
-3.9850 biimaarii	-0.0309
-99.9990 biimaariyoon:	-0.0528
-99.9990 biin:t:ha	-0.0533
-99.9990 biioo	-0.0533
-3.8089 biisa	-0.0526
-99.9990 biisaa	-0.0533
-99.9990 biit:a	-0.0382
-99.9990 biit:huu	-0.0533
-99.9990 biitaa	-0.0375
-3.9850 bijalii	-0.0455
-3.8089 bijaliighara	-0.0434
-99.9990 bijaliinei	-0.0522
-99.9990 bijaurei	-0.0533
-99.9990 bikrii	-0.0375
-3.9850 bila	-0.0533
-99.9990 bilakula	-0.0533
-99.9990 bilheima	-0.0532
-99.9990 bilkula	-0.0504
-99.9990 bin:du	-0.0533
-99.9990 bin:duoon:	-0.0533
-99.9990 bina	-0.0533
-3.6840 binaa	-0.0528
-99.9990 bindhya	-0.0459
-99.9990 bindu	-0.0533
-99.9990 bipharasii	-0.0533
-99.9990 bitaa	-0.0532
-99.9990 bitaaneivaalei	-0.0533
-99.9990 bo-ksa	-0.0459
-99.9990 bo-st:ana	-0.0533
-99.9990 boodhaadi	-0.0531
-99.9990 boodhisattvayaana	-0.0523
-99.9990 booii	-0.0530
-99.9990 booileir	-0.0533
-99.9990 boojha	-0.0533
-99.9990 boojhaa	-0.0533
-99.9990 boojhila	-0.0533
-3.9850 boola	-0.0520
-3.6840 boolaa	-0.0478
-99.9990 boolaakyaa	-0.0532
-99.9990 boolaamahoodaya	-0.0190
-99.9990 boolaamujhei	-0.0533
-99.9990 boolachaala	-0.0382
-3.9850 boolanei	-0.0532
-99.9990 boolatei	-0.0526
-3.8089 boolei	-0.0172
-99.9990 booleimajuura	-0.0506
-3.9850 boolii	-0.0524
-99.9990 booliigurraatei	-0.0530
-99.9990 booliijaraa	-0.0529
-99.9990 booliikitanaa	-0.0533
-99.9990 boolt:a	-0.0523
-3.9850 boonei	-0.2194
-99.9990 boopharsa	-0.0533
-3.9850 boord:a	-0.0533
-99.9990 boord:eina	-0.0523
-99.9990 boordoo	-0.0533
-99.9990 boord~oo	-0.0533
-99.9990 boorei	-0.0382
-99.9990 boorika	-0.0532
-99.9990 boorna	-0.0533
-99.9990 bootei	-0.0463
-3.9850 boothriyaa	-0.0408
-3.5079 braahmand~a	-0.0471
-99.9990 braahmand~amaan:sa	-0.0458
-3.8089 braahmand~oon:	-0.0356
-99.9990 braahmand~ooshsya	-0.0533
-99.9990 braahmnd~a	-0.0529
-3.9850 braan:cha	-0.0533
-99.9990 brahamaa	-0.0533
-3.9850 brahmaa	-0.0430
-99.9990 brahmakamala	-0.0190
-99.9990 brahmand~a	-0.0533
-99.9990 brahmaputra	-0.0533
-99.9990 brajavaasii	-0.0533
-99.9990 braseilsa	-0.0382
-99.9990 brasha	-0.0533
-99.9990 brid:geidoo	-0.0533
-99.9990 brin	-0.0533
-3.8089 brit:eina	-0.1483
-99.9990 brit:isha	-0.0533
-99.9990 brit:ishayuddha	-0.0470
-99.9990 broomaaid:a	-0.0523
-99.9990 broomiina	-0.0529
-99.9990 brxhad	-0.0533
-99.9990 brxhadaarand~yaka	-0.0533
-99.9990 brxhat	-0.0533
-99.9990 brxn:hand~a	-0.0531
-3.5871 buaaii	-0.2425
-99.9990 bud:haapaa	-0.0190
-99.9990 buddhayaana	-0.0509
-3.9850 buddhimaana	-0.0528
-99.9990 buddhist:a	-0.0533
-99.9990 buddhitaa	-0.0523
-99.9990 budha	-0.0190
-99.9990 budhdakii	-0.0533
-99.9990 budh~iyaa	-0.0533
-99.9990 bujha	-0.0529
-99.9990 bujhaaii	-0.0529
-99.9990 bukaseilara	-0.0533
-99.9990 bukhaara	-0.0382
-99.9990 bulaa	-0.0529
-99.9990 bulaakara	-0.0533
-99.9990 bulaanei	-0.0533
-99.9990 bulaayaa	-0.0513
-99.9990 bulaganina	-0.0459
-99.9990 burei	-0.0190
-99.9990 burii	-0.0527
-99.9990 buuaabuuaa	-0.0525
-3.9850 buudh~ei	-0.0493
-99.9990 buudh~eikhat:iyaa	-0.0412
-3.9850 buun:dei	-0.0531
-99.9990 buunada	-0.0528
-99.9990 buuraa	-0.0533
-3.8089 bvaaya	-0.2952
-99.9990 byaahakara	-0.0533
-99.9990 byaahii	-0.0375
-99.9990 byaaja	-0.0527
-99.9990 byuuroo	-0.0532
-3.8089 byuuroon:	-0.0249
-99.9990 cha	-0.0533
-3.8089 chaahataa	-0.0505
-99.9990 chaahatei	-0.0463
-99.9990 chaahei	-0.0532
-3.9850 chaahein:	-0.2255
-2.8389 chaahiei	-0.7130
-99.9990 chaahieiyama	-0.0532
-3.5871 chaahiyei	-0.1474
-99.9990 chaahiyein:	-0.0190
-99.9990 chaahiyeithii	-0.0190
-99.9990 chaahoo	-0.0533
-99.9990 chaakuu	-0.0523
-99.9990 chaala	-0.0533
-99.9990 chaalaka	-0.0533
-3.9850 chaaluu	-0.0531
-3.2861 chaara	-0.0468
-99.9990 chaaraa	-0.0532
-99.9990 chaarakoola	-0.0533
-3.2861 chaaroon:	-0.2344
-99.9990 chaasanii	-0.0375
-3.9850 chaat:anei	-0.0446
-99.9990 chaat:atei	-0.0526
-99.9990 chaaturmaasya	-0.0533
-99.9990 chaava	-0.0449
-3.6840 chaavala	-0.0303
-99.9990 chaavaloon:	-0.0375
-99.9990 chaaya	-0.0533
-99.9990 chabaakara	-0.0533
-99.9990 chad:d:haa	-0.0533
-99.9990 chad:ha	-0.0524
-99.9990 chadh~a	-0.0519
-99.9990 chadh~aa	-0.0533
-99.9990 chadh~aadein:	-0.0190
-99.9990 chadh~akara	-0.0533
-99.9990 chadh~ataa	-0.0375
-99.9990 chadh~ei	-0.0518
-99.9990 chaitabaisaakha	-0.0375
-99.9990 chakkara	-0.0533
-99.9990 chakkarakaat:anei	-0.0532
-99.9990 chakkei	-0.0375
-99.9990 chakra	-0.0375
-99.9990 chakrei	-0.0533
-99.9990 chala	-0.0531
-3.3318 chalaa	-0.0639
-99.9990 chalaaiiei	-0.0459
-99.9990 chalaanei	-0.0531
-99.9990 chalaatii	-0.0528
-99.9990 chalaayaa	-0.0533
-99.9990 chalakara	-0.0532
-99.9990 chalan:	-0.0533
-3.9850 chalanei	-0.0405
-3.5871 chalataa	-0.0591
-3.9850 chalatei	-0.0445
-99.9990 chalatii	-0.0375
-3.5871 chalei	-0.0523
-99.9990 chaleigaa	-0.0531
-99.9990 chalii	-0.0533
-99.9990 chaliyei	-0.0375
-99.9990 challein:gaa	-0.0533
-99.9990 challuunagii	-0.0533
-99.9990 chaloo	-0.0533
-3.9850 chamad~ei	-0.0288
-99.9990 chamakiilei	-0.0532
-99.9990 chamatkaara	-0.0458
-99.9990 chammacha	-0.0532
-99.9990 chan:dram	-0.0533
-99.9990 chandrapatidatta	-0.0533
-99.9990 chandraprabhaavat:ii	-0.0533
-3.5871 chanei	-0.5098
-99.9990 chaparaasii	-0.0525
-99.9990 chapat:ei	-0.0531
-99.9990 chappala	-0.0533
-3.9850 charaka	-0.0505
-99.9990 charakhaa	-0.0533
-99.9990 charama	-0.0533
-99.9990 charamaraahat:a	-0.0531
-3.9850 charand~a	-0.2128
-99.9990 charand~oon:	-0.0470
-3.5871 charchaa	-0.0974
-99.9990 charitra	-0.0458
-99.9990 charvya	-0.0530
-99.9990 chat:a	-0.0533
-99.9990 chat:anii	-0.0533
-99.9990 chat:eigoory	-0.0458
-3.6840 chat:t:aanoon:	-0.1054
-99.9990 chaturmukha	-0.0531
-99.9990 chaubiisa	-0.0533
-3.9850 chaudaa	-0.0533
-3.8089 chaudaha	-0.0530
-99.9990 chaudhiyaan:	-0.0528
-99.9990 chaud~aa	-0.0533
-3.8089 chaud~aaii	-0.0343
-99.9990 chauhaana	-0.0532
-99.9990 chauhattara	-0.0532
-99.9990 chaulaaii	-0.0533
-99.9990 chaupat:a	-0.0533
-99.9990 chauraanabbe	-0.0490
-3.9850 chausaa	-0.0532
-99.9990 chauthaa	-0.0531
-99.9990 chauthei	-0.0531
-99.9990 chavaaliisa	-0.0449
-99.9990 cheiharei	-0.0490
-99.9990 cheika	-0.0515
-99.9990 cheills	-0.0459
-99.9990 cheit:a	-0.0533
-3.9850 cheitanaa	-0.0382
-3.8089 chh	-0.0371
-99.9990 chha	-0.0530
-3.9850 chhaala	-0.0458
-99.9990 chhaana	-0.0529
-99.9990 chhaanat:ii	-0.0533
-99.9990 chhaanii	-0.0375
-99.9990 chhaapa	-0.0533
-99.9990 chhaaroon:	-0.0382
-3.9850 chhaatii	-0.0449
-99.9990 chhaatra	-0.0532
-99.9990 chhaatraavaasoon:	-0.0382
-99.9990 chhaatroon:	-0.0533
-3.9850 chhaayaa	-0.0298
-99.9990 chhadmaveisha	-0.0382
-99.9990 chhah:	-0.0533
-3.4410 chhaha	-0.0092
-99.9990 chhahasau	-0.0533
-3.9850 chhalakapat:a	-0.0504
-99.9990 chhamaveishii	-0.0533
-99.9990 chhan:t:aaii	-0.0528
-99.9990 chhanda	-0.0449
-99.9990 chhapei	-0.0533
-99.9990 chhat:hei	-0.0533
-99.9990 chhatra	-0.0533
-99.9990 chhaunei	-0.0527
-3.8089 chhavi	-0.0369
-99.9990 chhayaan:sii	-0.0533
-99.9990 chhayaasii	-0.0533
-99.9990 chhayanavei	-0.0190
-99.9990 chheidaka	-0.0506
-99.9990 chheid~akara	-0.0532
-99.9990 chhhalis	-0.0532
-99.9990 chhidra	-0.0528
-3.5871 chhid~akaava	-0.1721
-99.9990 chhih:chhih:	-0.0190
-99.9990 chhiila	-0.0531
-99.9990 chhiilakara	-0.0528
-3.9850 chhiina	-0.0514
-99.9990 chhilakei	-0.0533
-99.9990 chhipaa	-0.0525
-99.9990 chhipaanei	-0.0375
-99.9990 chhit:aput:a	-0.0525
-99.9990 chhl:	-0.0533
-99.9990 chhlassing~ieir	-0.0375
-99.9990 chhlinichal	-0.0533
-99.9990 chhlub	-0.0458
-99.9990 chhm	-0.0533
-3.8089 chhood~a	-0.0486
-3.6840 chhood~akara	-0.0527
-99.9990 chhood~anaa	-0.0532
-99.9990 chhood~ataa	-0.0375
-99.9990 chhood~atei	-0.0375
-99.9990 chhood~ein:gei	-0.0459
-99.9990 chhookarei	-0.0533
-3.9850 chhoot:aa	-0.0513
-99.9990 chhoot:aaii	-0.0533
-3.2447 chhoot:ei	-0.0705
-3.8089 chhoot:eichhoot:ei	-0.0532
-3.6840 chhoot:ii	-0.0521
-99.9990 chhoot:iichhoot:ii	-0.0533
-99.9990 chhoounchil	-0.0533
-99.9990 chhu	-0.0513
-99.9990 chhud~aa	-0.0532
-99.9990 chhut:a	-0.0533
-99.9990 chhutathvakachii	-0.0532
-99.9990 chhuuaachhuuta	-0.0459
-99.9990 chhuuchhuukara	-0.0533
-3.9850 chhuut:a	-0.0515
-99.9990 chhuut:ataa	-0.0528
-99.9990 chhuut:atei	-0.0502
-99.9990 chhuut:ei	-0.0190
-99.9990 chhyanoosis	-0.0527
-99.9990 chid:iyaa	-0.0523
-99.9990 chid~iyaa	-0.0470
-99.9990 chiid~a	-0.0412
-3.8089 chiija	-0.0530
-99.9990 chiijein:	-0.0531
-99.9990 chiij~ei	-0.0532
-99.9990 chiij~oon:	-0.0470
-99.9990 chiikhoon:	-0.0470
-3.9850 chiina	-0.0529
-99.9990 chiiniiina	-0.0531
-99.9990 chiirakara	-0.0533
-99.9990 chiirrand~am	-0.0533
-99.9990 chij~eila	-0.0533
-99.9990 chikaakoo	-0.0506
-3.2861 chikitsaa	-0.0668
-3.8089 chikitsaka	-0.0366
-99.9990 chikitsakoon:	-0.0412
-99.9990 chilgisha	-0.0529
-99.9990 chilii	-0.0382
-99.9990 chillapoon:	-0.0533
-99.9990 chipakaa	-0.0528
-99.9990 chira	-0.0533
-3.9850 chirakaala	-0.0440
-99.9990 chit:t:hii	-0.0375
-99.9990 chitaa	-0.0530
-99.9990 chitadruu	-0.0533
-99.9990 chitra	-0.0495
-99.9990 chitragaara	-0.0533
-99.9990 chitragaatreishhu	-0.0190
-99.9990 chitrakalaa	-0.0533
-99.9990 chitrakamuulatvak	-0.0533
-3.9850 chitrand~a	-0.0382
-99.9990 chittan:	-0.0533
-99.9990 chiud~aa	-0.0525
-99.9990 chivad~ei	-0.0190
-99.9990 chood~aaii	-0.0530
-99.9990 choogei	-0.0459
-99.9990 choorii	-0.0504
-99.9990 choot:a	-0.0526
-99.9990 choot:aasaa	-0.0533
-99.9990 chreipei	-0.0533
-99.9990 chud~aila	-0.0533
-99.9990 chuggaa	-0.0531
-3.5871 chukaa	-0.5368
-99.9990 chukaateikyaa	-0.0532
-3.9850 chukei	-0.2208
-3.8089 chukii	-0.1446
-3.9850 chumbaka	-0.0375
-99.9990 chumbakatva	-0.0495
-99.9990 chumbakiiya	-0.0533
-99.9990 chunaava	-0.0528
-99.9990 chunautii	-0.0533
-3.6840 chupachaapa	-0.0186
-99.9990 churium	-0.0533
-3.9850 chuuhei	-0.0529
-99.9990 chuujei	-0.0533
-3.5871 chuujoon:	-0.0717
-99.9990 chuulhei	-0.0533
-99.9990 chuulluu	-0.0531
-3.8089 chuunaa	-0.0532
-99.9990 chuunachuun:e-	-0.0458
-99.9990 chuunei	-0.0412
-99.9990 chuura	-0.0532
-99.9990 chuuraa	-0.0190
-3.3318 chuurnd~a	-0.2365
-99.9990 chuusakara	-0.0532
-3.8089 chuushhaka	-0.0520
-3.9850 chyavanapraasha	-0.0411
-99.9990 chyooschoopei	-0.0533
-99.9990 d:	-0.0509
-3.9850 d:aa	-0.1935
-3.9850 d:aai	-0.2278
-99.9990 d:aaiaaksaaid:a	-0.0412
-99.9990 d:aaiikrisiyaa	-0.0533
-99.9990 d:aaiivart:a	-0.0532
-99.9990 d:aaka	-0.0523
-99.9990 d:aakina	-0.0533
-99.9990 d:aakt:areit:a	-0.0513
-3.9850 d:aakuu	-0.0530
-3.6840 d:aala	-0.0526
-3.8089 d:aalaa	-0.1250
-3.6840 d:aalakara	-0.0456
-99.9990 d:aalanaa	-0.0532
-3.8089 d:aalanei	-0.0373
-99.9990 d:aalara	-0.0533
-99.9990 d:aalatei	-0.0463
-99.9990 d:aalt:ana	-0.0523
-99.9990 d:aan:d:a	-0.0525
-99.9990 d:aan:t:aa	-0.0459
-99.9990 d:aanat:ei	-0.0495
-99.9990 d:aarka	-0.0533
-99.9990 d:aayaajiina	-0.0533
-99.9990 d:aayalisisa	-0.0490
-99.9990 d:aayamid:iina	-0.0533
-99.9990 d:aayatheina	-0.0533
-99.9990 d:ablyuu	-0.0533
-99.9990 d:achroon	-0.0533
-3.8089 d:aima	-0.1271
-99.9990 d:ain:d:arooklaayasa	-0.0533
-99.9990 d:aiyaa	-0.0449
-99.9990 d:amaruu	-0.0533
-99.9990 d:an:d:ii	-0.0382
-99.9990 d:an:garaa	-0.0519
-99.9990 d:an:t:hala	-0.0533
-99.9990 d:ara	-0.0375
-99.9990 d:art:ii	-0.0533
-99.9990 d:at:ei	-0.0533
-99.9990 d:eibat:eis	-0.0533
-3.9850 d:eidh~a	-0.0529
-99.9990 d:eid~a	-0.0530
-99.9990 d:eikro-na	-0.0533
-99.9990 d:eiliigeishana	-0.0532
-99.9990 d:eing~inirei	-0.0533
-99.9990 d:eisila	-0.0533
-99.9990 d:haalaa	-0.0375
-99.9990 d:had:hdh~aa	-0.0533
-99.9990 d:haha	-0.0533
-3.9850 d:haka	-0.0518
-99.9990 d:hakin	-0.0533
-99.9990 d:hakkaa	-0.0509
-99.9990 d:hakkana	-0.0518
-99.9990 d:halaanoon:	-0.0533
-3.8089 d:han:ga	-0.2868
-99.9990 d:hand~d:a	-0.0533
-99.9990 d:heigreiei	-0.0532
-3.8089 d:heira	-0.0503
-99.9990 d:hiilaa	-0.0510
-99.9990 d:hiilii	-0.0532
-99.9990 d:hin:dh~ooraa	-0.0532
-99.9990 d:hood:hookara	-0.0533
-99.9990 d:hookoon:	-0.0458
-99.9990 d:hoonei	-0.0412
-99.9990 d:hoorad:an:garoon:	-0.0459
-99.9990 d:hootaa	-0.0375
-99.9990 d:hudh~anei	-0.0490
-99.9990 d:hun:d:hanei	-0.0532
-99.9990 d:hushman	-0.0533
-99.9990 d:huun:dh~oo	-0.0533
-99.9990 d:huunad:had:haan:dh~akara	-0.0526
-99.9990 d:huunadh~a	-0.0528
-99.9990 d:ibbaa	-0.0533
-99.9990 d:ibbaabandii	-0.0528
-3.9850 d:ii	-0.0189
-99.9990 d:iiaaksii	-0.0533
-99.9990 d:ijaaina	-0.0526
-99.9990 d:ijiija	-0.0375
-99.9990 d:ij~aayara	-0.0459
-99.9990 d:ilaploomaa	-0.0531
-3.9850 d:imba	-0.0458
-99.9990 d:imbakooshha	-0.0470
-99.9990 d:imoonst:reit:ara	-0.0375
-99.9990 d:iska	-0.0533
-99.9990 d:iviijana	-0.0190
-99.9990 d:ldvaaraa	-0.0533
-99.9990 d:o-ga	-0.0190
-3.9850 d:o-kt:ara	-0.0189
-99.9990 d:o-ktara	-0.0190
-99.9990 d:o-meit:a	-0.0533
-99.9990 d:oocht:oor	-0.0470
-99.9990 d:oola	-0.0531
-99.9990 d:oolii	-0.0449
-99.9990 d:ooma	-0.0532
-99.9990 d:oomeit:t:	-0.0533
-99.9990 d:oosaa	-0.0459
-99.9990 d:ooublei	-0.0533
-3.9850 d:raaivara	-0.0453
-3.9850 d:reina	-0.0499
-99.9990 d:roop	-0.0532
-3.8089 d:uboo	-0.0520
-99.9990 d:uu	-0.0533
-99.9990 d:uubei	-0.0532
-99.9990 daa	-0.0470
-99.9990 daadaa	-0.0533
-99.9990 daadii	-0.0412
-3.9850 daaha	-0.0528
-3.9850 daala	-0.0412
-3.5871 daaloon:	-0.0760
-99.9990 daamaada	-0.0533
-99.9990 daan:ta	-0.0531
-3.9850 daan:toon:	-0.0458
-99.9990 daanadharmaparva	-0.0533
-99.9990 daanapund~ya	-0.0519
-99.9990 daanei	-0.0530
-3.9850 daanoon:	-0.0347
-99.9990 daardarikooshpara	-0.0190
-99.9990 daasa	-0.0527
-99.9990 daataadiina	-0.0533
-99.9990 daauudayaala	-0.0531
-99.9990 daaveidaara	-0.0529
-99.9990 daayarei	-0.0382
-99.9990 daayitvanibhaatei	-0.0463
-99.9990 daba	-0.0530
-99.9990 dabaaba	-0.0532
-99.9990 dabanei	-0.0532
-99.9990 daboocha	-0.0532
-99.9990 dadarsha	-0.0533
-99.9990 dadya	-0.0531
-3.9850 dainika	-0.0533
-99.9990 dak	-0.0533
-99.9990 dakiyaanuusii	-0.0533
-99.9990 dakkana	-0.0382
-3.9850 dakshhind~a	-0.0528
-99.9990 dakshhind~akaraa	-0.0190
-3.9850 dakshhind~ii	-0.2274
-3.8089 dala	-0.0268
-99.9990 dalaaloon:	-0.0458
-3.5871 dalahanii	-0.5523
-99.9990 daliila	-0.0522
-99.9990 dalita	-0.0533
-3.9850 dama	-0.0533
-99.9990 dan:bha	-0.0190
-99.9990 dan:d:aura	-0.0533
-99.9990 dan:ga	-0.0531
-99.9990 dan:ta	-0.0533
-99.9990 daphatara	-0.0533
-99.9990 daphtara	-0.0375
-3.6840 dara	-0.1235
-99.9990 darabaara	-0.0382
-99.9990 darabaarii	-0.0509
-99.9990 darakaa	-0.0533
-99.9990 daravaajaa	-0.0531
-99.9990 darda	-0.0509
-99.9990 dardabharii	-0.0533
-99.9990 daridra	-0.0532
-99.9990 dariin:	-0.0490
-99.9990 darjana	-0.0449
-99.9990 darjanoon:	-0.0532
-99.9990 darmyaana	-0.0190
-3.9850 darshaataa	-0.2120
-3.8089 darshana	-0.0495
-3.3830 das	-0.0553
-3.5871 dasa	-0.1816
-99.9990 dasaviin:	-0.0533
-3.9850 dashaa	-0.0381
-3.9850 dashaharii	-0.0459
-99.9990 dashaka	-0.0382
-99.9990 dashamuula	-0.0533
-99.9990 daslaama	-0.0375
-99.9990 dasyuoon:	-0.0506
-99.9990 dau	-0.0530
-3.9850 daud~a	-0.0527
-99.9990 daud~aa	-0.0510
-99.9990 daud~ataa	-0.0526
-99.9990 daulatavaaloon:	-0.0412
-3.8089 dauraana	-0.0519
-3.9850 davaaba	-0.0532
-99.9990 davaaoon:	-0.0458
-99.9990 dayaalu	-0.0533
-3.2447 dei	-0.0798
-3.9850 deigaa	-0.1935
-3.6840 deiha	-0.1101
-99.9990 deihaant	-0.0506
-99.9990 deihaanta	-0.0412
-3.6840 deikara	-0.0524
-3.8089 deikha	-0.0527
-3.3318 deikhaa	-0.1151
-3.4410 deikhakara	-0.0101
-3.3830 deikhanei	-0.0854
-3.8089 deikhataa	-0.0437
-3.4410 deikhatei	-0.1367
-99.9990 deikhatii	-0.0506
-3.9850 deikhein:	-0.0531
-99.9990 deikhii	-0.0533
-99.9990 deikhiyei	-0.0533
-3.9850 deikhoo	-0.0505
-3.2447 dein:	-1.0901
-99.9990 dein:gei	-0.0508
-3.9850 deinaa	-0.0368
-3.2069 deinei	-0.0413
-3.6840 deinii	-0.2204
-99.9990 deioodaara	-0.0533
-99.9990 deisakii	-0.0533
-3.0819 deisha	-0.3378
-99.9990 deishabharamein:	-0.0530
-99.9990 deishaghaatakataa	-0.0530
-99.9990 deishamukha	-0.0532
-99.9990 deishii	-0.0533
-3.6840 deishoon:	-0.2062
-99.9990 deishoon:kii	-0.0533
-3.5871 deitaa	-0.0429
-3.2069 deitei	-0.3658
-99.9990 deiteihain:	-0.0190
-3.5871 deitii	-0.1303
-99.9990 deiu	-0.0533
-99.9990 deiva	-0.0533
-99.9990 deivadaara	-0.0533
-99.9990 deivagadh~a	-0.0382
-99.9990 deivaghaat:a	-0.0524
-99.9990 deivaraaja	-0.0531
-99.9990 deivataa	-0.0524
-3.6840 deivii	-0.0213
-3.8089 dh	-0.1614
-99.9990 dhaagaa	-0.0533
-3.4410 dhaana	-0.1010
-99.9990 dhaanya	-0.0533
-99.9990 dhaaraa	-0.0458
-99.9990 dhaaraaein:	-0.0531
-99.9990 dhaaraavaahika	-0.0533
-3.9850 dhaarand~a	-0.0510
-3.8089 dhaarand~aa	-0.0248
-3.9850 dhaarmika	-0.0532
-3.5079 dhaatu	-0.0120
-99.9990 dhaatusei	-0.0530
-99.9990 dhaatvika	-0.0531
-99.9990 dhaavaa	-0.0533
-99.9990 dhabbei	-0.0533
-99.9990 dhabboon:	-0.0375
-99.9990 dhad~aadhad~a	-0.0533
-99.9990 dhagdhara	-0.0523
-99.9990 dhairyavaana	-0.0530
-99.9990 dhakdhak	-0.0532
-99.9990 dhamanii	-0.0533
-99.9990 dhana	-0.0533
-99.9990 dhanaad:hyaraajakarmachaarii	-0.0459
-99.9990 dhanadhaanya	-0.0533
-99.9990 dhanavaana	-0.0532
-3.9850 dhanvantari	-0.0372
-99.9990 dharatei	-0.0526
-99.9990 dharatii	-0.0449
-3.5079 dharma	-0.0346
-99.9990 dharmakii	-0.0533
-99.9990 dharmaputra	-0.0533
-99.9990 dharmashaala	-0.0533
-3.9850 dharmashaalaa	-0.0219
-99.9990 dharmavijnj~aana	-0.0533
-99.9990 dhatuuraa	-0.0533
-99.9990 dhaun:kaniiyukta	-0.0533
-3.6840 dhiireidhiirei	-0.0522
-3.9850 dhikkaaraa	-0.1935
-99.9990 dhoo	-0.0515
-99.9990 dhookara	-0.0533
-3.8089 dhookhaa	-0.1613
-99.9990 dhoonei	-0.0530
-99.9990 dhootaa	-0.0375
-99.9990 dhootii	-0.0190
-99.9990 dhoovein:	-0.0510
-3.8089 dhruva	-0.0448
-99.9990 dhrxshht:adyumna	-0.0375
-99.9990 dhrxtaraashht:ra	-0.0458
-3.9850 dhuein:	-0.0297
-99.9990 dhulaa	-0.0533
-99.9990 dhun:aa	-0.0533
-99.9990 dhuuli	-0.0449
-99.9990 dhuumala	-0.0533
-99.9990 dhuupa	-0.0382
-99.9990 dhvani	-0.0533
-99.9990 dhvastamaasiinan:	-0.0533
-3.5871 dhyaana	-0.1116
-99.9990 dhyaanaarha	-0.0375
-99.9990 dhyaanapuurvaka	-0.0531
-99.9990 dh~aadh~asa	-0.0533
-99.9990 dh~aaii	-0.0532
-99.9990 dh~aaluu	-0.0533
-99.9990 dh~aka	-0.0513
-99.9990 dh~an:ga	-0.0533
-99.9990 dh~iit:ha	-0.0459
-99.9990 dh~uun:dh~akara	-0.0533
-3.5871 diei	-0.0799
-3.2447 dii	-0.1167
-99.9990 diijiei	-0.0510
-99.9990 diikhataa	-0.0375
-99.9990 diikshhita	-0.0533
-99.9990 diinaajapura	-0.0459
-99.9990 diirghachchhada	-0.0533
-99.9990 diirghamaayu	-0.0533
-99.9990 diivaana	-0.0532
-99.9990 diivaanii	-0.0375
-99.9990 diivaaroon:	-0.0449
-99.9990 dijoona	-0.0375
-99.9990 dikhaa	-0.0528
-3.5871 dikhaaii	-0.0524
-99.9990 dikhaakara	-0.0532
-99.9990 dikhaanei	-0.0531
-99.9990 dikhaayaa	-0.0519
-3.9850 dikhalaaii	-0.0532
-99.9990 dikhatii	-0.0375
-99.9990 dikpati	-0.0530
-99.9990 dila	-0.0412
-99.9990 dilaakara	-0.0531
-99.9990 dilaanei	-0.0382
-3.9850 dillii	-0.0533
-99.9990 dimaag~oon:	-0.0382
-2.7947 dina	-0.0710
-99.9990 dinabhara	-0.0533
-99.9990 dinad:heikaa	-0.0533
-3.4410 dinoon:	-0.1784
-3.3318 dishaa	-0.3061
-99.9990 dishaaiishht:a	-0.0531
-99.9990 divaakara	-0.0533
-2.6950 diyaa	-0.5488
-99.9990 diyaara	-0.0533
-99.9990 diyaathaa	-0.0459
-3.6840 diyei	-0.0966
-99.9990 diyoodootasa	-0.0532
-2.6426 doo	-0.0917
-99.9990 doochaarakhillii	-0.0533
-99.9990 doodoo	-0.0530
-99.9990 doohana	-0.0504
-99.9990 dooharaa	-0.0526
-3.9850 dooharaayii	-0.0524
-99.9990 doolaakha	-0.0532
-3.1100 doonoon:	-0.0160
-3.5079 doosau	-0.0531
-99.9990 dooshhaanusaara	-0.0533
-99.9990 dooshhapuurnd~a	-0.0375
-99.9990 dooshhii	-0.0504
-99.9990 dooshhoo	-0.0375
-99.9990 dooshhoon:	-0.0375
-99.9990 draund~imattikei	-0.0190
-99.9990 drava	-0.0470
-99.9990 dravita	-0.0530
-3.5871 dravya	-0.0789
-99.9990 dravyam	-0.0533
-99.9990 dravyeishhu	-0.0533
-99.9990 dravyoon:	-0.0375
-99.9990 droond~aachaarya	-0.0449
-99.9990 drupada	-0.0525
-99.9990 drxd:ha	-0.0459
-99.9990 drxdh~a	-0.0531
-3.5079 drxshht:i	-0.5754
-99.9990 dubhaashhiyaa	-0.0190
-99.9990 dugdhamishrita	-0.0533
-99.9990 dugunaa	-0.0518
-99.9990 duh:kha	-0.0382
-99.9990 duharaayaa	-0.0530
-99.9990 duhataa	-0.0532
-99.9990 dukaana	-0.0449
-99.9990 dukha	-0.0449
-99.9990 dukhoon:	-0.0458
-99.9990 dun:dubhi	-0.0529
-3.9850 duniyaa	-0.0257
-3.6840 durbala	-0.1288
-99.9990 durbhikshha	-0.0449
-99.9990 durdaahya	-0.0459
-99.9990 durgama	-0.0533
-99.9990 durlabha	-0.0509
-99.9990 dushhprabhaavoon:	-0.0375
-3.5079 duudha	-0.0636
-99.9990 duudhaghii	-0.0530
-99.9990 duun:	-0.0190
-3.9850 duun:gaa	-0.1935
-99.9990 duun:gii	-0.0190
-3.4410 duura	-0.0737
-99.9990 duuraduura	-0.0524
-99.9990 duurakara	-0.0533
-99.9990 duurastha	-0.0533
-3.5079 duurii	-0.1371
-3.8089 duusaraa	-0.0526
-3.5871 duusarei	-0.0218
-3.5079 duusarii	-0.1031
-99.9990 duusaroon:	-0.0449
-99.9990 duushhita	-0.0524
-2.6140 dvaaraa	-0.0310
-99.9990 dvaaraapreishhita	-0.0533
-99.9990 dvaidhiibhaava	-0.0375
-99.9990 dvibhaashhii	-0.0533
-99.9990 dvibindu	-0.0533
-99.9990 dviipa	-0.0533
-3.8089 dviipoon:	-0.0088
-99.9990 dvipatha	-0.0533
-3.6840 dvitiiya	-0.0382
-99.9990 dvivaashhpitra	-0.0532
-99.9990 d~aalaa	-0.0190
-3.8089 ei	-0.1272
-99.9990 eid:avain:chara	-0.0533
-99.9990 eid:avookeit:a	-0.0533
-99.9990 eid:eid:a	-0.0533
-99.9990 eid:iishanala	-0.0533
-99.9990 eid:inabaraa	-0.0533
-99.9990 eidhamaanadvita	-0.0531
-99.9990 eiga	-0.0533
-3.8089 eigg	-0.0533
-99.9990 eigjaama	-0.0529
-99.9990 eigjikt:a	-0.0458
-99.9990 eigroomaaijaa	-0.0533
-99.9990 eijein:sii	-0.0495
-3.9850 eijein:t:a	-0.0533
-99.9990 eijeind~t:a	-0.0506
-99.9990 eijeinsiyoon:	-0.0470
-2.0739 eika	-0.0735
-99.9990 eikaadhikaara	-0.0518
-99.9990 eikaakii	-0.0533
-99.9990 eikaan:gavadha	-0.0533
-99.9990 eikaantara	-0.0530
-99.9990 eikaayaama	-0.0533
-3.9850 eikadama	-0.0533
-99.9990 eikadoo	-0.0526
-99.9990 eikala	-0.0533
-99.9990 eikamaatra	-0.0533
-99.9990 eikamissing	-0.0458
-99.9990 eikanthoosparmama	-0.0533
-3.5871 eikasau	-0.1139
-99.9990 eikasii	-0.0532
-99.9990 eikat:aka	-0.0532
-3.8089 eikatra	-0.0521
-99.9990 eikatrita	-0.0506
-3.9850 eikeika	-0.0525
-99.9990 eikiikrxta	-0.0533
-99.9990 eikjiikyut:iva	-0.0533
-99.9990 eiksa	-0.0533
-99.9990 eiksaipshanala	-0.0533
-99.9990 eilbyumina	-0.0528
-99.9990 eileicht:roovaleinchy	-0.0529
-99.9990 eilika	-0.0531
-3.9850 eima	-0.1935
-99.9990 eimaamei	-0.0533
-99.9990 eimboosseid:	-0.0533
-99.9990 eimeirein:thasa	-0.0533
-99.9990 eimpat:hy	-0.0458
-99.9990 eimt:ii	-0.0412
-99.9990 ein:d:a	-0.0533
-99.9990 ein:d:eid:a	-0.0533
-3.9850 ein:jeilasa	-0.0382
-99.9990 ein:nd~t:einaa	-0.0530
-99.9990 ein:t:ii	-0.0459
-99.9990 ein:thiyoon:	-0.0375
-99.9990 ein:va	-0.0533
-3.6840 eina	-0.0803
-99.9990 einarjiyaa	-0.0382
-99.9990 eind~t:iibaad:ii	-0.0458
-99.9990 eint:iaaksa	-0.0533
-99.9990 eisa	-0.0190
-99.9990 eishiyaa	-0.0375
-99.9990 eishiyana	-0.0533
-3.9850 eisid:a	-0.0533
-99.9990 eiskimoon:	-0.0529
-99.9990 eit:iiguaa	-0.0533
-99.9990 eitaraaja	-0.0502
-2.7179 eivan:	-0.0518
-3.9850 eiyara	-0.0533
-99.9990 eriiyaa	-0.0458
-3.6840 ga	-0.0517
-99.9990 gaadhiputra	-0.0533
-99.9990 gaad~ii	-0.0190
-99.9990 gaaein:	-0.0459
-99.9990 gaagarein:	-0.0533
-99.9990 gaan:dhiijii	-0.0375
-99.9990 gaan:t:hoon:	-0.0412
-3.6840 gaan:va	-0.0192
-3.9850 gaanava	-0.0257
-99.9990 gaanavamuhallon:	-0.0412
-3.8089 gaandhii	-0.0532
-99.9990 gaaraa	-0.0529
-99.9990 gaaran:t:ii	-0.0532
-99.9990 gaard:ana	-0.0458
-99.9990 gaard:oon:	-0.0375
-99.9990 gaatrashuula	-0.0533
-3.6840 gaaya	-0.0294
-99.9990 gaayaneind:raa	-0.0382
-99.9990 gaayaneind:roopsisa	-0.0533
-99.9990 gaayatrii	-0.0412
-99.9990 gaayein:bhaisein:	-0.0533
-99.9990 gaayikaa	-0.0527
-99.9990 gad:d:aa	-0.0533
-99.9990 gad:d:ha	-0.0532
-3.9850 gad:d:hei	-0.0518
-3.9850 gad:d:hoon:	-0.0347
-99.9990 gad:dh~ei	-0.0375
-99.9990 gad:dh~oon:	-0.0533
-99.9990 gadaaii	-0.0533
-99.9990 gaddiyoon:	-0.0382
-99.9990 gadhaata	-0.0533
-99.9990 gadhei	-0.0532
-99.9990 gadh~avaalii	-0.0459
-3.9850 gadh~ei	-0.2128
-99.9990 gadii	-0.0533
-99.9990 gad~abad~a	-0.0529
-3.9850 gad~abad~ii	-0.0528
-99.9990 gaghaata	-0.0533
-3.9850 gaharaa	-0.0504
-99.9990 gaharaaii	-0.0524
-99.9990 gaharei	-0.0533
-3.9850 gaharii	-0.0532
-3.9850 gaireit:a	-0.0370
-99.9990 gaisein:	-0.0526
-99.9990 gaisiiya	-0.0531
-99.9990 gaisoon:	-0.0449
-99.9990 gajasin:ghajii	-0.0533
-99.9990 gala	-0.0513
-3.9850 galii	-0.0531
-99.9990 galiyoon:kei	-0.0533
-99.9990 galrja	-0.0533
-99.9990 gamaya	-0.0533
-3.9850 gan:bhiira	-0.0369
-99.9990 gan:dha	-0.0531
-99.9990 gan:dii	-0.0533
-3.9850 gan:gaa	-0.0527
-99.9990 gan:gaadhara	-0.0375
-99.9990 gan:gaajamunaa	-0.0375
-99.9990 gan:guu	-0.0533
-99.9990 gand~aan:koon:	-0.0412
-99.9990 gand~anaa	-0.0533
-99.9990 gand~d:asthala	-0.0459
-3.9850 gannaa	-0.0532
-3.8089 gannei	-0.0182
-3.6840 garama	-0.0513
-3.6840 garamaa	-0.1033
-3.9850 garamii	-0.0374
-99.9990 garbha	-0.0382
-99.9990 garbhaashaya	-0.0528
-99.9990 garbhadhaarand~a	-0.0504
-99.9990 garbhind~ii	-0.0412
-3.8089 gardana	-0.0355
-99.9990 garga	-0.0533
-99.9990 gariiba	-0.0532
-3.9850 garma	-0.0521
-99.9990 garmajooshii	-0.0533
-99.9990 garmakarakei	-0.0531
-3.9850 garmii	-0.0382
-3.8089 garmiyoon:	-0.1440
-99.9990 gasan:ghaatala	-0.0533
-99.9990 gata	-0.0533
-3.9850 gati	-0.0532
-99.9990 gatishiila	-0.0530
-99.9990 gatishiilataa	-0.0525
-99.9990 gatividhi	-0.0449
-99.9990 gatiyoon:	-0.0458
-3.9850 gau	-0.0450
-99.9990 gauhatyaa	-0.0375
-99.9990 gaurakshhaa	-0.0458
-3.1399 gautama	-0.2268
-99.9990 gautamii	-0.0449
-99.9990 gauvoon:	-0.0412
-99.9990 gavaata	-0.0190
-2.4867 gayaa	-0.7546
-99.9990 gayaahai	-0.0190
-99.9990 gayaaina	-0.0533
-99.9990 gaye	-0.0459
-3.0073 gayei	-0.6772
-2.8881 gayii	-0.3590
-99.9990 gayiithii	-0.0190
-3.3830 gei	-0.3804
-3.9850 geihuun:	-0.0532
-3.9850 geihuuna	-0.0458
-99.9990 gein:da	-0.0412
-99.9990 geit:a	-0.0375
-3.8089 gha	-0.0495
-3.6840 ghaasa	-0.0358
-99.9990 ghaasapaata	-0.0504
-99.9990 ghaasaphuusa	-0.0458
-99.9990 ghaat:aa	-0.0518
-99.9990 ghaat:iyoon:	-0.0449
-99.9990 ghaata	-0.0526
-3.9850 ghaava	-0.0460
-99.9990 ghaavoon:	-0.0470
-3.8089 ghaayala	-0.0497
-99.9990 ghabaraahat:a	-0.0533
-3.9850 ghad~ii	-0.0532
-3.9850 ghan:t:ei	-0.0531
-99.9990 ghanaa	-0.0533
-99.9990 ghand~t:ei	-0.0375
-99.9990 ghand~t:oon:	-0.0533
-99.9990 ghanii	-0.0533
-99.9990 ghanishht:hataapuurvaka	-0.0533
-3.1100 ghara	-0.1110
-99.9990 gharabaailaalilahaausa	-0.0533
-99.9990 gharadvaara	-0.0533
-99.9990 gharajabaantarii	-0.0533
-99.9990 ghasiit:atei	-0.0526
-99.9990 ghat:akara	-0.0533
-3.9850 ghat:anaa	-0.0346
-99.9990 ghat:anaahii	-0.0533
-99.9990 gheira	-0.0531
-99.9990 gheiraa	-0.0532
-99.9990 ghighghii	-0.0533
-3.8089 ghii	-0.0178
-99.9990 ghiishin:ga	-0.0449
-99.9990 ghiraa	-0.0510
-99.9990 ghiroond:ei	-0.0533
-99.9990 ghisanaa	-0.0532
-99.9990 ghitaabhroo	-0.0533
-99.9990 ghood~ei	-0.0490
-3.4410 ghoola	-0.1010
-99.9990 ghoolanei	-0.0449
-99.9990 ghoon:ghoon:	-0.0375
-99.9990 ghoora	-0.0533
-99.9990 ghoosalaasaa	-0.0530
-99.9990 ghooshhaala	-0.0529
-99.9990 ghooshhand~aa	-0.0412
-99.9990 ghootaka	-0.0532
-99.9990 ghrxnd~aa	-0.0526
-99.9990 ghrxtaaktan:	-0.0533
-99.9990 ghrxtan:	-0.0533
-99.9990 ghud~akei	-0.0495
-99.9990 ghud~asavaaroon:	-0.0375
-99.9990 ghulanashiila	-0.0533
-99.9990 ghumaanei	-0.0382
-3.9850 ghumaavadaara	-0.0533
-3.8089 ghusa	-0.1586
-99.9990 ghusanaa	-0.0531
-99.9990 ghut:anoon:	-0.0490
-99.9990 ghuughat:a	-0.0375
-99.9990 ghuumaa	-0.0532
-99.9990 ghuumanei	-0.0526
-3.9850 ghuumataa	-0.0526
-99.9990 ghuusa	-0.0533
-99.9990 ghyaana	-0.0533
-3.9850 gid~agid~aanei	-0.0372
-99.9990 gid~agid~aayeigaa	-0.0531
-3.0556 gii	-0.1123
-3.9850 giijara	-0.0527
-99.9990 giitaa	-0.0382
-99.9990 gilaasa	-0.0533
-99.9990 gilabart:a	-0.0533
-99.9990 gild:a	-0.0533
-99.9990 gimei	-0.0533
-99.9990 ginaa	-0.0513
-99.9990 ginaaii	-0.0463
-3.6840 gira	-0.0517
-99.9990 giraamii	-0.0533
-99.9990 giraavat:a	-0.0533
-99.9990 giraayaa	-0.0190
-99.9990 girakara	-0.0530
-99.9990 giranaa	-0.0190
-3.9850 giranei	-0.2203
-99.9990 giraphtaara	-0.0506
-99.9990 girastii	-0.0412
-99.9990 girataa	-0.0375
-3.9850 giratei	-0.2208
-3.9850 girii	-0.0507
-99.9990 girl	-0.0533
-3.9850 glaani	-0.0449
-99.9990 glaimara	-0.0533
-3.9850 glain:d:a	-0.2278
-99.9990 go-d:sa	-0.0449
-3.8089 goo	-0.1612
-3.8089 goobara	-0.2831
-99.9990 goodaamoon:	-0.0382
-99.9990 goodh~ei	-0.0533
-99.9990 googhrxta	-0.0523
-99.9990 gookula	-0.0412
-99.9990 goolaabaarii	-0.0375
-99.9990 goolaaii	-0.0470
-99.9990 goolaakaara	-0.0533
-99.9990 goolaanaashaka	-0.0459
-99.9990 goolii	-0.0533
-99.9990 goon:da	-0.0533
-99.9990 goopa	-0.0531
-99.9990 goopita	-0.0459
-99.9990 goorakhoo	-0.0533
-99.9990 gooshht:hii	-0.0382
-99.9990 goovaa	-0.0190
-3.9850 goovarddhana	-0.0469
-99.9990 goovin:da	-0.0531
-3.9850 goovin:dana	-0.0495
-99.9990 goovin:dapura	-0.0449
-99.9990 goovinda	-0.0533
-99.9990 goovindagad:ha	-0.0533
-3.4410 graama	-0.0519
-99.9990 graamapramukha	-0.0470
-99.9990 graamiind~a	-0.0532
-99.9990 graamyaushhadhyaahaaraa	-0.0533
-99.9990 graamyoo	-0.0533
-3.9850 graha	-0.0525
-3.9850 grahand~a	-0.0453
-99.9990 grahand~iidooshha	-0.0533
-99.9990 grahand~iiya	-0.0375
-99.9990 grahoon:	-0.0412
-99.9990 gran:tha	-0.0375
-3.9850 gran:thikaa	-0.0529
-99.9990 gran:thikaaoon:	-0.0382
-99.9990 gran:thoo	-0.0375
-99.9990 gran:thoon:	-0.0382
-99.9990 grantha	-0.0382
-3.9850 granthaalaya	-0.0533
-99.9990 granthi	-0.0531
-3.9850 granthoon:	-0.0375
-99.9990 grasita	-0.0528
-3.9850 greigara	-0.2278
-99.9990 griina	-0.0533
-99.9990 griinalaind~d:a	-0.0509
-99.9990 griisa	-0.0495
-99.9990 griishhma	-0.0533
-99.9990 griishhmakaaliina	-0.0530
-99.9990 grootha	-0.0375
-3.8089 grupa	-0.1339
-99.9990 grxha	-0.0532
-99.9990 grxhasthaashrama	-0.0533
-99.9990 grxhatyaaga	-0.0515
-99.9990 gubbaarei	-0.0470
-99.9990 guchchhaa	-0.0533
-3.9850 guchchhei	-0.0469
-99.9990 gud:uuchii	-0.0533
-3.9850 gud:uuchyaadi	-0.0532
-99.9990 gudaa	-0.0509
-99.9990 gudagudaahat:a	-0.0533
-99.9990 gud~aaii	-0.0533
-99.9990 gud~agaanava	-0.0533
-99.9990 gud~amuula	-0.0533
-99.9990 guhbhaaga	-0.0459
-3.6840 gujaraata	-0.1004
-3.9850 gujaraatii	-0.0375
-99.9990 gulaabakhaasa	-0.0533
-99.9990 gulaabii	-0.0533
-99.9990 gulaama	-0.0532
-3.8089 gumaanii	-0.0373
-3.2861 gund~a	-0.0452
-3.9850 gund~adharma	-0.0458
-99.9990 gund~ana	-0.0526
-99.9990 gund~asuutroon:	-0.0375
-99.9990 gund~ita	-0.0533
-3.8089 gund~oon:	-0.0386
-99.9990 guphaa	-0.0533
-99.9990 guphaaoo	-0.0382
-99.9990 gupta	-0.0533
-99.9990 guptajii	-0.0533
-99.9990 guraadiyaan:	-0.0533
-99.9990 guradaasapura	-0.0527
-3.9850 gurudvaarei	-0.2128
-3.9850 guruu	-0.0533
-99.9990 guruudeiva	-0.0449
-99.9990 guruushishhya	-0.0530
-99.9990 guu	-0.0510
-99.9990 guudaa	-0.0531
-99.9990 gvaa	-0.0533
-99.9990 gvaaliyara	-0.0524
-99.9990 gvaanood:ina	-0.0533
-3.5871 gvaayuula	-0.0919
-99.9990 gyaanapisaasu	-0.0463
-99.9990 gyaaraasau	-0.0533
-99.9990 gyaaraha	-0.0533
-99.9990 gyaata	-0.0519
-99.9990 g~aayaba	-0.0506
-99.9990 g~ahasthii	-0.0532
-99.9990 g~airahaaj~irii	-0.0382
-99.9990 h:chhl	-0.0532
-3.9850 haaid:raaksaaid:a	-0.0523
-3.9850 haaii	-0.0532
-99.9990 haala	-0.0502
-99.9990 haalaan:ki	-0.0533
-99.9990 haalaanaki	-0.0527
-99.9990 haamakoo	-0.0523
-3.6840 haan:	-0.0519
-99.9990 haana	-0.0533
-99.9990 haanamein:haan:e-	-0.0533
-99.9990 haanarsa	-0.0532
-3.6840 haani	-0.1151
-3.9850 haanikaaraka	-0.0495
-3.9850 haara	-0.0527
-99.9990 haarakara	-0.0533
-3.6840 haaramoona	-0.0298
-3.3318 haatha	-0.2411
-99.9990 haathamun:ha	-0.0533
-3.9850 haathii	-0.0297
-99.9990 haathoon:	-0.0470
-99.9990 haathoorhaatha	-0.0533
-99.9990 haauuhaauu	-0.0531
-99.9990 habiiba	-0.0533
-99.9990 habj~ii	-0.0509
-99.9990 had:d:iyoon:	-0.0458
-1.4453 hai	-0.7789
-99.9990 haiaaja	-0.0529
-99.9990 haibhuusaachaaraa	-0.0504
-99.9990 haigud:a	-0.0533
-99.9990 haihaya	-0.0532
-3.9850 haijaa	-0.0502
-99.9990 haijaisei	-0.0533
-99.9990 haijan:	-0.0533
-99.9990 haijei	-0.0375
-99.9990 haijoo	-0.0533
-99.9990 haijuuliasa	-0.0533
-3.9850 haiki	-0.0533
-3.9850 haikt:ara	-0.0457
-99.9990 haildii	-0.0532
-99.9990 haimeirii	-0.0533
-99.9990 haimila	-0.0533
-1.7947 hain:	-0.7849
-99.9990 hain:a	-0.0532
-99.9990 hain:d:aiksa	-0.0375
-99.9990 hain:dravya	-0.0533
-99.9990 haiparantu	-0.0532
-99.9990 haiphpa	-0.0459
-99.9990 hait:roophisa	-0.0495
-3.0556 hajaara	-0.0606
-3.9850 hajaaroon:	-0.0468
-99.9990 hajapratyeika	-0.0533
-99.9990 hajarahaa	-0.0533
-3.9850 hajura	-0.0375
-3.8089 hala	-0.0373
-99.9990 halagaad~ii	-0.0496
-99.9990 halavaa	-0.0459
-3.9850 halkaa	-0.0533
-3.9850 halkei	-0.0532
-99.9990 halkeihalkei	-0.0533
-99.9990 halkii	-0.0531
-99.9990 hallaa	-0.0526
-3.1100 hama	-0.0890
-99.9990 hamaaraa	-0.0532
-3.2447 hamaarei	-0.1368
-3.6840 hamaarii	-0.0529
-99.9990 hamahuun:	-0.0533
-99.9990 hamajaisei	-0.0533
-3.9850 hamalaa	-0.0512
-3.8089 hamanei	-0.0527
-99.9990 hamaraa	-0.0533
-99.9990 hamarein:	-0.0533
-99.9990 hamasei	-0.0531
-3.3830 hamein:	-0.0452
-3.8089 hameishaa	-0.0530
-99.9990 han:gala	-0.0190
-99.9990 hanana	-0.0513
-99.9990 haniipha	-0.0459
-3.5079 hara	-0.0477
-99.9990 harabhajana	-0.0533
-99.9990 harad~a	-0.0533
-99.9990 harataala	-0.0530
-3.8089 haridhana	-0.1588
-99.9990 harii	-0.0532
-99.9990 harijanoon:	-0.0412
-99.9990 hariyaand~aa	-0.0532
-99.9990 harra	-0.0533
-99.9990 harshha	-0.0526
-99.9990 hashisha	-0.0459
-99.9990 hasta	-0.0533
-3.9850 hat:aanei	-0.2120
-99.9990 hat:iin:	-0.0533
-99.9990 hatheilii	-0.0449
-3.9850 hatheiliyoon:	-0.0347
-99.9990 hatyaakaan:d:a	-0.0382
-3.5079 havaa	-0.0216
-99.9990 havaaii	-0.0533
-99.9990 hdaya	-0.0382
-99.9990 heiad:ings	-0.0495
-99.9990 heid:ageivaara	-0.0533
-99.9990 heikseina	-0.0382
-3.9850 heilioothisa	-0.2203
-99.9990 heiroo	-0.0524
-99.9990 heirooina	-0.0533
-3.9850 heitu	-0.0531
-99.9990 heitukam	-0.0190
-99.9990 hi	-0.0533
-2.1493 hii	0.0207
-99.9990 hiila	-0.0412
-99.9990 hiiveiraaddha	-0.0532
-99.9990 hiiviyaa	-0.0531
-99.9990 hilaayaa	-0.0513
-99.9990 hilja	-0.0375
-3.9850 himaachala	-0.0381
-99.9990 himaalayakei	-0.0533
-99.9990 himaan:	-0.0533
-99.9990 himaan:ka	-0.0529
-99.9990 himaan:kaavanamana	-0.0523
-3.9850 himaan:kamaapii	-0.0458
-99.9990 himagirii	-0.0375
-99.9990 himasaagara	-0.0533
-3.8089 himmata	-0.0531
-99.9990 hin:du	-0.0533
-99.9990 hin:saa	-0.0533
-99.9990 hin:saka	-0.0530
-99.9990 hinda	-0.0533
-3.6840 hindii	-0.0172
-99.9990 hindiiprakaashaka	-0.0533
-3.8089 hinduoon:	-0.0340
-99.9990 hindustaanii	-0.0190
-3.9850 hinduu	-0.0533
-99.9990 hiphaajata	-0.0449
-3.9850 hisaaba	-0.2194
-99.9990 hisapid:ama	-0.0459
-3.9850 hissaa	-0.0533
-99.9990 hissei	-0.0490
-99.9990 hissoon:	-0.0382
-99.9990 hit:alara	-0.0506
-99.9990 hitakara	-0.0375
-99.9990 hitoon:kii	-0.0533
-99.9990 ho-	-0.0533
-99.9990 ho-lsa	-0.0533
-99.9990 ho-rt:aveit:a	-0.0533
-2.2069 hoo	-0.3446
-99.9990 hooga	-0.0508
-3.2069 hoogaa	-0.5517
-3.4410 hoogii	-0.2997
-3.1100 hookara	-0.0506
-3.6840 hoon:	-0.1841
-3.8089 hoon:gei	-0.2609
-3.9850 hoon:gii	-0.0182
-99.9990 hoon:joo	-0.0375
-3.3830 hoonaa	-0.2733
-2.9058 hoonei	-0.2180
-99.9990 hooneikei	-0.0533
-3.9850 hoonii	-0.2272
-99.9990 hoooo	-0.0532
-99.9990 hoorii	-0.0506
-99.9990 hoosha	-0.0533
-99.9990 hooshan:gaabaada	-0.0533
-99.9990 hooshiyaara	-0.0506
-99.9990 hooshiyaarapura	-0.0509
-99.9990 hoot:ala	-0.0375
-2.4665 hootaa	-0.7431
-2.6840 hootei	-0.6171
-2.6950 hootii	-0.5569
-3.9850 hrxdaya	-0.2128
-99.9990 hshht:apushht:a	-0.0532
-2.7675 huaa	-0.2068
-99.9990 huaaeika	-0.0533
-99.9990 huaajisasei	-0.0533
-2.7675 huei	-0.0877
-2.9436 huii	-0.1652
-99.9990 huiihai	-0.0190
-99.9990 hujhura	-0.0532
-99.9990 huka	-0.0524
-99.9990 huksa	-0.0509
-99.9990 hulaka	-0.0531
-99.9990 hun:ga	-0.0533
-3.9850 huu	-0.0513
-3.4410 huun:	-0.1000
-3.5079 huuna	-0.1150
-99.9990 huund~oon:	-0.0506
-3.9850 huyei	-0.0533
-99.9990 hveila	-0.0412
-99.9990 hyuumasa	-0.0531
-3.8089 i	-0.0533
-3.5871 ichchhaa	-0.0444
-99.9990 ichchhaachaarii	-0.0506
-99.9990 ichchhaanusaara	-0.0532
-99.9990 ichchhaaoon:	-0.0412
-99.9990 ichchhaashakti	-0.0529
-99.9990 ichchhuka	-0.0510
-99.9990 id:alii	-0.0533
-99.9990 id:eias	-0.0470
-99.9990 idhara	-0.0531
-3.9850 idharudhara	-0.0531
-99.9990 idriyaan:goo	-0.0532
-3.1399 ii	-0.1883
-99.9990 iii	-0.0496
-99.9990 iiii	-0.0532
-3.9850 iiiiii	-0.0472
-99.9990 iikkiisa	-0.0533
-99.9990 iimaanadaarii	-0.0449
-99.9990 iin	-0.0533
-99.9990 iin:t:ein:	-0.0495
-99.9990 iind:	-0.0533
-99.9990 iind:uleikhal:t:au	-0.0532
-99.9990 iinsheirieis	-0.0531
-99.9990 iinut:ioon	-0.0530
-99.9990 iiraanii	-0.0506
-99.9990 iirshaa	-0.0509
-99.9990 iirshhaa	-0.0533
-99.9990 iirshhyaamaya	-0.0533
-99.9990 iishharyaa	-0.0526
-99.9990 iishvara	-0.0412
-99.9990 ijj~ata	-0.0412
-99.9990 ij~ita	-0.0375
-99.9990 ika	-0.0533
-99.9990 ikaaii	-0.0375
-99.9990 ikaaiiyaan:	-0.0532
-99.9990 ikaaiyoon:	-0.0412
-99.9990 ikaanaamika	-0.0533
-99.9990 ikaataalisa	-0.0533
-99.9990 ikahathara	-0.0533
-99.9990 ikat:t:haa	-0.0528
-3.8089 ikkiisa	-0.0522
-99.9990 ikkiissii	-0.0190
-99.9990 ikooeinseipheiloograaphii	-0.0506
-99.9990 ikshhu	-0.0533
-99.9990 ikshhuvarga	-0.0458
-99.9990 ikshhvaaku	-0.0531
-99.9990 ikveilit:ii	-0.0375
-99.9990 ilaakoon:	-0.0382
-99.9990 ilaayachii	-0.0533
-3.9850 ileikt:raana	-0.0533
-3.5871 ileikt:raanika	-0.1866
-99.9990 ileikt:raanoon:	-0.0375
-99.9990 illii	-0.0525
-3.8089 imalii	-0.0411
-99.9990 imtihaana	-0.0375
-99.9990 imyuunood:eiphishiein:sii	-0.0529
-3.6840 in:cha	-0.0349
-3.9850 in:d:iyaa	-0.0354
-3.9850 in:d:iyana	-0.0533
-3.3830 in:dra	-0.2683
-99.9990 in:duu	-0.0532
-99.9990 in:galain:d:apalat:a	-0.0533
-99.9990 in:glain:d:a	-0.0382
-99.9990 in:glistaana	-0.0412
-99.9990 in:jakshana	-0.0532
-99.9990 in:jana	-0.0510
-99.9990 in:janoon:	-0.0382
-99.9990 in:jeikshana	-0.0375
-99.9990 in:jiiniyaroon:	-0.0506
-99.9990 in:kaara	-0.0515
-99.9990 in:st:iichyuut:a	-0.0533
-3.8089 in:st:iit:yuut:a	-0.1380
-99.9990 in:t:aravyuu	-0.0382
-99.9990 in:tajaara	-0.0515
-2.8237 ina	-0.0885
-99.9990 inagaaha	-0.0449
-3.5871 inakaa	-0.0528
-3.8089 inakei	-0.0533
-3.8089 inakii	-0.0495
-99.9990 inamei	-0.0532
-3.3318 inamein:	-0.1078
-99.9990 inaph~aarmeishana	-0.0382
-99.9990 inasei	-0.0526
-99.9990 ind:ooneishiyaa	-0.0533
-99.9990 indra	-0.0375
-99.9990 indrigraahya	-0.0524
-99.9990 ind~d:iyaa	-0.0533
-3.9850 inhein:	-0.0533
-3.9850 inhii	-0.0532
-99.9990 inhiin:	-0.0533
-99.9990 inshyoord:a	-0.0524
-99.9990 iphaikt:iva	-0.0459
-99.9990 ipheila	-0.0375
-99.9990 irdagirda	-0.0459
-99.9990 is	-0.0533
-2.1997 isa	-0.1897
-2.8389 isakaa	-0.1385
-2.6840 isakei	-0.2867
-3.2069 isakii	-0.0726
-3.8089 isakoo	-0.0528
-3.3318 isaliei	-0.0450
-3.9850 isaliyei	-0.0533
-2.9436 isamein:	-0.0423
-3.1100 isasei	-0.0471
-3.0556 isei	-0.0524
-2.9638 isii	-0.2189
-3.6840 isiiliei	-0.0528
-99.9990 iskeipist:a	-0.0190
-99.9990 islaama	-0.0532
-99.9990 ispashht:a	-0.0375
-3.8089 isteimaala	-0.1581
-99.9990 isthaanoon:	-0.0490
-99.9990 isthira	-0.0530
-99.9990 isthitapragya	-0.0375
-99.9990 isthiti	-0.0382
-99.9990 isthitiikarand~a	-0.0532
-99.9990 istiiphaa	-0.0531
-99.9990 it:a	-0.0533
-99.9990 it:eims	-0.0533
-3.2069 itanaa	-0.0493
-3.9850 itanei	-0.0533
-3.6840 itanii	-0.0485
-3.5871 itihaasa	-0.0688
-99.9990 itihaasalaphja	-0.0375
-99.9990 ittalaa	-0.0524
-99.9990 ittii	-0.0533
-99.9990 ittiphaaka	-0.0449
-3.8089 ityaadi	-0.1269
-99.9990 iv	-0.0533
-99.9990 ja	-0.0190
-2.6628 jaa	-0.6967
-99.9990 jaad~oon:	-0.0382
-3.2447 jaaei	-0.8604
-3.8089 jaaeigaa	-0.1269
-3.9850 jaaeigii	-0.0507
-3.9850 jaaein:	-0.0164
-3.9850 jaaein:gii	-0.0189
-99.9990 jaaeinagii	-0.0190
-99.9990 jaagaruka	-0.0530
-99.9990 jaagaruuka	-0.0459
-99.9990 jaagiira	-0.0382
-99.9990 jaagrxti	-0.0375
-3.9850 jaahira	-0.0347
-99.9990 jaaiyei	-0.0532
-3.8089 jaakara	-0.0515
-99.9990 jaalan:dhara	-0.0533
-99.9990 jaaliba	-0.0375
-99.9990 jaan:cha	-0.0532
-3.3830 jaana	-0.0527
-3.5871 jaanaa	-0.0347
-3.6840 jaanakaarii	-0.0496
-99.9990 jaananei	-0.0375
-99.9990 jaanataa	-0.0190
-3.8089 jaanatei	-0.1384
-99.9990 jaanatiithii	-0.0533
-99.9990 jaanavara	-0.0532
-3.9850 jaanavaroon:	-0.0288
-3.0819 jaanei	-0.1531
-99.9990 jaaneimaanei	-0.0533
-99.9990 jaanein:	-0.0532
-99.9990 jaanii	-0.0375
-99.9990 jaanudvaya	-0.0528
-99.9990 jaaoo	-0.0190
-99.9990 jaaoogii	-0.0190
-3.8089 jaapaana	-0.0310
-99.9990 jaarii	-0.0531
-3.9850 jaasuusii	-0.0519
-3.9850 jaat:a	-0.0533
-2.3318 jaataa	-1.2459
-99.9990 jaataahai	-0.0525
-2.7179 jaatei	-1.2433
-3.5079 jaati	-0.1144
-2.6950 jaatii	-0.8471
-3.9850 jaatiyoon:	-0.0297
-99.9990 jaatoo	-0.0533
-99.9990 jaauun:	-0.0190
-99.9990 jaauuna	-0.0529
-3.6840 jaaya	-0.1909
-99.9990 jaayanagei	-0.0190
-3.5079 jaayei	-0.1203
-3.9850 jaayeigaa	-0.1935
-99.9990 jaayeigii	-0.0190
-3.6840 jaayein:	-0.8169
-3.0308 jaba	-0.0772
-3.8089 jabaki	-0.0531
-3.8089 jad~a	-0.0457
-99.9990 jad~avata	-0.0506
-3.9850 jad~oon:	-0.0296
-99.9990 jaga	-0.0532
-3.8089 jagaha	-0.0445
-99.9990 jagat	-0.0533
-99.9990 jaghanya	-0.0529
-3.5871 jahaan:	-0.1056
-99.9990 jaima	-0.0531
-99.9990 jainadharmoon:	-0.0490
-3.5079 jaisaa	-0.0430
-2.8711 jaisei	-0.0511
-99.9990 jaiseigud~a	-0.0533
-99.9990 jaiseiki	-0.0533
-99.9990 jaiseiloohei	-0.0459
-3.6840 jaisii	-0.0530
-99.9990 jaitasii	-0.0375
-99.9990 jaiva	-0.0532
-99.9990 jaivapun:ja	-0.0490
-99.9990 jajbaata	-0.0532
-99.9990 jajivaa	-0.0515
-99.9990 jakad~a	-0.0504
-99.9990 jakarand~d:ei	-0.0458
-99.9990 jakhma	-0.0533
-99.9990 jakhmoon:	-0.0449
-3.3830 jala	-0.0683
-3.9850 jalaakara	-0.0528
-99.9990 jalaapaghat:ana	-0.0506
-99.9990 jalapralaya	-0.0375
-99.9990 jalasan:traasa	-0.0449
-3.8089 jalatii	-0.0369
-99.9990 jaldii	-0.0502
-99.9990 jaliiya	-0.0533
-99.9990 jama	-0.0532
-99.9990 jamaa	-0.0532
-99.9990 jamaadaara	-0.0533
-99.9990 jamiin:daara	-0.0510
-3.5871 jamiina	-0.0249
-99.9990 jamiinei	-0.0533
-3.9850 jamiinoon:	-0.2128
-99.9990 jan:	-0.0533
-99.9990 jan:ga	-0.0533
-99.9990 jan:gala	-0.0375
-3.9850 jan:galii	-0.0532
-99.9990 jan:galoo	-0.0412
-3.9850 jan:galoon:	-0.0384
-99.9990 jana	-0.0524
-99.9990 jananaan:goon:	-0.0458
-99.9990 jananadravya	-0.0375
-99.9990 janapada	-0.0375
-99.9990 janarala	-0.0532
-99.9990 janasaadhaarand~a	-0.0382
-3.9850 janataa	-0.0458
-3.9850 janavarii	-0.0531
-99.9990 janayuddha	-0.0533
-99.9990 janeit:a	-0.0458
-99.9990 janj~jaala	-0.0449
-3.5871 janma	-0.0378
-3.9850 janmadaataa	-0.0531
-3.8089 jaraa	-0.0489
-99.9990 jaraagstoon:	-0.0470
-99.9990 jardaaluu	-0.0190
-3.9850 jarmanii	-0.0382
-3.9850 jarurii	-0.0345
-3.8089 jaruura	-0.0531
-3.9850 jaruurata	-0.2120
-3.8089 jaruurii	-0.2794
-99.9990 jast:a	-0.0533
-99.9990 jat:aamaan:sii	-0.0533
-3.9850 jau	-0.0458
-99.9990 jaubhara	-0.0495
-99.9990 jaugeihuun:	-0.0375
-3.9850 javaaba	-0.0373
-99.9990 javaanii	-0.0533
-99.9990 javaanoon:	-0.0375
-99.9990 jayaaditya	-0.0533
-99.9990 jayaprakaasha	-0.0531
-99.9990 jeiii	-0.0533
-3.9850 jeila	-0.0249
-99.9990 jeiloon:	-0.0382
-99.9990 jeiyoolaait:a	-0.0533
-99.9990 jhaad:iyaan:	-0.0533
-99.9990 jhaad:uu	-0.0533
-99.9990 jhaad~ana	-0.0449
-99.9990 jhaad~ii	-0.0375
-3.9850 jhaad~iyaan:	-0.2204
-99.9990 jhaad~uu	-0.0532
-99.9990 jhaan:ka	-0.0526
-99.9990 jhaan:katii	-0.0530
-3.9850 jhaan:sii	-0.0375
-99.9990 jhaand~an:	-0.0533
-3.9850 jhabaruu	-0.2276
-99.9990 jhalaka	-0.0526
-99.9990 jhameirei	-0.0529
-99.9990 jhan:d:aa	-0.0531
-99.9990 jhan:d:ei	-0.0533
-99.9990 jhan:jhaaraa	-0.0533
-99.9990 jhan:jhat:oon:	-0.0449
-99.9990 jhanajhanaahat:a	-0.0533
-99.9990 jharookhei	-0.0449
-99.9990 jhat:	-0.0533
-99.9990 jhiila	-0.0509
-99.9990 jhood:ha	-0.0533
-99.9990 jhoon:kei	-0.0412
-99.9990 jhoon:koon:	-0.0449
-99.9990 jhoon:pad~ii	-0.0532
-99.9990 jhoopad~ii	-0.0382
-99.9990 jhuggii	-0.0382
-99.9990 jhukaakara	-0.0531
-99.9990 jhukii	-0.0528
-99.9990 jhulasanei	-0.0449
-99.9990 jhun:d:a	-0.0532
-99.9990 jhun:jhalaa	-0.0529
-99.9990 jhun:na	-0.0533
-99.9990 jhun:nii	-0.0525
-99.9990 jhurriyaan:	-0.0524
-99.9990 jhuula	-0.0524
-3.5871 jhuut:ha	-0.0332
-99.9990 jhuut:haa	-0.0533
-99.9990 jhuut:hamuut:ha	-0.0412
-99.9990 jihvaa	-0.0533
-3.2069 jii	-0.0615
-3.5871 jiina	-0.0340
-99.9990 jiirnd~ooddhaaraa	-0.0513
-99.9990 jiitaa	-0.0504
-99.9990 jiitakara	-0.0523
-99.9990 jiitein:dra	-0.0375
-99.9990 jiiva	-0.0459
-3.5079 jiivaand~u	-0.0334
-3.5871 jiivaand~uoon:	-0.1463
-99.9990 jiivaand~upooshhii	-0.0529
-3.3830 jiivana	-0.0633
-99.9990 jiivanabhara	-0.0533
-3.9850 jiivanachakra	-0.0532
-99.9990 jiivanavichaara	-0.0459
-3.8089 jiivita	-0.0522
-99.9990 jijjii	-0.0530
-99.9990 jildein:	-0.0531
-3.9850 jilei	-0.0249
-99.9990 jiloon:	-0.0382
-3.9850 jimmeidaarii	-0.0504
-99.9990 jin:dagii	-0.0532
-3.9850 jina	-0.0382
-99.9990 jinakaa	-0.0533
-99.9990 jinakei	-0.0532
-3.8089 jinamein:	-0.0531
-3.9850 jinasei	-0.0521
-3.6840 jindagii	-0.0372
-3.5079 jinhein:	-0.0515
-99.9990 jinhoon:nei	-0.0532
-3.9850 jinsoon:	-0.0219
-99.9990 jiraapha	-0.0412
-99.9990 jiroon:da	-0.0533
-3.2447 jisa	-0.0728
-99.9990 jisakaa	-0.0533
-3.6840 jisakei	-0.0500
-99.9990 jisakii	-0.0532
-3.9850 jisakoo	-0.0530
-3.2447 jisamein:	-0.0491
-3.8089 jisanei	-0.0528
-3.2447 jisasei	-0.0492
-3.5079 jisei	-0.0522
-99.9990 jitthei	-0.0533
-3.6840 jnj~aana	-0.0355
-99.9990 jnj~aanaatmaka	-0.0533
-3.5871 jnj~aata	-0.1616
-99.9990 jo-na	-0.0533
-99.9990 jo-nii	-0.0533
-99.9990 jo-rja	-0.0533
-2.5785 joo	-0.0551
-99.9990 jood~a	-0.0531
-99.9990 jood~anei	-0.0530
-3.9850 jood~ii	-0.0533
-99.9990 jood~oon:	-0.0375
-3.9850 joohana	-0.2278
-3.9850 joojeipha	-0.0374
-99.9990 jookhima	-0.0458
-3.8089 jooki	-0.0529
-99.9990 joomanushhya	-0.0375
-99.9990 joon:	-0.0533
-3.8089 joora	-0.0364
-99.9990 jooradaara	-0.0533
-99.9990 jooshii	-0.0506
-99.9990 jrxmbhaa	-0.0190
-99.9990 jud:aa	-0.0526
-3.9850 jud~a	-0.0516
-99.9990 jud~aa	-0.0510
-3.9850 jud~ei	-0.0459
-99.9990 jud~ii	-0.0530
-3.9850 julaaii	-0.0373
-3.9850 julma	-0.0404
-99.9990 jurmaanaa	-0.0524
-99.9990 jut:aa	-0.0533
-3.9850 jutaaii	-0.0375
-99.9990 juuna	-0.0532
-99.9990 juut:a	-0.0525
-99.9990 juut:hii	-0.0533
-99.9990 jvaalaamukhii	-0.0533
-3.9850 jvaara	-0.0533
-99.9990 jvaaragvaara	-0.0533
-99.9990 jvalan:ta	-0.0533
-99.9990 jvara	-0.0382
-3.5871 jyaadaa	-0.0502
-99.9990 jyaana	-0.0533
-99.9990 jyeishht:ha	-0.0531
-99.9990 jyoon:	-0.0412
-99.9990 jyoon:hii	-0.0533
-99.9990 jyootishhii	-0.0459
-99.9990 j~aitasii	-0.0533
-99.9990 j~amiina	-0.0532
-99.9990 j~eina	-0.0533
-99.9990 j~urma	-0.0375
-99.9990 j~yaadaa	-0.0375
-3.9850 ka	-0.0530
-1.7675 kaa	-0.0390
-99.9990 kaabila	-0.0504
-3.9850 kaabuu	-0.0381
-3.8089 kaadh~aa	-0.0495
-99.9990 kaaganit:iva	-0.0533
-99.9990 kaaij~ara	-0.0533
-99.9990 kaajuu	-0.0530
-99.9990 kaaj~ii	-0.0375
-3.5079 kaala	-0.0313
-99.9990 kaalaa	-0.0532
-99.9990 kaalaantara	-0.0382
-99.9990 kaalakavalita	-0.0506
-99.9990 kaalakrama	-0.0449
-99.9990 kaalapreirita	-0.0522
-3.6840 kaaleija	-0.1004
-3.9850 kaalii	-0.0506
-99.9990 kaaliimircha	-0.0532
-99.9990 kaalin:gavud:a	-0.0375
-99.9990 kaaluu	-0.0531
-3.0308 kaama	-0.0282
-99.9990 kaamaadhiina	-0.0531
-99.9990 kaamalaa	-0.0531
-99.9990 kaamanavailtha	-0.0532
-99.9990 kaamavaasanaa	-0.0375
-99.9990 kaan:d:a	-0.0533
-99.9990 kaan:greisa	-0.0533
-99.9990 kaan:panei	-0.0530
-99.9990 kaan:phrein:sa	-0.0382
-99.9990 kaan:t:ein:t:a	-0.0529
-99.9990 kaaneit:iva	-0.0375
-99.9990 kaanoon:	-0.0382
-99.9990 kaanyakubja	-0.0532
-99.9990 kaapha	-0.0533
-3.3830 kaaphii	-0.1306
-3.9850 kaaph~ii	-0.0532
-99.9990 kaarakhaanaa	-0.0375
-3.9850 kaarakhaanei	-0.0380
-99.9990 kaarakhaanoon:	-0.0449
-2.9850 kaarand~a	-0.0620
-99.9990 kaarand~oon:	-0.0449
-99.9990 kaarapooreishana	-0.0533
-3.5871 kaarbana	-0.1028
-99.9990 kaarbanika	-0.0533
-99.9990 kaarbeineit:a	-0.0459
-99.9990 kaarboohaaid:reit:a	-0.0509
-99.9990 kaarboolika	-0.0533
-99.9990 kaard:a	-0.0533
-99.9990 kaaroobaaramein:	-0.0531
-99.9990 kaarpoorala	-0.0532
-99.9990 kaartika	-0.0533
-99.9990 kaarund~ika	-0.0533
-3.1721 kaarya	-0.1677
-99.9990 kaaryaa	-0.0515
-99.9990 kaaryaalayamaineijaralipika	-0.0533
-3.6840 kaaryakrama	-0.0382
-3.9850 kaaryarata	-0.0527
-99.9990 kaaryavidhi	-0.0412
-99.9990 kaasa	-0.0532
-99.9990 kaasaa	-0.0533
-99.9990 kaashta	-0.0375
-3.9850 kaashyapa	-0.0525
-99.9990 kaasiisa	-0.0470
-3.6840 kaat:a	-0.1313
-99.9990 kaat:aa	-0.0510
-3.9850 kaat:akara	-0.0533
-3.8089 kaat:anei	-0.0211
-99.9990 kaat:ataa	-0.0532
-99.9990 kaat:atei	-0.0526
-99.9990 kaat:hinyajanita	-0.0533
-99.9990 kaataviirya	-0.0533
-99.9990 kaaun:sila	-0.0528
-99.9990 kaavya	-0.0533
-99.9990 kaavyalakshhand~a	-0.0532
-99.9990 kaavyam	-0.0375
-99.9990 kaaya	-0.0531
-99.9990 kaayama	-0.0532
-99.9990 kaayaroon:	-0.0412
-99.9990 kabad:d:ii	-0.0533
-99.9990 kabhi	-0.0523
-3.4410 kabhii	-0.0478
-3.9850 kabhiikabhii	-0.0527
-99.9990 kabiilei	-0.0458
-99.9990 kabiiloon:	-0.0382
-99.9990 kabjoon:	-0.0470
-99.9990 kabj~aa	-0.0515
-99.9990 kabuutara	-0.0412
-99.9990 kachchei	-0.0530
-3.9850 kachchii	-0.0518
-99.9990 kachhaarii	-0.0531
-99.9990 kad:ii	-0.0524
-99.9990 kad:iidrxshht:i	-0.0533
-99.9990 kadaachit	-0.0533
-99.9990 kadaapi	-0.0524
-99.9990 kadama	-0.0504
-99.9990 kaduukasa	-0.0523
-3.9850 kad~aahii	-0.0317
-99.9990 kaggara	-0.0533
-3.8089 kaha	-0.0526
-2.8547 kahaa	-0.3217
-99.9990 kahaabiisa	-0.0533
-99.9990 kahaaguruudeiva	-0.0529
-99.9990 kahaahaana	-0.0533
-99.9990 kahaakund~t:haaeina	-0.0533
-99.9990 kahaamai	-0.0533
-99.9990 kahaameiraa	-0.0532
-3.6840 kahaan:	-0.0448
-3.9850 kahaanakahaan:e-	-0.0533
-3.9850 kahaanii	-0.0158
-99.9990 kahaaniyo-n:	-0.0533
-99.9990 kahaasunii	-0.0528
-99.9990 kahaavata	-0.0375
-3.9850 kahakara	-0.0532
-99.9990 kahalaataa	-0.0375
-3.8089 kahalaatei	-0.2882
-99.9990 kahalaayii	-0.0190
-3.5871 kahanaa	-0.1113
-3.9850 kahanei	-0.0532
-99.9990 kahaneivaalii	-0.0533
-3.9850 kahataa	-0.0532
-3.0308 kahatei	-1.0005
-99.9990 kahateisoo	-0.0533
-3.8089 kahatii	-0.0364
-99.9990 kahatiibeit:aa	-0.0532
-99.9990 kahei	-0.0190
-99.9990 kahein:gei	-0.0508
-99.9990 kahiei	-0.0510
-99.9990 kahii	-0.0190
-3.5079 kahiin:	-0.0096
-3.9850 kahoo	-0.1935
-99.9990 kahuun:	-0.0533
-99.9990 kaibinait:a	-0.0532
-99.9990 kaibinit:a	-0.0523
-99.9990 kaijuala	-0.0510
-99.9990 kaikeiyii	-0.0375
-99.9990 kailaasha	-0.0533
-99.9990 kailiphoorniyaa	-0.0533
-3.9850 kailiph~oorniyaa	-0.2120
-99.9990 kailsaait:a	-0.0533
-99.9990 kailshiyama	-0.0459
-99.9990 kailsiyama	-0.0533
-99.9990 kailuu	-0.0459
-99.9990 kaimarei	-0.0449
-99.9990 kaimuura	-0.0412
-99.9990 kain:sara	-0.0532
-99.9990 kaina	-0.0533
-99.9990 kainavaasa	-0.0470
-99.9990 kaisaa	-0.0375
-3.3318 kaisei	-0.0174
-3.9850 kaisii	-0.0375
-99.9990 kajuun:sa	-0.0528
-99.9990 kakshhakoon:	-0.0470
-99.9990 kala	-0.0526
-3.6840 kalaa	-0.1197
-99.9990 kalaamaatra	-0.0532
-3.9850 kalama	-0.0512
-3.9850 kalamoon:	-0.0394
-3.9850 kalii	-0.0532
-99.9990 kalin:ga	-0.0382
-99.9990 kaliyuga	-0.0502
-99.9990 kalpanaa	-0.0528
-2.8881 kama	-0.1258
-99.9990 kamaad:in:ga	-0.0523
-3.9850 kamaanei	-0.0305
-99.9990 kamaayaa	-0.0524
-99.9990 kamajoora	-0.0531
-99.9990 kamajoorii	-0.0531
-99.9990 kamara	-0.0382
-99.9990 kamarshala	-0.0533
-3.5079 kamii	-0.0333
-99.9990 kamiyaan:	-0.0504
-3.9850 kampa	-0.0458
-99.9990 kampaniyaana	-0.0524
-99.9990 kampavaata	-0.0532
-99.9990 kampleiksa	-0.0532
-99.9990 kampoojit:ii	-0.0458
-99.9990 kampoost:a	-0.0375
-99.9990 kampyuut:ara	-0.0533
-99.9990 kamyunijama	-0.0412
-99.9990 kamyuunijma	-0.0375
-99.9990 kan:baain:d:a	-0.0533
-99.9990 kan:kaala	-0.0533
-3.9850 kan:panii	-0.0375
-99.9990 kan:pyuut:ara	-0.0449
-99.9990 kan:st:rein:t:sa	-0.0463
-99.9990 kan:t:iilii	-0.0533
-99.9990 kan:t:roola	-0.0533
-99.9990 kanaad:aa	-0.0375
-99.9990 kanasoonaa	-0.0375
-99.9990 kanat:oopa	-0.0533
-99.9990 kandhei	-0.0412
-3.8089 kand~a	-0.0531
-3.8089 kand~oon:	-0.1392
-99.9990 kannauja	-0.0533
-3.5871 kapaasa	-0.0917
-99.9990 kapad~aa	-0.0533
-3.8089 kapad~ei	-0.0523
-99.9990 kapad~eilattei	-0.0533
-99.9990 kapad~oon:	-0.0459
-3.5871 kapha	-0.0469
-99.9990 kaphaanubandhii	-0.0532
-3.9850 kaphaja	-0.2276
-99.9990 kapila	-0.0458
-99.9990 kapilakrxta	-0.0523
-99.9990 kapilavastu	-0.0531
-99.9990 kapinj~jala	-0.0531
-99.9990 kapuurathalaa	-0.0533
-2.3776 kara	-0.2125
-99.9990 karaa	-0.0532
-99.9990 karaanei	-0.0529
-99.9990 karaataa	-0.0375
-99.9990 karaaveibala	-0.0533
-99.9990 karaayaa	-0.0531
-99.9990 karaayii	-0.0532
-99.9990 karabaikoo	-0.0532
-2.9243 karakei	-0.0466
-99.9990 karamuslima	-0.0533
-3.0819 karanaa	-0.1711
-99.9990 karanaahoogaa	-0.0190
-99.9990 karand~a	-0.0382
-2.4867 karanei	-0.5666
-3.3318 karanii	-0.1578
-99.9990 karasarvajana	-0.0533
-2.9850 karataa	-0.6635
-99.9990 karataagaliyoon:	-0.0382
-99.9990 karataatoo	-0.0533
-2.8089 karatei	-0.6006
-99.9990 karateikaratei	-0.0515
-3.1399 karatii	-0.7419
-99.9990 karaun:dei	-0.0458
-99.9990 karavaa	-0.0531
-99.9990 karavaayaa	-0.0510
-99.9990 kardama	-0.0532
-3.6840 karei	-0.0892
-3.8089 kareigaa	-0.1272
-99.9990 kareigii	-0.0510
-3.4410 karein:	-0.3067
-99.9990 karein:gei	-0.0531
-3.8089 kariiba	-0.0529
-99.9990 karmaand~an:	-0.0533
-99.9990 karmachaariyoon:	-0.0470
-3.9850 karmakaand~d:iiya	-0.0532
-99.9990 karmakaaroon:	-0.0533
-99.9990 karmasan:pradaana	-0.0533
-99.9990 karmayooga	-0.0470
-99.9990 karmoon:	-0.0470
-99.9990 karnala	-0.0533
-99.9990 karoo	-0.0375
-99.9990 karood:a	-0.0532
-3.9850 karood~a	-0.0524
-99.9990 karood~oo	-0.0533
-99.9990 karootya	-0.0533
-99.9990 kartaka	-0.0531
-99.9990 kartakakiit:a	-0.0449
-99.9990 kartavya	-0.0533
-99.9990 karttavyoon:	-0.0382
-99.9990 karuun:	-0.0190
-99.9990 karuuna	-0.0459
-99.9990 karuund~a	-0.0533
-99.9990 kasa	-0.0531
-99.9990 kasaa	-0.0513
-3.9850 kasama	-0.0530
-99.9990 kasboon:	-0.0382
-99.9990 kashhaaya	-0.0533
-3.9850 kashht:a	-0.0499
-99.9990 kashmiira	-0.0533
-99.9990 kashyapa	-0.0458
-99.9990 kasii	-0.0528
-3.5871 kat:aaii	-0.1029
-99.9990 kat:aava	-0.0532
-99.9990 kat:hagharei	-0.0382
-99.9990 kat:hina	-0.0531
-3.9850 kat:hoora	-0.0528
-99.9990 kat:hoorataa	-0.0509
-99.9990 kat:ishuula	-0.0533
-99.9990 kat:ood~ii	-0.0533
-3.9850 kat:u	-0.0524
-99.9990 kataaii	-0.0533
-99.9990 katarabyoon:ta	-0.0528
-3.5871 kathaa	-0.0122
-99.9990 kathaasaahitya	-0.0470
-99.9990 katipaya	-0.0533
-99.9990 katla	-0.0533
-99.9990 katthii	-0.0533
-99.9990 kaud~iyoon:	-0.0375
-99.9990 kaula	-0.0382
-99.9990 kaumudiikaara	-0.0190
-99.9990 kaumudiikaaroon:	-0.0382
-99.9990 kaun:silabanaanei	-0.0458
-3.8089 kauna	-0.0172
-3.9850 kauravoon:	-0.0387
-99.9990 kaushalyaa	-0.0375
-99.9990 kavi	-0.0470
-99.9990 kavisharaaba	-0.0533
-1.4466 kei	-0.2032
-99.9990 keibaada	-0.0529
-99.9990 keiliei	-0.0511
-99.9990 keimeina	-0.0533
-3.9850 kein:dra	-0.0528
-99.9990 kein:draka	-0.0412
-99.9990 kein:driita	-0.0533
-99.9990 kein:driiya	-0.0533
-3.9850 keindra	-0.0296
-99.9990 keindriiya	-0.0531
-3.9850 keindroon:	-0.0317
-99.9990 keint:oona	-0.0458
-99.9990 keipukaaranei	-0.0412
-99.9990 keirama	-0.0523
-99.9990 keisa	-0.0510
-99.9990 keishavana	-0.0533
-99.9990 keishavaraava	-0.0533
-99.9990 keishoon:	-0.0530
-99.9990 keitanei	-0.0449
-3.0819 keivala	-0.0120
-99.9990 keivat:ii	-0.0533
-3.6840 kha	-0.0459
-3.6840 khaa	-0.0525
-3.3830 khaada	-0.0676
-3.8089 khaadya	-0.1612
-99.9990 khaadyaannoon:kei	-0.0533
-99.9990 khaaei	-0.0530
-99.9990 khaaeinagei	-0.0190
-99.9990 khaaii	-0.0508
-99.9990 khaaiyoon:	-0.0525
-99.9990 khaaka	-0.0504
-3.9850 khaakara	-0.0532
-99.9990 khaalii	-0.0515
-99.9990 khaan:chei	-0.0495
-99.9990 khaan:d:a	-0.0533
-3.9850 khaan:sii	-0.0335
-3.9850 khaana	-0.0375
-3.9850 khaanaa	-0.0504
-99.9990 khaanadaana	-0.0375
-99.9990 khaanapaana	-0.0459
-3.3830 khaanei	-0.0432
-99.9990 khaaneipiinei	-0.0375
-99.9990 khaarii	-0.0533
-99.9990 khaasa	-0.0533
-99.9990 khaat:a	-0.0490
-3.9850 khaataa	-0.0345
-3.8089 khaatei	-0.0097
-99.9990 khaatii	-0.0530
-99.9990 khaayiinahiin:	-0.0533
-3.9850 khabara	-0.0530
-3.6840 khad~aa	-0.1150
-99.9990 khad~aauun:oon:	-0.0470
-3.9850 khad~ei	-0.0463
-3.8089 khad~ii	-0.0524
-99.9990 khad~iyaa	-0.0470
-99.9990 khainiichuunaa	-0.0531
-99.9990 khajaanaa	-0.0511
-99.9990 khajuura	-0.0449
-99.9990 khaliilamujhei	-0.0533
-99.9990 khalu	-0.0533
-99.9990 khan:d:ana	-0.0515
-99.9990 khand~d:a	-0.0533
-99.9990 khand~d:oon:	-0.0382
-3.8089 khanija	-0.0373
-99.9990 khannaa	-0.0506
-3.8089 khapata	-0.0380
-99.9990 khapatii	-0.0463
-3.8089 kharaaba	-0.0475
-3.8089 kharaabii	-0.0383
-99.9990 kharabuujoon:	-0.0375
-99.9990 kharachii	-0.0533
-3.9850 kharapatavaara	-0.0464
-99.9990 kharapatavaaranaashakoon:	-0.0458
-3.9850 kharcha	-0.0524
-99.9990 kharchaa	-0.0502
-99.9990 kharchei	-0.0382
-99.9990 khariida	-0.0533
-3.9850 khariidaa	-0.0512
-99.9990 khariidateiaauugaa	-0.0190
-99.9990 khariipha	-0.0533
-99.9990 khasra	-0.0533
-99.9990 khat:aaii	-0.0412
-99.9990 khat:amit:hii	-0.0533
-3.9850 khat:iyaa	-0.0449
-99.9990 khat:t:aa	-0.0518
-99.9990 khat:t:aamiit:haa	-0.0533
-99.9990 khataranaaka	-0.0533
-99.9990 khatarei	-0.0412
-99.9990 khaupha	-0.0375
-99.9990 khchhii	-0.0533
-99.9990 kheilakuuda	-0.0412
-99.9990 kheilanei	-0.0458
-99.9990 kheilei	-0.0190
-99.9990 kheiluun:	-0.0533
-3.3830 kheita	-0.3207
-99.9990 kheitihara	-0.0532
-3.3318 kheitii	-0.0449
-3.6840 kheitoon:	-0.0098
-99.9990 khid~akii	-0.0449
-3.8089 khiin:cha	-0.0525
-99.9990 khiin:chanei	-0.0531
-99.9990 khiin:chataa	-0.0190
-99.9990 khiira	-0.0533
-99.9990 khilaanei	-0.0375
-99.9990 khilaaphalikhatei	-0.0518
-99.9990 khilajii	-0.0533
-99.9990 khilataa	-0.0375
-99.9990 khilaunoon:	-0.0533
-99.9990 khoodakara	-0.0531
-99.9990 khooii	-0.0531
-3.5871 khooja	-0.0871
-99.9990 khoojasarveikshhand~a	-0.0528
-99.9990 khookara	-0.0533
-99.9990 khookhalaa	-0.0518
-99.9990 khoolaa	-0.0533
-3.9850 khoolakara	-0.0531
-99.9990 khoonei	-0.0532
-3.9850 khuda	-0.0500
-3.9850 khulaa	-0.0525
-99.9990 khulavaa	-0.0526
-99.9990 khulii	-0.0496
-99.9990 khuphiyaa	-0.0533
-99.9990 khuph~iyaa	-0.0530
-99.9990 khuroon:	-0.0528
-99.9990 khushahaalii	-0.0458
-99.9990 khushcheiva	-0.0533
-3.9850 khushii	-0.0373
-99.9990 khuuba	-0.0533
-99.9990 khuubasuurata	-0.0518
-99.9990 khuun:t:iyaan:	-0.0533
-3.8089 khuuna	-0.0305
-99.9990 khyaata	-0.0533
-99.9990 khyaati	-0.0533
-99.9990 kh~aasa	-0.0533
-99.9990 kh~atma	-0.0504
-99.9990 kh~udaa	-0.0412
-2.2368 ki	-0.0512
-3.5871 kiei	-0.0449
-1.5601 kii	-0.0452
-99.9990 kiichad~a	-0.0470
-99.9990 kiidhaarand~aaoon:	-0.0412
-3.9850 kiid~aa	-0.0495
-99.9990 kiid~ei	-0.0532
-3.9850 kiid~oon:	-0.0297
-99.9990 kiijaanii	-0.0533
-99.9990 kiijoo	-0.0532
-99.9990 kiilara	-0.0525
-99.9990 kiimata	-0.0529
-99.9990 kiipa	-0.0412
-99.9990 kiiraakha	-0.0531
-99.9990 kiirti	-0.0525
-3.2861 kiit:a	-0.0980
-99.9990 kiit:anaashaka	-0.0533
-99.9990 kiit:aroodhii	-0.0533
-99.9990 kiit:oon:	-0.0523
-99.9990 kilomiitara	-0.0532
-3.8089 kiloograama	-0.0533
-99.9990 kin:chita	-0.0532
-3.6840 kin:tu	-0.0493
-99.9990 kina	-0.0533
-3.6840 kinaarei	-0.0490
-99.9990 kinaaroon:	-0.0490
-99.9990 kinakina	-0.0533
-99.9990 kinj~chit	-0.0533
-3.4410 kintu	-0.0519
-99.9990 kioograaoo	-0.0532
-99.9990 kioomiioo	-0.0509
-99.9990 kiraayaa	-0.0510
-99.9990 kiraayei	-0.0412
-99.9990 kirana	-0.0533
-3.9850 kirand~ein:	-0.2277
-99.9990 kirand~oon:	-0.0412
-3.8089 kisa	-0.1598
-3.5079 kisaana	-0.0346
-3.4410 kisaanoon:	-0.2203
-99.9990 kisana	-0.0459
-99.9990 kishhkidhaa	-0.0533
-99.9990 kishoora	-0.0533
-3.9850 kishoorii	-0.0522
-3.0073 kisii	-0.0554
-99.9990 kisiibhii	-0.0533
-3.5079 kisma	-0.0333
-3.4410 kismein:	-0.0927
-3.4410 kismoon:	-0.1417
-99.9990 kitaaboon:	-0.0412
-3.6840 kitanaa	-0.0533
-99.9990 kitanei	-0.0530
-99.9990 kitanii	-0.0532
-2.3416 kiyaa	-0.7679
-99.9990 kiyaabandhana	-0.0459
-3.5079 kiyei	-0.0669
-99.9990 klaasa	-0.0510
-99.9990 klaipa	-0.0533
-99.9990 kliit:ayaan:	-0.0509
-99.9990 kliivara	-0.0533
-99.9990 kloonaukisa	-0.0533
-99.9990 kloonaurkieisisa	-0.0529
-3.9850 klooraaid:a	-0.0249
-99.9990 klooriinita	-0.0533
-99.9990 ko-leija	-0.0412
-99.9990 ko-liina	-0.0449
-99.9990 ko-mana	-0.0533
-99.9990 ko-phii	-0.0533
-99.9990 ko-ph~ii	-0.0458
-99.9990 ko-t:ana	-0.0533
-99.9990 ko-t:hoon:	-0.0382
-1.8389 koo	-0.0207
-2.7675 kooii	-0.0914
-99.9990 koolhuu	-0.0533
-3.9850 koomala	-0.0533
-99.9990 koomariichi	-0.0533
-99.9990 koonei	-0.0382
-99.9990 koooopareit:iva	-0.0533
-99.9990 koort:a	-0.0496
-99.9990 koosamudrii	-0.0533
-99.9990 koosha	-0.0375
-99.9990 kooshaka	-0.0375
-99.9990 koosheiyavatstara	-0.0375
-99.9990 kooshha	-0.0490
-99.9990 kooshht:hii	-0.0412
-99.9990 kooshikaa	-0.0375
-3.9850 kooshikaaoon:	-0.0305
-99.9990 kooshisha	-0.0412
-99.9990 kooshoon:	-0.0533
-99.9990 koot:aa	-0.0533
-99.9990 koot:harii	-0.0382
-99.9990 koot:hariyaan:	-0.0522
-99.9990 koot:hiyoon:	-0.0375
-99.9990 koot:i	-0.0532
-99.9990 kraan:ti	-0.0506
-99.9990 kraan:tika	-0.0533
-99.9990 kraauna	-0.0523
-3.6840 krama	-0.0446
-99.9990 kramaan:ka	-0.0533
-3.8089 kramasha	-0.0521
-99.9990 kramashabrahmcharyaashrama	-0.0533
-3.9850 kramashah:	-0.0533
-3.9850 kreipa	-0.0532
-99.9990 kript:oomiit:ara	-0.0529
-99.9990 krist:ooph~ei	-0.0382
-3.3318 kriyaa	-0.0684
-99.9990 kriyaaein:	-0.0532
-3.9850 kriyaanvita	-0.2260
-99.9990 kriyaashiila	-0.0529
-99.9990 kriyaatmaka	-0.0533
-99.9990 kroochei	-0.0459
-3.8089 kroodha	-0.0420
-99.9990 kroomoosooma	-0.0532
-99.9990 kruura	-0.0533
-99.9990 kruurabeilihaaja	-0.0531
-99.9990 krxchchhrasaadhyataman:	-0.0533
-3.3830 krxmi	-0.0919
-99.9990 krxmirooga	-0.0532
-3.6840 krxmiyoon:	-0.2109
-99.9990 krxpaapaatra	-0.0533
-99.9990 krxpayaa	-0.0533
-99.9990 krxshhaka	-0.0533
-99.9990 krxshhakoon:	-0.0470
-3.3318 krxshhi	-0.0083
-99.9990 krxshhikshheitra	-0.0532
-3.6840 krxshhnd~a	-0.0945
-99.9990 krxshhnd~abhooga	-0.0533
-99.9990 krxta	-0.0532
-99.9990 krxtaghna	-0.0458
-99.9990 krxtiyaa	-0.0375
-3.9850 ksaaid:a	-0.0470
-99.9990 kshhaaroon:	-0.0375
-3.9850 kshhamaa	-0.0533
-99.9990 kshhamaayaachanaa	-0.0412
-3.5079 kshhamataa	-0.0314
-99.9990 kshhand~a	-0.0533
-99.9990 kshhand~ika	-0.0533
-99.9990 kshhand~oon:	-0.0412
-99.9990 kshhati	-0.0533
-99.9990 kshhatigrasta	-0.0533
-3.9850 kshhaya	-0.0412
-3.9850 kshheipand~a	-0.0190
-3.2447 kshheitra	-0.1694
-99.9990 kshheitriiya	-0.0533
-3.6840 kshheitroon:	0.0005
-99.9990 kshhubdha	-0.0530
-99.9990 kshhudra	-0.0533
-99.9990 kshhupa	-0.0375
-99.9990 ksiijana	-0.0449
-99.9990 ksoon:	-0.0506
-99.9990 kuchalaa	-0.0526
-2.6233 kuchha	-0.0257
-99.9990 kuchheika	-0.0533
-99.9990 kuein:	-0.0449
-3.9850 kueina	-0.0288
-3.3318 kula	-0.0372
-99.9990 kulakand~d:ana	-0.0531
-3.9850 kulattha	-0.0470
-99.9990 kulsuma	-0.0524
-99.9990 kulthii	-0.0459
-99.9990 kumaara	-0.0533
-99.9990 kumharaavand~d:a	-0.0533
-99.9990 kun:d:a	-0.0382
-99.9990 kun:t:oot:i	-0.0533
-99.9990 kun:vara	-0.0533
-99.9990 kundei	-0.0525
-99.9990 kuntaka	-0.0506
-99.9990 kupita	-0.0519
-99.9990 kuraana	-0.0412
-99.9990 kurimootoo	-0.0470
-99.9990 kuruukshheitra	-0.0533
-99.9990 kuruuoon:	-0.0470
-99.9990 kusha	-0.0533
-99.9990 kushala	-0.0533
-99.9990 kut:hillaa	-0.0375
-99.9990 kut:iira	-0.0533
-99.9990 kutapa	-0.0533
-99.9990 kuttaa	-0.0533
-3.9850 kuttei	-0.0384
-99.9990 kutttei	-0.0504
-3.8089 kutubanumaa	-0.0407
-99.9990 kuud~aa	-0.0530
-99.9990 kuuhanii	-0.0524
-99.9990 kuun:	-0.0533
-99.9990 kuun:d~oon:	-0.0375
-99.9990 kuvvata	-0.0533
-99.9990 kvaaka	-0.0506
-3.0819 kyaa	-0.0113
-99.9990 kyaaaapakiichintanashiila	-0.0533
-99.9990 kyaarii	-0.0382
-3.9850 kyooki	-0.0410
-3.3318 kyoon:	-0.1183
-3.3830 kyoon:ki	-0.0507
-99.9990 kyuu	-0.0412
-99.9990 kyuuriyama	-0.0533
-99.9990 k~atiyoon:	-0.0470
-99.9990 l:akeieika	-0.0533
-99.9990 l:apis	-0.0533
-3.9850 l:at	-0.2276
-99.9990 l:ibrary	-0.0533
-3.8089 laabha	-0.0517
-3.5871 laabhadaayaka	-0.0347
-99.9990 laad:adulaara	-0.0449
-99.9990 laaii	-0.0375
-3.9850 laainoon:	-0.0373
-99.9990 laajavarda	-0.0533
-99.9990 laajuraait:a	-0.0533
-99.9990 laakara	-0.0532
-3.6840 laakha	-0.0532
-99.9990 laakhoon:	-0.0533
-3.9850 laakshhaka	-0.0531
-3.9850 laala	-0.0532
-99.9990 laalaajii	-0.0449
-99.9990 laalad:ein:gaa	-0.0459
-99.9990 laaland~a	-0.0523
-99.9990 laalasaa	-0.0506
-99.9990 laan:sara	-0.0533
-99.9990 laara	-0.0382
-3.8089 laarvaa	-0.0465
-3.8089 laarvei	-0.0388
-99.9990 laat:hiyaan:	-0.0513
-99.9990 laata	-0.0459
-99.9990 laatii	-0.0529
-99.9990 laatuura	-0.0533
-99.9990 laaunja	-0.0532
-99.9990 laayei	-0.0518
-99.9990 laayein:	-0.0190
-99.9990 labdha	-0.0533
-99.9990 lad~aaii	-0.0375
-99.9990 lad~akaa	-0.0526
-3.8089 lad~akei	-0.1504
-3.8089 lad~akii	-0.0372
-99.9990 lad~anei	-0.0412
-3.5871 laga	-0.1107
-3.1100 lagaa	-0.1417
-99.9990 lagaaei	-0.0525
-99.9990 lagaaeigaa	-0.0533
-3.6840 lagaaii	-0.0017
-99.9990 lagaakara	-0.0533
-3.5871 lagaanei	-0.1578
-99.9990 lagaataa	-0.0528
-99.9990 lagaataara	-0.0533
-3.9850 lagaatei	-0.0456
-99.9990 lagaatii	-0.0375
-99.9990 lagaauun:	-0.0190
-3.4410 lagaayaa	-0.1901
-3.8089 lagaayei	-0.2943
-99.9990 lagaayein:	-0.0506
-99.9990 lagaayii	-0.0528
-3.0073 lagabhaga	-0.0952
-3.9850 laganei	-0.0442
-3.5079 lagataa	-0.4034
-3.3830 lagatei	-0.9462
-3.4410 lagatii	-0.1194
-3.3318 lagei	-0.0766
-99.9990 lageigaa	-0.0190
-99.9990 lagein:gei	-0.0190
-99.9990 laghu	-0.0533
-3.4410 lagii	-0.1583
-99.9990 lagiin:	-0.0190
-99.9990 lagiivaha	-0.0533
-99.9990 laharaayaa	-0.0533
-99.9990 laharoon:	-0.0412
-3.9850 lai	-0.0189
-99.9990 laikhiiya	-0.0533
-99.9990 laisei	-0.0502
-99.9990 lait:ina	-0.0532
-99.9990 laivala	-0.0490
-99.9990 lajjaavasha	-0.0530
-3.3830 lakad~ii	-0.0962
-99.9990 lakad~iyaan:	-0.0533
-99.9990 lakavaashaishavika	-0.0532
-3.2447 lakshhand~a	-0.0886
-99.9990 lakshhand~oon:	-0.0382
-99.9990 lakshhand~utkleisha	-0.0533
-99.9990 lakshhmand~a	-0.0459
-3.9850 lakshhya	-0.0532
-99.9990 lakshhyoon:	-0.0490
-99.9990 lak~ad~ahaarei	-0.0506
-99.9990 lalitaa	-0.0470
-99.9990 lambaa	-0.0519
-99.9990 lambaachaud~aa	-0.0533
-99.9990 lambaaii	-0.0412
-99.9990 lambei	-0.0459
-3.8089 lambii	-0.0532
-3.6840 lan:baaii	-0.0492
-99.9990 lan:gad~a	-0.0459
-3.9850 lan:gad~aa	-0.0533
-99.9990 lan:ghana	-0.0533
-99.9990 lan:goot:ii	-0.0533
-99.9990 landana	-0.0375
-99.9990 lapeit:akara	-0.0496
-99.9990 lat:akanei	-0.0526
-3.9850 lat:akei	-0.0533
-99.9990 lat:akii	-0.0529
-99.9990 lat:haita	-0.0495
-99.9990 lataaein:bhii	-0.0533
-99.9990 lauha	-0.0530
-99.9990 lauliniilei	-0.0531
-99.9990 laun:t:iin:	-0.0510
-3.8089 laut:a	-0.0508
-99.9990 laut:aa	-0.0531
-99.9990 laut:uugaa	-0.0533
-3.4410 lavand~a	-0.0801
-99.9990 lavand~arasa	-0.0532
-99.9990 lavand~oon:	-0.0412
-3.2861 lei	-0.0449
-99.9990 leiad:ing	-0.0533
-99.9990 leigaa	-0.0190
-3.3830 leikara	-0.0514
-99.9990 leikha	-0.0533
-3.6840 leikhaka	-0.0391
-99.9990 leikhakakoo	-0.0533
-99.9990 leikhakiiya	-0.0533
-99.9990 leikhakoon:	-0.0382
-99.9990 leikharaaja	-0.0533
-99.9990 leikhoon:	-0.0532
-3.2447 leikina	-0.0729
-3.2069 lein:	-0.2365
-99.9990 lein:gei	-0.0190
-99.9990 leinaa	-0.0527
-3.3318 leinei	-0.0810
-99.9990 leinii	-0.0532
-99.9990 leinisa	-0.0506
-3.9850 leipa	-0.2264
-99.9990 leit:ara	-0.0533
-99.9990 leit:eiksa	-0.0458
-3.5871 leitaa	-0.0600
-3.5079 leitei	-0.3869
-99.9990 leiteihain:	-0.0529
-99.9990 leitheimoogloobiina	-0.0532
-99.9990 leitii	-0.0463
-99.9990 li	-0.0190
-2.3318 liei	-0.0055
-99.9990 lieighut:anei	-0.0524
-99.9990 lieiyaha	-0.0496
-99.9990 ligain:d:oon:	-0.0382
-99.9990 ligniina	-0.0459
-3.5079 lii	-0.1223
-3.9850 liid:ara	-0.0374
-99.9990 liigala	-0.0533
-3.9850 liijiei	-0.0187
-3.9850 liin:	-0.1935
-99.9990 liivaraphluuka	-0.0495
-99.9990 lijalijaa	-0.0531
-99.9990 lij~alij~aasaa	-0.0506
-3.6840 likha	-0.0036
-3.5079 likhaa	-0.0470
-99.9990 likhanaa	-0.0532
-99.9990 likhiin:lambiikahaaniyo-n:	-0.0533
-99.9990 likhiishaayada	-0.0529
-99.9990 likhita	-0.0531
-99.9990 limit:a	-0.0532
-99.9990 limit:id:a	-0.0533
-99.9990 lind:eina	-0.0412
-99.9990 lipi	-0.0375
-3.0308 liyaa	-0.3586
-99.9990 liyaathaa	-0.0528
-99.9990 liyaayahiin:	-0.0531
-3.2447 liyei	-0.0485
-3.9850 lo-sa	-0.2278
-3.9850 loo	-0.0150
-99.9990 loobiyaa	-0.0533
-99.9990 looda	-0.0533
-99.9990 loodii	-0.0532
-99.9990 loodraa	-0.0533
-3.0308 looga	-0.0116
-99.9990 loogoo	-0.0375
-3.4410 loogoon:	-0.1603
-99.9990 looha	-0.0458
-99.9990 loohaa	-0.0533
-3.9850 looka	-0.0412
-99.9990 lookagiita	-0.0533
-99.9990 lookamaanya	-0.0533
-99.9990 lookanaatha	-0.0533
-99.9990 lookapriya	-0.0510
-99.9990 loomaharshha	-0.0533
-3.9850 loona	-0.0410
-99.9990 lubra	-0.0533
-99.9990 ludhiyaanaa	-0.0533
-3.9850 lugadii	-0.0470
-3.6840 luii	-0.2209
-99.9990 lun:biniiarand~ya	-0.0382
-3.9850 luu	-0.0440
-99.9990 luud:oo	-0.0533
-99.9990 luun:	-0.0190
-99.9990 luupsa	-0.0490
-99.9990 luushuna	-0.0449
-99.9990 luut:aa	-0.0459
-3.9850 luut:oo	-0.0109
-99.9990 lyuut:einaaijiina	-0.0532
-99.9990 ma	-0.0533
-99.9990 maachhiivaad~aa	-0.0449
-99.9990 maachisa	-0.0375
-3.9850 maadaa	-0.0533
-3.9850 maadhava	-0.0375
-3.6840 maadhyama	-0.2126
-99.9990 maadhyamoon:	-0.0382
-99.9990 maaha	-0.0375
-99.9990 maahaaiitei	-0.0449
-99.9990 maaheishvara	-0.0533
-99.9990 maaikrooileikt:raanika	-0.0533
-3.9850 maaikrooveiva	-0.0403
-99.9990 maakhanasin:ha	-0.0506
-99.9990 maala	-0.0533
-99.9990 maalaa	-0.0533
-99.9990 maalaalan:krxta	-0.0533
-99.9990 maalathii	-0.0506
-99.9990 maaldaa	-0.0533
-99.9990 maalibd:aka	-0.0532
-99.9990 maalibd:eit:a	-0.0533
-3.9850 maalika	-0.0249
-3.6840 maalisha	-0.0518
-3.8089 maaluuma	-0.0342
-99.9990 maaluumii	-0.0533
-99.9990 maamalaa	-0.0533
-3.8089 maamalei	-0.2802
-99.9990 maamuulii	-0.0533
-99.9990 maan:ga	-0.0533
-99.9990 maan:ganei	-0.0519
-99.9990 maan:gii	-0.0190
-99.9990 maan:giisarakaara	-0.0528
-99.9990 maan:guun:	-0.0532
-99.9990 maan:jakara	-0.0533
-3.9850 maan:sa	-0.0531
-3.6840 maana	-0.0306
-3.6840 maanaa	-0.2176
-99.9990 maanabaapa	-0.0533
-3.9850 maanakara	-0.0531
-99.9990 maananei	-0.0532
-99.9990 maanasataka	-0.0532
-3.9850 maanatei	-0.0448
-3.6840 maanava	-0.0487
-99.9990 maanavabhaashhaa	-0.0382
-99.9990 maanavajiivana	-0.0449
-99.9990 maanavavyavahaara	-0.0533
-3.6840 maanei	-0.0521
-99.9990 maanii	-0.0529
-99.9990 maanoo	-0.0533
-3.9850 maanoon:	-0.0531
-99.9990 maanyataa	-0.0532
-99.9990 maanyataakei	-0.0533
-99.9990 maanyavara	-0.0533
-99.9990 maapii	-0.0533
-3.9850 maara	-0.0506
-99.9990 maaraa	-0.0190
-3.9850 maaranei	-0.0374
-99.9990 maaratii	-0.0528
-99.9990 maarcha	-0.0513
-99.9990 maardiga	-0.0533
-99.9990 maarei	-0.0533
-99.9990 maareimaarei	-0.0533
-99.9990 maarga	-0.0382
-99.9990 maargoon:	-0.0458
-99.9990 maariishasa	-0.0382
-99.9990 maaroogyan:	-0.0533
-99.9990 maasa	-0.0382
-3.9850 maasika	-0.2277
-99.9990 maast:ara	-0.0533
-3.8089 maataa	-0.1456
-3.9850 maataapitaa	-0.0469
-3.8089 maathei	-0.1497
-3.0819 maatraa	-0.3268
-99.9990 maatraaoon:	-0.0458
-99.9990 maatrakoon:	-0.0382
-99.9990 maatrx	-0.0533
-99.9990 maatrxbhaashhaa	-0.0382
-99.9990 machchhara	-0.0523
-99.9990 macheigii	-0.0508
-3.8089 machhalii	-0.1413
-3.9850 machhaliyaan:	-0.0529
-3.8089 machhaliyoon:	-0.0294
-3.9850 madada	-0.0374
-99.9990 madhu	-0.0533
-99.9990 madhura	-0.0533
-99.9990 madhuraamla	-0.0533
-99.9990 madhutrxnd~asan:skrxta	-0.0382
-3.5079 madhya	-0.0452
-3.6840 madhyama	-0.1305
-99.9990 madhyamaana	-0.0533
-99.9990 madhyapradeisha	-0.0382
-99.9990 madhyavargii	-0.0532
-99.9990 madiinaa	-0.0412
-99.9990 madiraa	-0.0412
-99.9990 madoon:	-0.0470
-3.6840 magara	-0.0511
-3.9850 maggara	-0.2276
-99.9990 mahaabalii	-0.0533
-99.9990 mahaadeiva	-0.0532
-99.9990 mahaajana	-0.0529
-99.9990 mahaamaarii	-0.0533
-99.9990 mahaan	-0.0533
-99.9990 mahaana	-0.0533
-99.9990 mahaanirvaand~ii	-0.0533
-99.9990 mahaaraaja	-0.0506
-99.9990 mahaaraajaa	-0.0533
-99.9990 mahaaraashht:ra	-0.0375
-3.9850 mahaasaagara	-0.2120
-99.9990 mahaavan:sha	-0.0375
-99.9990 mahakamoon:	-0.0412
-99.9990 maharshhi	-0.0533
-99.9990 mahasuusa	-0.0529
-3.9850 mahattva	-0.0429
-99.9990 mahattvaakaan:e-kshhaaoon:	-0.0470
-3.9850 mahattvapuurnd~a	-0.0452
-3.8089 mahatva	-0.1551
-3.2447 mahatvapuurnd~a	-0.0498
-99.9990 maheindragadh~a	-0.0382
-99.9990 maheisaand~aa	-0.0532
-99.9990 mahiidhara	-0.0190
-99.9990 mahiinei	-0.0382
-99.9990 mahiinoon:	-0.0382
-99.9990 mahilaa	-0.0533
-3.8089 mahilaaoon:	-0.0280
-3.9850 mahoodaya	-0.0374
-3.4410 mai	-0.0525
-3.8089 maidaana	-0.0305
-99.9990 maidaanii	-0.0530
-3.8089 maigat:a	-0.0530
-99.9990 maigmaa	-0.0523
-99.9990 maigniishiyama	-0.0459
-99.9990 maika	-0.0533
-99.9990 maimbara	-0.0533
-3.0073 main:	-0.0498
-3.4410 main:nei	-0.0479
-3.9850 maind~d:ala	-0.0458
-3.9850 mainei	-0.0530
-99.9990 maineijara	-0.0190
-99.9990 mainyuuphaikcharin:ga	-0.0526
-99.9990 maisuura	-0.0382
-99.9990 mait:sa	-0.0533
-99.9990 maithaajiina	-0.0532
-99.9990 maithilii	-0.0533
-99.9990 majaaka	-0.0495
-3.8089 majabuuta	-0.0527
-99.9990 majabuutii	-0.0375
-99.9990 majuumadaara	-0.0459
-99.9990 majuuroon:	-0.0458
-3.5871 makkaa	-0.0297
-99.9990 makkhiivana	-0.0412
-3.9850 mala	-0.0449
-99.9990 malabarii	-0.0533
-99.9990 malagoovaa	-0.0190
-99.9990 malakuraada	-0.0533
-99.9990 malappurama	-0.0375
-3.9850 malayaalama	-0.0375
-99.9990 malcha	-0.0533
-3.9850 mamataa	-0.0533
-99.9990 mammat:a	-0.0525
-99.9990 mammii	-0.0506
-99.9990 man:	-0.0533
-99.9990 man:dh~ei	-0.0525
-99.9990 man:garuu	-0.0531
-99.9990 man:jana	-0.0375
-99.9990 man:jila	-0.0490
-3.6840 man:trii	-0.0501
-3.5079 mana	-0.0842
-99.9990 manaa	-0.0532
-99.9990 manaaeigaa	-0.0533
-99.9990 manamuna	-0.0533
-99.9990 mandacheishht:aa	-0.0533
-99.9990 mandira	-0.0382
-99.9990 mandiroon:	-0.0470
-99.9990 mandra	-0.0533
-99.9990 mand~d:iyoon:	-0.0382
-99.9990 mand~d:uura	-0.0533
-99.9990 mand~inagara	-0.0533
-99.9990 maniishhaa	-0.0490
-3.9850 maniishhii	-0.0439
-99.9990 manoovijaana	-0.0190
-99.9990 manoovijnj~aana	-0.0458
-3.9850 manoovijyaana	-0.0298
-99.9990 manoovrxtti	-0.0382
-99.9990 manoovrxttiiyaa	-0.0531
-99.9990 mantra	-0.0463
-99.9990 mantrii	-0.0533
-99.9990 manu	-0.0510
-3.2861 manushhya	-0.2284
-3.9850 mara	-0.0517
-99.9990 maraat:hii	-0.0533
-99.9990 marahamoon:	-0.0449
-99.9990 maranaa	-0.0532
-99.9990 maratei	-0.0459
-99.9990 mardoon:	-0.0412
-99.9990 marei	-0.0526
-99.9990 markyuurika	-0.0533
-99.9990 marmaahata	-0.0530
-99.9990 marmana	-0.0463
-99.9990 marmasthala	-0.0490
-3.9850 maryaadaa	-0.0495
