
\data\
ngram 1=3741
ngram 2=11194
ngram 3=13364

\1-grams:
-1.150547	</s>
-99	<s>	-1.046944
-1.792563	a	-0.161069
-3.958364	abbaiano	-0.06706636
-3.857343	abbandonare	-0.1816465
-3.958364	abbandonati	-0.06558777
-3.958364	abbandonato	-0.06120034
-3.958364	abbandonavano	-0.06021492
-3.958364	abbandonerò	-0.03574293
-3.958364	abbandoni	-0.06465133
-3.958364	abbandoniamo	-0.06120034
-3.958364	abbandonò	-0.06021492
-3.857343	abbassò	-0.06016629
-3.958364	abbastanza	-0.06754174
-3.958364	abbattendo	-0.06687209
-3.958364	abbattere	-0.06687209
-3.958364	abbatterò	-0.06683323
-3.31043	abbia	-0.06026334
-3.120735	abbiamo	-0.073567
-3.857343	abbiano	-0.06721269
-3.958364	abbordaggio	-0.03574293
-3.958364	abbracciare	-0.06465133
-3.958364	abbruci	-0.06733818
-3.958364	abili	-0.06754174
-3.857343	abissi	-0.1862782
-3.958364	abita	-0.06667774
-3.857343	abitanti	-0.05399577
-3.958364	abitazione	-0.06386942
-3.958364	accadrà	-0.06733818
-3.958364	accampati	-0.06706636
-3.958364	accanito	-0.06754174
-3.958364	accelerava	-0.06694981
-3.958364	accendiamo	-0.06386942
-3.958364	accento	-0.06749342
-3.857343	accertarsi	-0.05662979
-3.958364	accertati	-0.06508078
-3.857343	acceso	-0.05782181
-3.958364	accettare	-0.0667555
-3.958364	accettarlo	-0.03574293
-3.958364	accetto	-0.06021492
-3.958364	accolse	-0.03574293
-3.958364	accomodando	-0.06465133
-3.958364	accompagnava	-0.06021492
-3.958364	accompagnerò	-0.06683323
-3.958364	accontentavano	-0.05617108
-3.958364	accordavano	-0.06754174
-3.958364	accorderemo	-0.06679437
-3.958364	accorgeranno	-0.06508078
-3.655032	accorgersi	-0.1328271
-3.958364	accorrendo	-0.06729936
-3.958364	accorrere	-0.06718287
-3.958364	accorreva	-0.06449506
-3.958364	accorse	-0.03574293
-3.958364	accorso	-0.06371287
-3.958364	accorti	-0.05831663
-3.958364	accortisi	-0.0661331
-3.958364	accostarsi	-0.06418236
-3.958364	accumulati	-0.06733818
-3.507761	acqua	-0.1591543
-3.857343	acquatici	-0.06589043
-3.655032	acque	-0.1098641
-3.958364	acuta	-0.05617108
-3.958364	acute	-0.06386942
-3.958364	acuti	-0.05831663
-2.486964	ad	-0.1613502
-3.857343	adagio	-0.03567801
-3.958364	addio	-0.05942497
-3.958364	additando	-0.06021492
-3.958364	additò	-0.06021492
-3.31043	addosso	-0.05512327
-3.958364	adoperare	-0.06726053
-3.397983	adunque	-0.05405857
-3.958364	affare	-0.06754174
-3.958364	affari	-0.06492467
-3.958364	affatto	-0.06741581
-3.958364	affermativo	-0.06591983
-3.958364	afferrando	-0.06021492
-3.857343	afferrò	-0.06357673
-3.857343	affido	-0.1819621
-3.958364	affinché	-0.06729936
-3.958364	affluire	-0.0671052
-3.958364	affrettarsi	-0.03574293
-3.857343	affrettato	-0.1361633
-3.857343	affrettava	-0.1883814
-3.958364	affrettavano	-0.06726053
-3.958364	affrettiamo	-0.06021492
-3.958364	affrettiamoci	-0.0605305
-3.857343	affrontare	-0.06090584
-3.655032	affumicare	-0.05926862
-3.072307	aggiunse	-0.1676703
-3.958364	aggrappato	-0.06617203
-3.857343	aggrottando	-0.1826319
-3.958364	aggrottò	-0.06120034
-3.857343	aggruppati	-0.06746888
-3.958364	agguato	-0.03173845
-3.958364	agilmente	-0.0605305
-3.958364	agitazione	-0.03574293
-3.237601	agli	-0.1228076
-2.75946	ai	-0.1285003
-3.958364	aiutarvi	-0.06449506
-3.958364	aiutata	-0.06729936
-3.958364	aiuterà	-0.0605305
-3.958364	aiuto	-0.03574293
-2.565011	al	-0.106709
-3.958364	alabarde	-0.05942497
-3.958364	alacremente	-0.06754174
-3.507761	alberi	-0.0507265
-3.958364	albero	-0.06752922
-3.397983	alcun	-0.06692577
-3.958364	alcuna	-0.06754174
-3.507761	alcune	-0.06726281
-2.989151	alcuni	-0.2326047
-3.958364	alcuno	-0.03574293
-3.958364	ali	-0.06754174
-3.958364	all'abbordaggio	-0.03574293
-3.857343	all'alba	-0.06591983
-3.655032	all'altro	-0.1440795
-3.958364	all'amico	-0.06535386
-3.958364	all'aperto	-0.06754174
-3.958364	all'arcione	-0.06547083
-3.958364	all'argano	-0.03574293
-3.31043	all'assalto	-0.1766759
-3.958364	all'azione	-0.06754174
-3.655032	all'estremità	-0.06202816
-3.857343	all'inferno	-0.06463268
-3.958364	all'opera	-0.03574293
-3.958364	all'ultima	-0.06752922
-2.537407	alla	-0.170701
-3.655032	alle	-0.06742108
-3.958364	allegramente	-0.06386942
-3.958364	allegria	-0.03574293
-3.857343	allegro	-0.03499271
-3.958364	allestite	-0.06386942
-3.958364	alloggio	-0.06683323
-3.958364	allontanandosi	-0.06694981
-3.958364	allontanò	-0.06021492
-3.072307	allora	-0.04058919
-3.507761	almeno	-0.06213692
-3.958364	alonzo	-0.06752922
-3.958364	altezza	-0.06492467
-3.958364	alto	-0.06741581
-3.958364	altra	-0.03574293
-3.857343	altre	-0.06654253
-3.958364	altrettanti	-0.06754174
-3.31043	altri	-0.06954915
-3.958364	altro	-0.03563949
-3.958364	alture	-0.0667555
-3.857343	alzando	-0.06090584
-3.958364	alzandosi	-0.06729936
-3.958364	alzarsi	-0.06754174
-3.958364	alzati	-0.06718287
-3.397983	alzato	-0.01315675
-3.857343	alzò	-0.06046918
-3.958364	amante	-0.06547083
-3.958364	amata	-0.03574293
-3.958364	amazzoni	-0.03574293
-3.958364	ambiscono	-0.05617108
-3.857343	ambo	-0.185301
-3.958364	amburghese	-0.06754174
-3.958364	amerei	-0.06733818
-3.958364	america	-0.05942497
-3.507761	amici	-0.09890303
-3.237601	amico	-0.05124064
-3.958364	ammasso	-0.05617108
-3.958364	ammirabile	-0.06737699
-3.857343	ammiro	-0.05869389
-3.958364	amo	-0.03574293
-3.958364	ampio	-0.06749393
-3.958364	anch'egli	-0.06508078
-3.857343	anch'io	-0.02612025
-2.75946	anche	-0.07650023
-2.565011	ancora	-0.0621841
-3.958364	andarcene	-0.03574293
-3.397983	andare	-0.0137836
-3.958364	andarlo	-0.0605305
-3.958364	andarvene	-0.0664055
-3.958364	andassero	-0.03574293
-3.958364	andati	-0.0605305
-3.857343	andato	-0.0604328
-3.857343	andiamo	-0.1160703
-3.655032	andrai	-0.05800125
-3.958364	andranno	-0.06733818
-3.655032	andremo	-0.05513607
-3.958364	andrete	-0.06617203
-3.958364	andrà	-0.0605305
-3.958364	andrò	-0.03574293
-3.958364	anguille	-0.03574293
-3.958364	anima	-0.03480351
-3.958364	animale	-0.06469039
-3.655032	animali	-0.112765
-3.958364	animati	-0.06492467
-3.958364	animava	-0.06617203
-3.857343	anni	-0.05559406
-3.958364	ansara	-0.06752922
-3.958364	ansietà	-0.03574293
-3.655032	antille	-0.1052156
-3.958364	antropofaghi	-0.05942497
-3.958364	antropofago	-0.03574293
-3.857343	anzi	-0.05615207
-3.857343	aperta	-0.06113911
-3.857343	aperto	-0.05956421
-3.958364	apertura	-0.06726053
-3.958364	appariva	-0.06706636
-3.958364	appartenete	-0.06632769
-3.120735	appena	-0.05398374
-3.958364	appesa	-0.06754174
-3.958364	appesi	-0.06632769
-3.958364	appesterete	-0.06702751
-3.655032	appiccare	-0.05926862
-3.958364	appiccarlo	-0.0671052
-3.958364	appiccati	-0.06492467
-3.958364	appiccato	-0.06465133
-3.958364	appiccheremo	-0.06754174
-3.958364	appoggiarsi	-0.06632769
-3.958364	appoggiata	-0.06754174
-3.958364	appoggiato	-0.06706636
-3.958364	apprensione	-0.03574293
-3.958364	apprese	-0.06386942
-3.958364	approdano	-0.03574293
-3.958364	approdato	-0.06718287
-3.958364	approfittano	-0.06386942
-3.958364	approfittiamo	-0.06508078
-3.857343	aprire	-0.06388988
-3.958364	apriremo	-0.06558777
-3.958364	aprite	-0.0605305
-3.958364	aprí	-0.06386942
-3.958364	arawaki	-0.03367237
-3.958364	archibugiate	-0.0605305
-3.958364	archibugio	-0.03574293
-3.958364	ardesse	-0.06667774
-3.958364	ardeva	-0.06683323
-3.958364	arditi	-0.06535386
-3.655032	arenata	-0.06715533
-3.958364	aria	-0.06418236
-3.958364	armadi	-0.06754174
-3.958364	armando	-0.0672217
-3.958364	armate	-0.05617108
-3.857343	armati	-0.1776027
-3.958364	armato	-0.05942497
-3.397983	armi	-0.1668645
-3.958364	aromatiche	-0.06566572
-3.958364	arrabbiati	-0.03574293
-3.958364	arrampicato	-0.06659998
-3.958364	arrancando	-0.06752922
-3.958364	arrancavano	-0.06492467
-3.958364	arrendersi	-0.0667555
-3.958364	arrendervi	-0.03574293
-3.958364	arrendetevi	-0.06741581
-3.958364	arrestarci	-0.06754174
-3.958364	arrestare	-0.06726053
-3.958364	arrestarsi	-0.06754174
-3.857343	arrestati	-0.185301
-3.655032	arrestato	-0.05950277
-3.958364	arrestò	-0.06718287
-3.958364	arrischiarvi	-0.05617108
-3.857343	arrosto	-0.02695082
-3.958364	artiglieri	-0.03574293
-3.397983	artiglierie	-0.06600727
-3.958364	asciutto	-0.06754174
-3.857343	ascoltato	-0.06404636
-3.958364	ascoltò	-0.06752922
-3.655032	aspetta	-0.04713854
-3.958364	aspettando	-0.06754174
-3.958364	aspettare	-0.03574293
-3.958364	aspettarli	-0.06371287
-3.958364	aspettarmi	-0.06667774
-3.958364	aspettate	-0.06021492
-3.958364	aspettativa	-0.06749342
-3.857343	aspettavano	-0.1859266
-3.958364	aspetteranno	-0.06120034
-3.857343	aspetterà	-0.06588088
-3.958364	aspettiamoli	-0.06449506
-3.958364	aspetto	-0.05831663
-3.958364	assaggerei	-0.06752922
-3.655032	assaggiare	-0.1416641
-3.507761	assai	-0.03431333
-3.958364	assalendo	-0.06749342
-3.958364	assalirci	-0.05617108
-3.958364	assalire	-0.0604328
-3.958364	assalirlo	-0.03574293
-3.857343	assaliti	-0.0633809
-3.958364	assalitori	-0.06754174
-3.958364	assalto	-0.06749342
-3.958364	assassinare	-0.0605305
-3.958364	assassinarlo	-0.06386942
-3.958364	assassinarvi	-0.03574293
-3.958364	assassinio	-0.03574293
-3.857343	assassino	-0.03563949
-3.958364	assedieranno	-0.05942497
-3.857343	assenza	-0.06690193
-3.958364	assicura	-0.05831663
-3.958364	assicurarsi	-0.05831663
-3.857343	assicuro	-0.05754397
-3.31043	assieme	-0.1654396
-3.958364	assiso	-0.06632769
-3.958364	assoluta	-0.06749342
-3.857343	assolutamente	-0.06748141
-3.958364	assorbiti	-0.06745462
-3.958364	assumendo	-0.06371287
-3.958364	assunto	-0.06754174
-3.958364	astuto	-0.05399761
-3.958364	astuzie	-0.06508078
-3.958364	atlantico	-0.03574293
-3.958364	attaccamento	-0.06659998
-3.958364	attaccato	-0.06632769
-3.958364	attacco	-0.05617108
-3.958364	attendano	-0.03574293
-3.958364	attende	-0.06386942
-3.507761	attendere	-0.04977393
-3.958364	attenderlo	-0.06120034
-3.958364	attendo	-0.06754174
-3.857343	attentamente	-0.06697964
-3.958364	attesa	-0.06459363
-3.958364	attorno	-0.06683323
-3.958364	attraversano	-0.06749342
-3.507761	attraversare	-0.08494698
-3.958364	attraversarla	-0.03574293
-3.958364	attraversarlo	-0.0667555
-3.958364	attraversava	-0.06484659
-3.958364	attraverseremo	-0.06386942
-3.397983	attraverso	-0.1899127
-3.958364	attuare	-0.06729936
-3.958364	audaci	-0.06743308
-3.958364	audacia	-0.03140123
-3.958364	aumentava	-0.06754174
-3.958364	autentico	-0.0664055
-3.958364	autorità	-0.05617108
-3.958364	avanzandosi	-0.06659998
-3.958364	avanzantisi	-0.06667774
-3.958364	avanzare	-0.06449506
-3.857343	avanzarsi	-0.06623129
-3.958364	avanzava	-0.06694981
-3.857343	avaraccio	-0.06576402
-3.958364	avendo	-0.06745462
-3.958364	avendoci	-0.06547083
-3.31043	aver	-0.09111118
-3.958364	averci	-0.06371287
-3.655032	avere	-0.1212358
-3.857343	averlo	-0.06723899
-3.31043	avesse	-0.06251268
-3.958364	avessero	-0.06749342
-3.655032	avessi	-0.06011767
-3.31043	avete	-0.09078559
-2.75946	aveva	-0.09366744
-3.655032	avevamo	-0.06446736
-2.859294	avevano	-0.08718997
-3.507761	avevo	-0.06408424
-3.958364	avidità	-0.05617108
-3.958364	avrai	-0.06492467
-3.958364	avranno	-0.06754174
-3.31043	avrebbe	-0.1014547
-3.958364	avrebbero	-0.06754174
-3.655032	avrei	-0.06721745
-3.507761	avremo	-0.05091415
-3.237601	avrà	-0.06261042
-3.958364	avute	-0.06386942
-3.237601	avuto	-0.08079457
-3.958364	avvantaggiarsi	-0.03574293
-3.958364	avvelenarle	-0.0664055
-3.958364	avvenne	-0.06386942
-3.958364	avventura	-0.06754174
-3.857343	avventure	-0.03569148
-3.857343	avvenuto	-0.03555596
-3.857343	avversari	-0.06062996
-3.958364	avversaria	-0.03140123
-3.958364	avversarii	-0.03574293
-3.958364	avverte	-0.06021492
-3.958364	avvertimento	-0.06749342
-3.958364	avvertire	-0.06754174
-3.958364	avvertito	-0.03574293
-3.958364	avverto	-0.05831663
-3.958364	avvicinasse	-0.05617108
-3.958364	avvicinato	-0.0664055
-3.958364	avvicinerà	-0.0667555
-3.958364	avvicinò	-0.05813913
-3.958364	avviso	-0.06449506
-3.958364	avvolgeva	-0.03574293
-3.958364	babordo	-0.05942497
-3.958364	bacche	-0.06754174
-3.958364	bacino	-0.06754174
-3.958364	bacio	-0.06659998
-3.857343	bada	-0.1797482
-3.958364	badate	-0.05617108
-3.958364	badiamo	-0.05831663
-3.958364	bagnare	-0.06120034
-3.958364	balenava	-0.06752922
-3.958364	balenavano	-0.06706636
-3.958364	balzare	-0.06737699
-3.958364	balzato	-0.06371287
-3.958364	balzava	-0.0672217
-3.958364	balzavano	-0.06687209
-3.857343	balzo	-0.06487657
-3.857343	balzò	-0.06618334
-3.958364	banco	-0.05942497
-3.857343	banda	-0.02344327
-3.857343	bande	-0.06746888
-3.958364	bandiera	-0.06754174
-3.958364	bandito	-0.05831663
-3.958364	barca	-0.06492467
-3.958364	barcaccia	-0.0605305
-3.958364	barche	-0.05942497
-3.958364	barcollando	-0.06749342
-3.958364	barile	-0.06259669
-3.857343	barilotto	-0.1776027
-3.958364	barra	-0.0584166
-3.958364	barrero	-0.03574293
-3.958364	barricare	-0.06386942
-3.958364	barricarla	-0.06749342
-3.958364	baschi	-0.06355626
-3.857343	basco	-0.02185325
-3.958364	base	-0.06294976
-3.958364	bassa	-0.06659998
-3.958364	basso	-0.05831663
-3.958364	basta	-0.03574293
-3.958364	bastarono	-0.06386942
-3.857343	bastata	-0.05924793
-3.958364	bastava	-0.0605305
-3.958364	basteranno	-0.06386942
-3.958364	bastiamo	-0.06386942
-3.958364	bastimenti	-0.03574293
-3.857343	bastioni	-0.1571745
-3.857343	bastonate	-0.05686846
-3.857343	battaglia	-0.06413417
-3.958364	batte	-0.0671052
-3.857343	battere	-0.06318498
-3.507761	batteria	-0.02786874
-3.958364	batterie	-0.06720316
-3.958364	battervi	-0.0664833
-3.958364	batto	-0.06355626
-3.857343	begli	-0.06681468
-3.958364	bell'audacia	-0.06371287
-3.958364	bell'imbarazzo	-0.06469039
-3.507761	bella	-0.03525247
-3.958364	belli	-0.06706636
-3.958364	bello	-0.06554879
-3.958364	belzebú	-0.05942497
-3.31043	ben	-0.1423127
-3.120735	bene	-0.02645618
-3.857343	benissimo	-0.0604328
-3.857343	bensí	-0.06106341
-3.958364	bere	-0.06484659
-3.655032	berretto	-0.03239202
-3.958364	bersaglieri	-0.06355626
-3.958364	bestia	-0.02814206
-3.958364	bestie	-0.06355626
-3.958364	beva	-0.0664055
-3.958364	bevitori	-0.06698866
-3.857343	bianca	-0.06748141
-3.857343	bianco	-0.02318747
-3.958364	biblioteca	-0.03574293
-3.958364	bicchiere	-0.06632769
-3.958364	biondi	-0.06754174
-3.958364	birbone	-0.06754174
-3.958364	bisbigliavano	-0.06659998
-3.958364	biscaglini	-0.05831663
-3.958364	biscaglino	-0.06628878
-3.958364	biscotti	-0.06663886
-3.857343	bisogna	-0.05766489
-3.655032	bisognerà	-0.05821896
-3.958364	bisogno	-0.05617108
-3.958364	bocca	-0.06752922
-3.958364	boccaporti	-0.06754174
-3.958364	bombardarci	-0.03574293
-3.958364	bombardare	-0.06656109
-3.958364	bombardiamo	-0.06558777
-3.958364	bordata	-0.06737699
-3.958364	bordate	-0.06754174
-3.397983	bordo	-0.02915293
-3.958364	boscelli	-0.06754174
-3.958364	boschetti	-0.03574293
-3.958364	boschetto	-0.05617108
-3.857343	boschi	-0.05251395
-3.857343	bosco	-0.02590678
-3.655032	botte	-0.1048756
-3.958364	bottiglia	-0.05617108
-3.958364	bottiglie	-0.05617108
-3.958364	bottini	-0.06465133
-3.857343	braccia	-0.06557749
-3.31043	braccio	-0.1857024
-3.958364	bramosia	-0.06752922
-3.958364	branca	-0.03574293
-3.958364	brande	-0.06667774
-3.958364	brando	-0.06449506
-3.958364	brav'uomo	-0.05831663
-3.958364	bravaccio	-0.03574293
-3.857343	bravi	-0.06297988
-3.958364	bravo	-0.06752922
-3.958364	breccia	-0.0664055
-3.857343	breve	-0.06728082
-3.958364	brevissimo	-0.03574293
-3.958364	bricconi	-0.06754174
-3.958364	brillare	-0.06484659
-3.958364	brivido	-0.02230464
-3.857343	brontolò	-0.1877204
-3.958364	bruciano	-0.0664055
-3.958364	bruciapelo	-0.03574293
-3.175249	bruscamente	-0.064709
-3.655032	brutta	-0.06715533
-3.958364	brutto	-0.06754174
-3.857343	bucanieri	-0.1571745
-3.507761	buon	-0.06695085
-3.655032	buona	-0.05909255
-3.958364	buoni	-0.06729936
-3.958364	buono	-0.06492467
-3.958364	butú	-0.05831663
-3.958364	c'entrano	-0.06465133
-3.857343	caballeros	-0.0257563
-3.857343	cabina	-0.03569148
-3.958364	caccia	-0.06015662
-3.958364	cacciando	-0.06484659
-3.958364	cacciato	-0.06706636
-3.958364	cacciatore	-0.06749342
-3.958364	cadano	-0.06371287
-3.507761	cadavere	-0.03473203
-3.958364	cadaveri	-0.03574293
-3.507761	cadde	-0.05568542
-3.958364	cademmo	-0.06371287
-3.958364	cadere	-0.06752922
-3.958364	cadesse	-0.03574293
-3.958364	cadeva	-0.06741581
-3.958364	cadevano	-0.06754174
-3.958364	caduta	-0.05942497
-3.857343	caduto	-0.06334172
-3.958364	caimani	-0.06706636
-3.958364	caimano	-0.06754174
-3.958364	calafati	-0.03574293
-3.958364	calare	-0.06120034
-3.958364	calate	-0.06386942
-3.958364	calati	-0.06718287
-3.958364	calcio	-0.06386942
-3.958364	calino	-0.06386942
-3.958364	calma	-0.03574293
-3.958364	calmo	-0.05942497
-3.958364	calpestava	-0.03574293
-3.958364	calupi	-0.03574293
-3.958364	calò	-0.06749342
-3.958364	cambiato	-0.06749342
-3.857343	camerata	-0.03459426
-3.857343	camerati	-0.109696
-3.958364	cammini	-0.06754174
-3.857343	cammino	-0.0353843
-3.857343	campagna	-0.02695082
-3.958364	campana	-0.06745462
-3.958364	campo	-0.03574293
-3.958364	canaglie	-0.0672217
-3.958364	candida	-0.06754174
-3.857343	cane	-0.05688926
-3.857343	cani	-0.03569148
-3.958364	canne	-0.06492467
-3.958364	cannone	-0.0320754
-3.857343	cannoneggiamento	-0.06326336
-3.857343	cannoni	-0.06647427
-3.655032	canotto	-0.02696516
-3.958364	canterani	-0.06745462
-3.958364	capace	-0.06469039
-3.857343	capaci	-0.05511519
-3.958364	capacità	-0.05617108
-3.31043	capanna	-0.05337846
-3.958364	capelli	-0.06754174
-3.857343	capi	-0.06351585
-3.072307	capitano	-0.1373638
-3.958364	capite	-0.06726053
-3.958364	capitombolo	-0.06752922
-3.397983	capo	-0.04487353
-3.958364	cappello	-0.06728082
-3.655032	cara	-0.1377429
-3.958364	caraibi	-0.06593842
-3.655032	caravella	-0.02885583
-3.958364	caraybi	-0.06706636
-3.958364	carbone	-0.06025618
-3.958364	carbét	-0.06535386
-3.958364	cari	-0.06716132
-3.958364	carichi	-0.06593842
-3.958364	carico	-0.05617108
-2.524237	carmaux	-0.1760766
-3.958364	carne	-0.05599271
-3.958364	caro	-0.02376625
-3.958364	cartello	-0.06741581
-3.120735	casa	-0.1958826
-3.958364	casacca	-0.03574293
-3.958364	case	-0.06754174
-3.655032	caso	-0.01283741
-3.958364	casse	-0.06754174
-3.958364	cassero	-0.05942497
-3.857343	castigliano	-0.05681947
-3.857343	catalano	-0.005810101
-3.958364	catatumbo	-0.06566572
-3.958364	cattiva	-0.06484659
-3.857343	cattivi	-0.03569148
-3.958364	causato	-0.06386942
-3.072307	cavaliere	-0.1649411
-3.857343	cavalli	-0.02841911
-3.857343	cavallo	-0.03537918
-3.958364	cavata	-0.05617108
-3.958364	cavate	-0.06492467
-3.958364	caverna	-0.03574293
-3.958364	cavoli	-0.06752922
-3.958364	ce	-0.06617203
-3.958364	cena	-0.06508078
-3.857343	cenare	-0.06353757
-3.958364	cenci	-0.06749342
-3.958364	ceneranno	-0.03574293
-3.857343	cenno	-0.06485794
-3.958364	centimetri	-0.05617108
-3.958364	centinaia	-0.05617108
-3.655032	cento	-0.06671839
-3.958364	centomila	-0.06749342
-3.857343	cerca	-0.1776027
-3.857343	cercando	-0.05610915
-3.958364	cercato	-0.05617108
-3.958364	cercava	-0.05617108
-3.958364	cercavano	-0.06754174
-3.958364	cercheremo	-0.06683323
-3.958364	cerco	-0.06749342
-3.857343	cercò	-0.04859826
-3.958364	cerimonia	-0.06754174
-3.958364	certa	-0.06735898
-3.857343	certamente	-0.06046918
-3.958364	certezza	-0.05831663
-3.507761	certi	-0.1125326
-3.31043	certo	-0.03976856
-3.857343	cervello	-0.1571745
-1.675196	che	-0.125101
-3.237601	chi	-0.09923077
-3.958364	chiacchiere	-0.03574293
-3.958364	chiama	-0.06021492
-3.958364	chiamano	-0.06558777
-3.958364	chiamare	-0.06355626
-3.958364	chiamò	-0.06733818
-3.958364	chiaro	-0.06741581
-3.958364	chiave	-0.06729936
-3.958364	chiederei	-0.0664055
-3.958364	chiedergli	-0.06449506
-3.958364	chiedervi	-0.06593842
-3.958364	chiedevo	-0.06021492
-3.507761	chiese	-0.07139932
-3.958364	chiesto	-0.05599271
-3.958364	china	-0.03574293
-3.958364	chissà	-0.03574293
-3.958364	chiuderà	-0.06021492
-3.958364	chiudeva	-0.06120034
-3.958364	chiusa	-0.06120034
-3.857343	chiuse	-0.1870193
-3.958364	chiusi	-0.0605305
-2.832103	ci	-0.09488547
-3.958364	cibi	-0.06733818
-3.958364	cieco	-0.0664833
-3.958364	cima	-0.05007607
-3.958364	cinghiale	-0.03574293
-3.958364	cinquantina	-0.05617108
-3.31043	cinque	-0.06203046
-3.958364	cinquecento	-0.06733818
-3.958364	cintola	-0.0672217
-3.958364	circolo	-0.06754174
-3.958364	cittadini	-0.05942497
-3.507761	città	-0.1420959
-3.958364	ciuffo	-0.05617108
-3.237601	ciò	-0.2998164
-3.958364	clamore	-0.06752922
-3.958364	clamori	-0.06754174
-3.655032	cliente	-0.1139805
-3.958364	clienti	-0.06683323
-3.958364	coduti	-0.06754174
-3.655032	cogli	-0.1442767
-3.857343	coguari	-0.03446866
-3.507761	coi	-0.06706563
-3.31043	col	-0.1015232
-3.958364	cola	-0.0664055
-3.655032	colazione	-0.02320797
-3.958364	colera	-0.06752922
-3.857343	coliche	-0.06711348
-3.958364	coll'abbattere	-0.06120034
-3.397983	colla	-0.06676857
-3.397983	colle	-0.06633777
-3.958364	collera	-0.06508078
-3.958364	collina	-0.0320754
-3.958364	collocherai	-0.06694981
-3.958364	colonie	-0.03574293
-3.958364	coloriva	-0.06386942
-3.655032	coloro	-0.3108713
-3.31043	colpi	-0.09620261
-3.958364	colpiranno	-0.03574293
-3.857343	colpire	-0.06444691
-3.958364	colpita	-0.06492467
-3.958364	colpito	-0.06355626
-3.397983	colpo	-0.08089431
-3.958364	coltellacci	-0.03574293
-3.958364	coltelli	-0.03574293
-3.958364	coltello	-0.06484659
-3.958364	colti	-0.06729936
-3.857343	colui	-0.1281775
-3.655032	colà	-0.0567081
-2.95287	comandante	-0.03505642
-3.958364	comandato	-0.06632769
-3.958364	comanderemo	-0.06465133
-3.857343	comandi	-0.0654102
-3.655032	comando	-0.01193528
-3.958364	comandò	-0.06021492
-3.958364	combattere	-0.0605305
-3.958364	combattiamo	-0.06492467
-3.958364	combattimenti	-0.03574293
-3.958364	combattimento	-0.03574293
-2.42083	come	-0.2192783
-3.958364	comincia	-0.0605305
-3.958364	cominciando	-0.06386942
-3.958364	cominciata	-0.06449506
-3.857343	cominciavano	-0.1819621
-3.958364	comincio	-0.0605305
-3.958364	cominciò	-0.0605305
-3.958364	commesse	-0.06656109
-3.958364	commise	-0.06386942
-3.958364	commossa	-0.03574293
-3.958364	comodamente	-0.06021492
-3.31043	compagni	-0.0152188
-3.857343	compagnia	-0.06584193
-3.857343	compagno	-0.05752503
-2.919387	compare	-0.23472
-3.958364	compari	-0.03574293
-3.958364	comparsa	-0.0672217
-3.958364	comparso	-0.06386942
-3.958364	compassato	-0.06752922
-3.857343	compatrioti	-0.1571745
-3.958364	compite	-0.06120034
-3.958364	completa	-0.06754174
-3.655032	completamente	-0.03564004
-3.958364	comprendendo	-0.06729936
-3.958364	comprendere	-0.06752922
-3.958364	comprendo	-0.0661331
-3.958364	compresa	-0.06120034
-3.958364	compreso	-0.05831663
-3.958364	comuni	-0.06729936
-3.958364	comunicazioni	-0.06754174
-3.958364	comunque	-0.06726053
-2.148743	con	-0.2691742
-3.958364	concedevano	-0.06465133
-3.958364	concerteremo	-0.06733818
-3.958364	conciato	-0.06371287
-3.958364	condita	-0.06745462
-3.958364	condizioni	-0.03574293
-3.958364	condottieri	-0.06749342
-3.958364	condotto	-0.06449506
-3.958364	conduce	-0.06371287
-3.958364	conducete	-0.05754397
-3.958364	conducetelo	-0.06449506
-3.958364	conduceva	-0.06694981
-3.958364	conduco	-0.06449506
-3.958364	condurranno	-0.06749342
-3.958364	condurre	-0.06733818
-3.958364	condurremo	-0.0605305
-3.958364	condurrò	-0.06706636
-3.958364	condurvi	-0.0605305
-3.857343	condusse	-0.06271441
-3.958364	confabulando	-0.06749342
-3.958364	conferma	-0.05831663
-3.958364	confermò	-0.06021492
-3.958364	confesso	-0.05831663
-3.958364	confusamente	-0.06484659
-3.958364	confusione	-0.06386942
-3.958364	connazionali	-0.03574293
-3.958364	cono	-0.03574293
-3.857343	conosce	-0.0668924
-3.857343	conoscere	-0.05164856
-3.958364	conoscete	-0.0664055
-3.958364	conosceva	-0.06386942
-3.958364	conosciamo	-0.06386942
-3.958364	conosciuto	-0.06386942
-3.958364	conoscono	-0.06754174
-3.958364	conquistata	-0.03574293
-3.958364	conservato	-0.06386942
-3.958364	conservava	-0.06484659
-3.958364	consigliarsi	-0.03574293
-3.958364	consiglierei	-0.06609417
-3.958364	consiglio	-0.03574293
-3.958364	consumarsi	-0.06737699
-3.958364	conta	-0.06628878
-3.958364	contavo	-0.06667774
-3.31043	conte	-0.08328187
-3.958364	contengono	-0.06484659
-3.958364	contenti	-0.05617108
-3.958364	conti	-0.06492467
-3.958364	continente	-0.06355626
-3.857343	continua	-0.1424478
-3.958364	continuando	-0.0605305
-3.958364	continuato	-0.06617203
-3.958364	continuavano	-0.06617203
-3.958364	continue	-0.06752922
-3.655032	continuò	-0.02667479
-3.958364	contrabbandiere	-0.06706636
-3.237601	contro	-0.3732169
-3.958364	controbraccia	-0.06021492
-3.958364	contromastri	-0.06754174
-3.958364	contromastro	-0.06566572
-3.958364	convertire	-0.0672217
-3.958364	convinti	-0.05831663
-3.958364	conxevio	-0.03574293
-3.507761	coperta	-0.05987448
-3.958364	coperti	-0.05617108
-3.857343	coprendosi	-0.04859826
-3.958364	coprí	-0.06386942
-3.655032	coraggio	-0.02333687
-3.958364	coraggiosi	-0.06593842
-3.958364	corda	-0.06754174
-3.857343	cordialmente	-0.06023555
-3.857343	corpo	-0.03569148
-3.655032	correndo	-0.0609755
-3.958364	corrente	-0.05617108
-3.655032	correre	-0.0580793
-3.958364	correremo	-0.06371287
-3.958364	correvano	-0.06632769
-3.857343	corridoio	-0.06381161
-3.857343	corsa	-0.03467797
-3.958364	corsara	-0.06617203
-3.958364	corsare	-0.06663886
-3.655032	corsari	-0.06441566
-3.237601	corsaro	-0.009780869
-3.958364	corta	-0.06745462
-3.958364	corto	-0.05617108
-3.397983	cosa	-0.06112437
-3.857343	cose	-0.06086644
-3.507761	costa	-0.1217582
-3.958364	costarvi	-0.06749342
-3.507761	coste	-0.02055814
-3.857343	costeggiando	-0.0564308
-3.958364	costi	-0.06386942
-3.958364	costoletta	-0.06535386
-3.958364	costolette	-0.03574293
-3.857343	costoro	-0.1849878
-3.857343	costretti	-0.1361633
-3.958364	costretto	-0.0605305
-3.958364	costringendolo	-0.0605305
-3.958364	costringeranno	-0.06632769
-3.857343	costringere	-0.05916882
-3.958364	costringerli	-0.06617203
-2.626114	cosí	-0.02992853
-3.958364	covo	-0.03574293
-3.958364	cranio	-0.06547083
-3.958364	crede	-0.05831663
-3.958364	credendo	-0.05617108
-3.958364	crederanno	-0.06484659
-3.958364	credere	-0.05831663
-3.507761	credete	-0.2323315
-3.958364	credeva	-0.06741581
-3.958364	credevamo	-0.05617108
-3.958364	credevano	-0.05617108
-3.857343	credevo	-0.0570275
-3.655032	credi	-0.05575539
-3.397983	credo	-0.1605159
-3.958364	crepato	-0.06726053
-3.958364	crescente	-0.06745462
-3.958364	crescere	-0.06754174
-3.958364	cresceva	-0.05617108
-3.958364	crocetta	-0.06749342
-3.958364	crollando	-0.06021492
-3.958364	crollerà	-0.06706636
-3.958364	cruz	-0.03446866
-3.958364	cucinarsi	-0.03574293
-3.655032	cui	-0.06637792
-3.655032	cuore	-0.02146512
-3.507761	cupa	-0.03557512
-3.655032	cupo	-0.05507709
-3.958364	cure	-0.05942497
-3.958364	curiosità	-0.06617203
-3.507761	curvandosi	-0.2400767
-3.958364	curvarono	-0.06749342
-3.857343	curvato	-0.03369431
-3.958364	curvò	-0.06560814
-3.507761	d'acqua	-0.05874501
-3.958364	d'aglio	-0.06754174
-3.857343	d'altro	-0.03563949
-3.857343	d'altronde	-0.06342007
-3.958364	d'ambe	-0.06386942
-3.958364	d'ambo	-0.06386942
-3.958364	d'andarsene	-0.03574293
-3.958364	d'angoscia	-0.03574293
-3.958364	d'angosciosa	-0.06754174
-3.958364	d'anime	-0.06687209
-3.958364	d'animo	-0.05617108
-3.958364	d'appiccare	-0.06702751
-3.857343	d'archibugio	-0.1571745
-3.958364	d'arpioni	-0.06745462
-3.857343	d'arrembaggio	-0.06727781
-3.958364	d'assalto	-0.06021492
-3.958364	d'astuzia	-0.06741581
-3.958364	d'attorno	-0.06706636
-3.958364	d'aver	-0.06722999
-3.958364	d'averti	-0.06754174
-3.958364	d'essere	-0.06754174
-3.958364	d'imbarcarsi	-0.06752922
-3.958364	d'impedire	-0.06386942
-3.958364	d'impegnare	-0.06120034
-3.958364	d'impiccarlo	-0.06535386
-3.958364	d'impressionare	-0.06465133
-3.958364	d'improvviso	-0.06371287
-3.958364	d'incrociare	-0.0664055
-3.958364	d'inquietudine	-0.03574293
-3.958364	d'odio	-0.05942497
-3.958364	d'oltre	-0.06754174
-3.958364	d'ora	-0.0668924
-3.857343	d'uccelli	-0.05610915
-3.958364	d'umidità	-0.03574293
-3.175249	d'un	-0.08807813
-3.237601	d'una	-0.06716764
-3.857343	d'uno	-0.06700595
-3.958364	d'uomini	-0.03574293
-3.958364	d'uomo	-0.06617203
-3.958364	d'uopo	-0.0671052
-2.21344	da	-0.1121
-3.958364	dagli	-0.06754174
-3.120735	dai	-0.08845975
-3.028742	dal	-0.06593097
-3.958364	dall'africano	-0.06754174
-3.857343	dall'alto	-0.06232189
-3.958364	dall'altra	-0.06386942
-3.958364	dall'estremità	-0.06484659
-3.958364	dall'inseparabile	-0.06609417
-3.958364	dall'odio	-0.06752922
-3.958364	dall'olonese	-0.03574293
-2.832103	dalla	-0.1043801
-3.175249	dalle	-0.09349031
-3.958364	dallo	-0.06749342
-3.958364	dama	-0.06469039
-3.958364	dannata	-0.06726053
-3.655032	dannato	-0.06519962
-3.958364	dappertutto	-0.06706636
-3.958364	dapprima	-0.0667555
-3.958364	daranno	-0.06754174
-3.655032	dare	-0.02799431
-3.958364	darei	-0.0671052
-3.958364	daremo	-0.06754174
-3.958364	darti	-0.06729936
-3.958364	darà	-0.06547083
-3.857343	date	-0.04859826
-3.958364	datecene	-0.06754174
-3.857343	dato	-0.06479848
-3.958364	davanti	-0.06632769
-3.958364	davanzale	-0.06745462
-3.857343	de	-0.06749393
-3.958364	debbo	-0.06752922
-3.958364	debito	-0.06663886
-3.958364	decidermi	-0.0605305
-3.958364	decisero	-0.06386942
-2.919387	degli	-0.1964108
-2.312771	dei	-0.16843
-2.200937	del	-0.2189427
-3.958364	deliranti	-0.0664055
-3.958364	delitti	-0.03574293
-3.958364	dell'aguardiente	-0.03574293
-3.655032	dell'albero	-0.03441708
-3.655032	dell'ammiraglio	-0.144555
-3.958364	dell'archibugio	-0.03574293
-3.958364	dell'astro	-0.06754174
-3.958364	dell'avversario	-0.03574293
-3.958364	dell'equipaggio	-0.03574293
-3.958364	dell'indiano	-0.03574293
-3.958364	dell'indomani	-0.06418236
-3.857343	dell'isolotto	-0.0257563
-3.857343	dell'olonese	-0.05869389
-3.958364	dell'olonne	-0.06694981
-3.958364	dell'orinoco	-0.05942497
-3.958364	dell'uccisore	-0.06547083
-3.958364	dell'uragano	-0.03574293
-2.239579	della	-0.1726822
-2.642834	delle	-0.08424827
-3.958364	dello	-0.06754174
-3.958364	denti	-0.06754174
-3.958364	deponendo	-0.06386942
-3.958364	depongono	-0.0665222
-3.958364	deporre	-0.06120034
-3.857343	deridere	-0.1860829
-3.958364	desidera	-0.06741581
-3.857343	desiderio	-0.05471573
-3.958364	destinati	-0.0605305
-3.857343	destino	-0.0337782
-3.857343	destra	-0.06416369
-3.958364	detonazione	-0.06011715
-3.507761	detto	-0.155361
-3.958364	dev'essere	-0.06484659
-3.958364	devastate	-0.0672217
-3.958364	deve	-0.06752922
-3.958364	devo	-0.06752922
-3.857343	devono	-0.06717385
-1.585873	di	-0.1131812
-3.655032	diavolo	-0.0232191
-3.958364	dice	-0.05831663
-3.028742	dicendo	-0.500636
-3.655032	dicendogli	-0.1094856
-3.857343	diceva	-0.03279056
-3.958364	diciotto	-0.06741581
-3.857343	dico	-0.04664839
-3.237601	dieci	-0.03370517
-3.958364	diede	-0.06679437
-3.958364	diego	-0.06752922
-3.958364	dieppe	-0.03574293
-3.072307	dietro	-0.1207034
-3.958364	difenderci	-0.05942497
-3.958364	difenderli	-0.03421736
-3.857343	difendersi	-0.03567801
-3.958364	difendevano	-0.06449506
-3.958364	difendiamo	-0.06386942
-3.958364	difendono	-0.06355626
-3.507761	difensori	-0.115754
-3.958364	difesa	-0.03574293
-3.958364	difese	-0.06492467
-3.958364	difficile	-0.06492467
-3.958364	dileguata	-0.03574293
-3.958364	dimenano	-0.06593842
-3.958364	dimenticare	-0.05831663
-3.507761	dimenticato	-0.01999573
-3.958364	dimenticavo	-0.05831663
-3.120735	dinanzi	-0.3736467
-3.857343	dio	-0.06630912
-3.958364	dipingevano	-0.06593842
-3.958364	dirai	-0.06547083
-3.958364	dire	-0.03574293
-3.958364	direbbe	-0.05831663
-3.958364	diresse	-0.0605305
-3.958364	diretto	-0.06659998
-3.958364	direzione	-0.06754174
-3.958364	diriga	-0.06492467
-3.958364	dirigendosi	-0.06659998
-3.958364	dirigeranno	-0.06729936
-3.857343	dirigersi	-0.1880316
-3.958364	diritti	-0.05942497
-3.958364	diritto	-0.05617108
-3.958364	dirlo	-0.03574293
-3.958364	dirmi	-0.0605305
-3.958364	dirti	-0.05831663
-3.857343	dirvelo	-0.03417546
-3.958364	disarmarvi	-0.05942497
-3.958364	discesa	-0.06718287
-3.958364	disfatti	-0.06754174
-3.958364	disgrazia	-0.05831663
-3.958364	disgraziatamente	-0.06754174
-3.958364	disgraziato	-0.05831663
-3.958364	disobbediscono	-0.06683323
-3.857343	dispensa	-0.03279056
-3.857343	disperata	-0.06334172
-3.857343	disperatamente	-0.1571745
-3.655032	disperato	-0.2882976
-3.958364	dispetto	-0.06508078
-3.958364	dispiace	-0.06469039
-3.857343	disposizione	-0.02886372
-3.958364	disprezzo	-0.06754174
-3.958364	diss'egli	-0.06752922
-3.958364	diss'ella	-0.06386942
-3.958364	dissanguano	-0.03574293
-3.958364	dissanguato	-0.06492467
-2.176962	disse	-0.496033
-3.958364	dissetarsi	-0.06371287
-3.958364	dissi	-0.05942497
-3.507761	distanza	-0.05240961
-3.958364	distanze	-0.03574293
-3.958364	distavano	-0.05831663
-3.958364	distesi	-0.06683323
-3.857343	distinguere	-0.06720015
-3.958364	distingueva	-0.06752922
-3.958364	distintamente	-0.06465133
-3.958364	distrazioni	-0.06752922
-3.958364	distribuito	-0.06449506
-3.958364	distruggerò	-0.06120034
-3.958364	distrutta	-0.06120034
-3.958364	ditemi	-0.06021492
-3.958364	divenisse	-0.06752922
-3.958364	divenne	-0.06741581
-3.507761	diventare	-0.05977327
-3.958364	diventata	-0.06749342
-3.655032	diventato	-0.06409916
-3.857343	diventava	-0.06635757
-3.958364	diverranno	-0.06547083
-3.958364	diverremo	-0.06702751
-3.958364	diverrà	-0.06386942
-3.958364	dividiamoci	-0.05942497
-3.958364	divise	-0.06371287
-3.958364	divisioni	-0.06547083
-3.958364	divora	-0.06745462
-3.958364	divorare	-0.06671662
-3.958364	divorassero	-0.06371287
-3.958364	dobbiamo	-0.06752922
-3.958364	dodici	-0.06752922
-3.958364	dolce	-0.05831663
-3.958364	dolcemente	-0.06749342
-3.857343	dolci	-0.05335481
-3.857343	dolore	-0.03463612
-3.958364	dolori	-0.06554879
-3.958364	domando	-0.06729936
-3.31043	domani	-0.05632041
-3.958364	domestico	-0.03574293
-3.958364	don	-0.06754174
-3.958364	donata	-0.06120034
-3.397983	donna	-0.005616885
-3.857343	donne	-0.03569148
-3.028742	dopo	-0.07416017
-3.958364	dormire	-0.03574293
-3.958364	dormiva	-0.06656109
-3.958364	dorso	-0.03574293
-3.175249	dove	-0.05067641
-3.958364	dovendo	-0.06754174
-3.958364	dovere	-0.06754174
-3.958364	dovessi	-0.06609417
-3.958364	dovete	-0.06752922
-3.507761	doveva	-0.1231649
-3.507761	dovevano	-0.0665413
-3.958364	dovrò	-0.06752922
-3.958364	dovuto	-0.06752922
-3.958364	drappelli	-0.05617108
-3.857343	drappello	-0.05397668
-3.958364	dubitare	-0.05617108
-3.857343	dubito	-0.05809948
-3.958364	duca	-0.06700595
-3.397983	duchessa	-0.03954042
-2.697244	due	-0.08662753
-3.958364	duecentocinquanta	-0.0671052
-3.958364	duellanti	-0.03574293
-3.958364	duello	-0.06659998
-3.507761	dunque	-0.05335354
-3.857343	dura	-0.06294976
-3.507761	durante	-0.107167
-3.958364	durare	-0.0605305
-3.958364	durò	-0.06737699
-3.958364	dà	-0.06120034
-3.958364	dí	-0.0664055
-1.729927	e	-0.08699521
-3.857343	ebbe	-0.06267518
-3.958364	ebbene	-0.0667555
-3.958364	eccessivamente	-0.06754174
-3.857343	ecco	-0.05515694
-3.958364	eccoci	-0.06371287
-3.958364	eccone	-0.06386942
-3.958364	echeggiando	-0.06706636
-3.857343	echeggiare	-0.05627155
-3.958364	echeggiarono	-0.06694981
-3.958364	echeggiavano	-0.06547083
-3.507761	echeggiò	-0.1871177
-3.958364	economici	-0.03574293
-3.958364	economizzando	-0.06386942
-2.28949	ed	-0.3291077
-3.958364	effetto	-0.0672217
-3.31043	egli	-0.05723398
-3.857343	eguale	-0.03569148
-3.958364	eguali	-0.06754174
-3.958364	ehi	-0.06474081
-3.857343	ella	-0.06185038
-3.958364	emozione	-0.03574293
-3.958364	energico	-0.06593842
-3.857343	enorme	-0.05686846
-3.958364	entrambi	-0.06349537
-3.507761	entrare	-0.1185922
-3.958364	entrarono	-0.06749342
-3.958364	entrerò	-0.0667555
-3.958364	entriamo	-0.06683323
-3.857343	entro	-0.1816465
-3.857343	eppure	-0.03140123
-3.958364	equipaggi	-0.06659998
-3.857343	equipaggio	-0.06412458
-2.486964	era	-0.1012371
-3.31043	erano	-0.059442
-3.958364	erasi	-0.06733818
-3.958364	eravamo	-0.06754174
-3.958364	eravate	-0.06745462
-3.857343	erbe	-0.05826779
-3.958364	ereditato	-0.06492467
-3.958364	eretta	-0.06659998
-3.958364	ero	-0.06737699
-3.958364	esalazioni	-0.06749342
-3.958364	esalò	-0.06754174
-3.958364	esaurito	-0.06754174
-3.958364	esausti	-0.05617108
-3.958364	esclamarono	-0.06021492
-3.958364	esclamazione	-0.05617108
-3.857343	esclamò	-0.1138516
-3.958364	esecuzione	-0.05249295
-3.958364	eseguita	-0.0667555
-3.958364	esiste	-0.06659998
-3.958364	esitare	-0.03574293
-3.958364	esitazione	-0.06521823
-3.857343	esito	-0.0650327
-3.958364	esitò	-0.06547083
-3.958364	esporsi	-0.0664055
-3.958364	esporvi	-0.0605305
-3.958364	esposto	-0.06659998
-3.958364	espugnare	-0.06726053
-3.958364	espugnata	-0.06120034
-3.958364	espugnati	-0.06465133
-3.857343	essendo	-0.06749393
-3.958364	essendovi	-0.05617108
-3.958364	esserci	-0.06737699
-3.072307	essere	-0.1027252
-3.857343	esservi	-0.056122
-3.655032	essi	-0.0673978
-3.958364	estratti	-0.06683323
-3.857343	estremità	-0.05359528
-3.958364	estremo	-0.06741581
-3.958364	eterno	-0.03574293
-3.857343	evitare	-0.05411585
-3.655032	fa	-0.06700774
-3.507761	faccia	-0.05460745
-3.958364	facciamo	-0.06752922
-3.958364	faccio	-0.06120034
-3.31043	facendo	-0.1684487
-3.958364	facessero	-0.06683323
-3.958364	facessi	-0.06386942
-3.857343	faceva	-0.05551428
-3.857343	facile	-0.06478891
-3.958364	fallirai	-0.06714404
-3.958364	fallire	-0.06733818
-3.958364	falò	-0.0672217
-3.507761	fama	-0.07987577
-3.958364	fame	-0.06754174
-3.958364	famiglia	-0.0665222
-3.958364	famosi	-0.05942497
-3.958364	famoso	-0.05617108
-3.958364	fanali	-0.05617108
-3.857343	fanciulla	-0.0573454
-3.958364	fango	-0.06754174
-3.397983	fanno	-0.1086335
-3.958364	fantastiche	-0.03574293
-3.958364	fantastico	-0.06754174
-3.31043	far	-0.07646357
-3.958364	farai	-0.06754174
-3.655032	faranno	-0.06505311
-3.958364	farci	-0.06749342
-3.028742	fare	-0.03325292
-3.958364	farei	-0.06752922
-3.507761	faremo	-0.06622103
-3.958364	fareste	-0.06718287
-3.655032	farmi	-0.06744612
-3.857343	farne	-0.06039336
-3.857343	farsi	-0.03547242
-3.857343	farvi	-0.0637538
-3.655032	farà	-0.06738578
-3.857343	farò	-0.06744561
-3.958364	fasci	-0.05617108
-3.958364	fascino	-0.06754174
-3.958364	fastidi	-0.06469039
-3.31043	fatale	-0.04328706
-3.507761	fate	-0.06718215
-3.958364	fatica	-0.05942497
-3.857343	fatiche	-0.06682421
-3.857343	fatta	-0.067242
-3.958364	fatte	-0.06754174
-3.958364	fatti	-0.06745462
-3.028742	fatto	-0.06255669
-3.958364	fazzoletto	-0.05617108
-3.958364	febbre	-0.06752922
-3.958364	febbri	-0.05831663
-3.175249	fece	-0.08718354
-3.857343	fede	-0.05583329
-3.857343	felice	-0.05610915
-3.958364	felicemente	-0.06120034
-3.958364	felici	-0.06465133
-3.958364	feltro	-0.06749342
-3.958364	femmine	-0.06754174
-3.958364	ferita	-0.06484659
-3.958364	ferite	-0.0257563
-3.857343	feriti	-0.0257563
-3.958364	ferito	-0.0605305
-3.958364	fermandosi	-0.06749342
-3.958364	fermatevi	-0.06754174
-3.958364	fermerà	-0.06741581
-3.958364	fermo	-0.06593842
-3.958364	fermò	-0.06718287
-3.857343	feroce	-0.03413356
-3.958364	ferraiuolo	-0.06749342
-3.857343	ferri	-0.1571745
-3.958364	ferro	-0.06418236
-3.958364	ferveva	-0.0664055
-3.958364	fetonti	-0.05831663
-3.958364	fiamma	-0.06558777
-3.958364	fiamme	-0.03574293
-3.655032	fiamminga	-0.05135374
-3.958364	fiamminghe	-0.06752922
-3.958364	fiammingo	-0.06554879
-3.958364	fianco	-0.06547083
-3.958364	fiandra	-0.06617203
-3.958364	fiaschetta	-0.06752922
-3.958364	fiaschette	-0.06547083
-3.958364	fidanzato	-0.06733818
-3.958364	fidi	-0.0605305
-3.958364	fiducia	-0.06687209
-3.958364	fiera	-0.06754174
-3.857343	fiere	-0.03567801
-3.958364	fierezza	-0.03574293
-3.958364	fieri	-0.06754174
-3.958364	fiero	-0.06720316
-3.958364	figlia	-0.05335481
-3.958364	figlio	-0.06484659
-3.857343	figura	-0.0650327
-3.958364	file	-0.03574293
-3.958364	fili	-0.06741581
-3.857343	filibusteria	-0.02695082
-3.857343	filibustiera	-0.1571745
-3.507761	filibustiere	-0.06709557
-3.072307	filibustieri	-0.1099519
-3.958364	filo	-0.05617108
-3.958364	filosofia	-0.06754174
-3.958364	fin	-0.06752922
-3.958364	finché	-0.06754174
-3.857343	fine	-0.06749393
-3.655032	finestra	-0.1040244
-3.958364	finiranno	-0.06754174
-3.958364	finire	-0.06465133
-3.958364	finisca	-0.06741581
-3.857343	finita	-0.1335442
-3.958364	finiva	-0.05617108
-3.31043	fino	-0.09677808
-3.958364	fioca	-0.06593842
-3.958364	fioche	-0.03574293
-3.958364	fiori	-0.05942497
-3.958364	fischietto	-0.06484659
-3.958364	fissato	-0.06021492
-3.958364	fissi	-0.06667774
-3.655032	fisso	-0.02372333
-3.857343	fitta	-0.06725151
-3.857343	fitti	-0.06748141
-3.857343	fitto	-0.0650327
-3.857343	flauto	-0.056122
-3.958364	flebili	-0.06754174
-3.857343	flotta	-0.05610915
-3.958364	flutti	-0.06752922
-3.958364	foca	-0.03574293
-3.958364	foce	-0.06484659
-3.857343	fogliame	-0.1571745
-3.655032	foglie	-0.03068571
-3.397983	folgore	-0.09275888
-3.958364	folte	-0.06752922
-3.958364	foltissime	-0.05831663
-3.958364	foltissimo	-0.05942497
-3.857343	folto	-0.06502011
-3.857343	fondo	-0.03446866
-3.958364	forano	-0.03574293
-3.655032	forca	-0.03552311
-3.175249	foresta	-0.1317633
-3.857343	foreste	-0.05999872
-3.958364	forma	-0.06748141
-3.958364	formando	-0.06659998
-3.655032	formato	-0.06348933
-3.958364	formava	-0.06484659
-3.958364	forme	-0.06754174
-3.958364	formiche	-0.06754174
-3.397983	formidabile	-0.06648435
-3.958364	formidabili	-0.06558777
-3.958364	forniti	-0.06465133
-3.958364	fors'anche	-0.05617108
-2.859294	forse	-0.02028443
-3.397983	forte	-0.09052667
-3.397983	forti	-0.05846577
-3.507761	fortuna	-0.05046916
-3.958364	fortunatamente	-0.0662702
-3.958364	fortunato	-0.03574293
-3.655032	forza	-0.112765
-3.958364	forzato	-0.03574293
-3.655032	forze	-0.2882976
-3.655032	fosforescente	-0.1107459
-3.397983	fosse	-0.08252648
-3.857343	fossero	-0.06721269
-3.857343	fossi	-0.06623129
-2.642834	fra	-0.1725748
-3.958364	fracassano	-0.06021492
-3.958364	fracassarci	-0.06386942
-3.958364	fracassarle	-0.06120034
-3.958364	fracasso	-0.06754174
-3.857343	fragori	-0.03467797
-3.958364	fragorosamente	-0.06667774
-3.958364	francese	-0.05617108
-3.958364	frapporre	-0.06484659
-3.857343	frase	-0.03569148
-3.397983	fratelli	-0.09285165
-3.397983	fratello	-0.038291
-3.655032	frecce	-0.03398784
-3.958364	freccia	-0.06604619
-3.507761	freddo	-0.07628353
-3.958364	fremere	-0.06745462
-3.958364	fremito	-0.05442661
-3.958364	frenava	-0.0605305
-3.958364	freno	-0.03574293
-3.958364	fresche	-0.06749342
-3.507761	fretta	-0.1448749
-3.397983	fronte	-0.016446
-3.958364	frugare	-0.06386942
-3.958364	frugata	-0.06745462
-3.958364	frutta	-0.06754174
-3.028742	fu	-0.0961663
-3.958364	fucilano	-0.06726053
-3.958364	fucilare	-0.03574293
-3.507761	fucile	-0.03265661
-3.958364	fucilerà	-0.06609417
-3.507761	fucili	-0.06423456
-3.958364	fuga	-0.03574293
-3.958364	fugga	-0.06729936
-3.958364	fugge	-0.03574293
-3.958364	fuggendo	-0.05942497
-3.958364	fuggiamo	-0.06754174
-3.507761	fuggiaschi	-0.1222146
-3.958364	fuggiranno	-0.03574293
-3.31043	fuggire	-0.06690304
-3.958364	fuggiva	-0.0605305
-3.958364	fuggí	-0.0605305
-3.958364	fulmine	-0.06745462
-3.958364	fulminino	-0.06449506
-3.857343	fumo	-0.04997414
-3.958364	fune	-0.06663886
-3.958364	fuochi	-0.05617108
-3.120735	fuoco	-0.08287532
-3.857343	fuori	-0.05335481
-3.958364	furbo	-0.06737699
-3.958364	furfante	-0.05610915
-3.857343	furia	-0.110662
-3.958364	furibondi	-0.03574293
-3.655032	furiosamente	-0.06068695
-3.958364	furioso	-0.06752922
-3.507761	furono	-0.0673983
-3.397983	furore	-0.03145104
-3.958364	gabbia	-0.06754174
-3.958364	gagliardi	-0.05617108
-3.958364	galantemente	-0.06021492
-3.958364	gamba	-0.06749342
-3.857343	gambe	-0.03561309
-3.958364	gatti	-0.06386942
-3.958364	gatto	-0.03574293
-3.958364	gemiti	-0.06754174
-3.958364	gemito	-0.03574293
-3.958364	generosità	-0.05617108
-3.958364	generoso	-0.06492467
-3.958364	gente	-0.05831663
-3.958364	gentilezza	-0.06484659
-3.958364	gentiluomini	-0.06418236
-3.655032	gentiluomo	-0.03316737
-3.958364	gesto	-0.06120034
-3.958364	getta	-0.06659998
-3.958364	gettami	-0.06120034
-3.958364	gettando	-0.06754174
-3.958364	gettarci	-0.06683323
-3.958364	gettate	-0.06386942
-3.958364	gettati	-0.0605305
-3.958364	gettato	-0.0605305
-3.958364	getterò	-0.06749342
-3.958364	giacca	-0.06535386
-3.655032	giacché	-0.05353609
-3.958364	giacevano	-0.0672217
-3.857343	giaguari	-0.06267518
-3.655032	giaguaro	-0.06594975
-3.958364	giardino	-0.06593842
-3.175249	gibraltar	-0.08119576
-3.958364	gigante	-0.05831663
-3.958364	gigantesche	-0.03574293
-3.958364	giganti	-0.03574293
-3.958364	giocato	-0.06726053
-3.958364	giocherellando	-0.06659998
-3.958364	gioco	-0.06706636
-3.958364	gioia	-0.03264438
-3.958364	giornata	-0.06706636
-3.237601	giorni	-0.02955803
-3.31043	giorno	-0.05301103
-3.655032	giovane	-0.04592711
-3.958364	girarlo	-0.05942497
-3.958364	giudice	-0.05617108
-3.857343	giungano	-0.06634803
-3.958364	giungeranno	-0.0605305
-3.655032	giungere	-0.06047584
-3.958364	giungeremo	-0.06371287
-3.958364	giungerà	-0.06752922
-3.958364	giungerò	-0.06733818
-3.655032	giunse	-0.06352849
-3.958364	giunsero	-0.06741581
-3.857343	giunta	-0.05912927
-3.958364	giunte	-0.0605305
-3.857343	giunti	-0.063652
-3.507761	giunto	-0.05607422
-3.958364	giuocare	-0.05617108
-3.857343	giuramento	-0.0656177
-3.958364	giurato	-0.0560724
-3.958364	giuro	-0.06609417
-2.832103	già	-0.04507338
-3.655032	giú	-0.05577441
-3.857343	gl'interruppe	-0.1826319
-2.337371	gli	-0.2544984
-3.857343	gliela	-0.06749393
-3.958364	glielo	-0.06752922
-3.958364	gocce	-0.05617108
-3.857343	goccia	-0.02344327
-3.958364	goda	-0.06745462
-3.958364	goffo	-0.06752922
-3.958364	gola	-0.03367237
-3.655032	golfo	-0.07116448
-3.958364	gote	-0.06617203
-3.237601	governatore	-0.02375122
-3.958364	gradirete	-0.06484659
-3.958364	graffiatura	-0.03574293
-3.655032	gran	-0.1236701
-3.958364	granada	-0.03534708
-3.958364	grand	-0.06386942
-3.958364	grand'albero	-0.03574293
-3.31043	grande	-0.06681272
-3.958364	grandi	-0.06754174
-3.958364	grandine	-0.05617108
-3.958364	grave	-0.03574293
-3.655032	gravi	-0.06459414
-3.958364	grazia	-0.0672217
-3.958364	grazie	-0.06435917
-3.958364	grazioso	-0.06752922
-3.857343	grida	-0.02814206
-3.857343	gridando	-0.02814206
-3.958364	gridarono	-0.06465133
-3.958364	gridato	-0.02440951
-3.397983	grido	-0.1144226
-3.397983	gridò	-0.1035259
-3.958364	grilletto	-0.06547083
-3.958364	grondava	-0.06617203
-3.857343	grosse	-0.06736798
-3.857343	grossi	-0.06746888
-3.857343	grosso	-0.06372426
-3.958364	grottescamente	-0.06726053
-3.958364	gruppetti	-0.06754174
-3.958364	guadagnare	-0.06484659
-3.958364	guadagnato	-0.06021492
-3.958364	guance	-0.03574293
-3.958364	guarda	-0.06353757
-3.397983	guardando	-0.1029245
-3.958364	guardandolo	-0.06749342
-3.958364	guardano	-0.06659998
-3.958364	guardare	-0.06558777
-3.655032	guardate	-0.06576329
-3.655032	guardava	-0.05968457
-3.958364	guardi	-0.06718287
-3.655032	guardia	-0.0530969
-3.507761	guardò	-0.02738902
-3.958364	guarire	-0.03574293
-3.958364	guariscono	-0.06386942
-3.958364	guastato	-0.06733818
-3.958364	guasti	-0.06754174
-3.507761	guerra	-0.02383159
-3.958364	guida	-0.05942497
-3.958364	guidata	-0.06718287
-3.958364	guidati	-0.06492467
-3.958364	guidava	-0.06449506
-3.958364	guido	-0.03574293
-3.958364	guld	0.01716845
-3.655032	gule	-0.1205913
-3.958364	gusci	-0.05617108
-2.697244	ha	-0.07712428
-3.507761	hai	-0.1045955
-3.857343	haiti	-0.03569148
-2.95287	hanno	-0.05873129
-3.175249	ho	-0.09228779
-3.958364	honorata	-0.06754174
-2.17117	i	-0.2251909
-3.958364	idea	-0.06566572
-3.857343	ieri	-0.03563949
-3.958364	ignorate	-0.06698866
-3.958364	ignoravamo	-0.06449506
-1.773727	il	-0.3226527
-3.958364	illuminata	-0.03574293
-3.958364	illuminava	-0.06465133
-3.958364	imbarazzato	-0.06706636
-3.958364	imbarcando	-0.06745462
-3.958364	imbarcarci	-0.03574293
-3.958364	imbarcare	-0.06021492
-3.958364	imbarcazioni	-0.06617203
-3.958364	imboccato	-0.06021492
-3.857343	imboscata	-0.1571745
-3.958364	imboscati	-0.06535386
-3.958364	imbroglia	-0.06120034
-3.958364	immensa	-0.06754174
-3.857343	immenso	-0.06603666
-3.958364	immerse	-0.06120034
-3.655032	immerso	-0.06343752
-3.958364	immischiarsene	-0.03574293
-3.655032	immobile	-0.05649143
-3.958364	immobili	-0.06754174
-3.958364	immobilità	-0.06754174
-3.958364	impallidí	-0.06754174
-3.857343	impalmare	-0.1826319
-3.958364	imparentarsi	-0.05831663
-3.958364	imparentata	-0.05617108
-3.958364	impassibile	-0.06508078
-3.958364	impaziente	-0.05617108
-3.958364	impedendogli	-0.05617108
-3.857343	impedire	-0.06654253
-3.958364	impedirgli	-0.05617108
-3.958364	impediscano	-0.03574293
-3.958364	impegnare	-0.06484659
-3.857343	impegnata	-0.06479848
-3.958364	impegnato	-0.06659998
-3.958364	imperiosa	-0.06754174
-3.958364	imperlarono	-0.06120034
-3.958364	imperversano	-0.06729936
-3.655032	impeto	-0.05518578
-3.857343	implacabile	-0.1571745
-3.958364	importunarci	-0.06566572
-3.507761	impossibile	-0.1909433
-3.958364	imposte	-0.05942497
-3.958364	impraticabile	-0.06737699
-3.958364	impressionato	-0.03574293
-3.958364	imprigionare	-0.05942497
-3.958364	improvvisa	-0.06754174
-3.655032	improvvisamente	-0.06613539
-3.958364	improvvisata	-0.03574293
-3.655032	improvviso	-0.03562657
-3.857343	impugnando	-0.0584166
-2.051262	in	-0.1915533
-3.958364	inaspettata	-0.03574293
-3.958364	incalzando	-0.06694981
-3.958364	incalzandolo	-0.06449506
-3.958364	incanta	-0.03574293
-3.958364	incapace	-0.06754174
-3.958364	incaricati	-0.05617108
-3.958364	incendiate	-0.06386942
-3.958364	inchinandosi	-0.06754174
-3.857343	inchino	-0.03534708
-3.958364	inchiodati	-0.06749342
-3.958364	incolparmi	-0.03574293
-3.958364	incontrare	-0.06465133
-3.958364	incontrati	-0.06371287
-3.958364	incontrato	-0.03574293
-3.958364	incontreremo	-0.0605305
-3.958364	incontri	-0.05942497
-3.958364	incontrino	-0.06706636
-3.655032	incontro	-0.0655116
-3.958364	incredibile	-0.06745462
-3.958364	incrociante	-0.06694981
-3.857343	indiani	-0.06725344
-3.655032	indiano	-0.02445237
-3.857343	indica	-0.05826779
-3.857343	indicando	-0.06255744
-3.958364	indicata	-0.03574293
-3.958364	indicavano	-0.06386942
-3.958364	indietreggeremo	-0.06754174
-3.958364	indietreggiavano	-0.06754174
-3.31043	indietro	-0.2472585
-3.958364	indifesa	-0.03574293
-3.958364	indirizzo	-0.06754174
-3.958364	indossa	-0.06386942
-3.857343	indosso	-0.05647061
-3.958364	indovinare	-0.06021492
-3.958364	indugiare	-0.03574293
-3.958364	indugiato	-0.06617203
-3.857343	inerme	-0.0579805
-3.857343	infame	-0.03567801
-3.958364	infatti	-0.06021492
-3.958364	inferiore	-0.03574293
-3.655032	infernale	-0.1119189
-3.958364	infinite	-0.06752922
-3.958364	infitte	-0.03574293
-3.958364	informazioni	-0.06754174
-3.958364	infuria	-0.06469039
-3.958364	ingannare	-0.06120034
-3.958364	inganno	-0.03574293
-3.958364	inghiottito	-0.03574293
-3.958364	inginocchiati	-0.06659998
-3.958364	ingombrano	-0.06120034
-3.958364	ingombravano	-0.06754174
-3.072307	innanzi	-0.09113661
-3.958364	inoltrarmi	-0.06593842
-3.958364	inquietatevi	-0.06386942
-3.958364	inquietava	-0.06021492
-3.958364	inquieto	-0.06659998
-3.958364	inquilini	-0.03574293
-3.958364	inseguimento	-0.03574293
-3.958364	inseguiremo	-0.06752922
-3.958364	inseguirlo	-0.06754174
-3.655032	inseguiti	-0.1122953
-3.958364	insetti	-0.03574293
-3.958364	insieme	-0.06683323
-3.958364	insignificanti	-0.03574293
-3.958364	insistiate	-0.06386942
-3.397983	intanto	-0.08573103
-3.655032	intenzione	-0.1331955
-3.958364	intera	-0.06752922
-3.958364	internet	-0.03574293
-3.958364	interrogare	-0.06021492
-3.958364	intervento	-0.06752922
-3.958364	intestini	-0.03574293
-3.958364	intimazione	-0.05617108
-3.857343	intorno	-0.06623129
-3.857343	intraprendere	-0.1883037
-3.958364	intrepidi	-0.03574293
-3.655032	inutile	-0.08183667
-3.958364	invadere	-0.06492467
-3.958364	invasa	-0.06492467
-3.958364	invaso	-0.06418236
-2.888302	invece	-0.0643668
-3.958364	investita	-0.03574293
-3.958364	invettive	-0.03574293
-3.958364	invitati	-0.03574293
-3.958364	invitò	-0.06449506
-3.958364	involontariamente	-0.06386942
-2.610014	io	-0.1310431
-3.958364	ironicamente	-0.03574293
-3.958364	irrefrenabile	-0.06754174
-3.958364	irresistibile	-0.03574293
-3.958364	irrompono	-0.06733818
-3.958364	isolata	-0.03574293
-3.958364	ispezionò	-0.0672217
-3.958364	issare	-0.06465133
-3.958364	issò	-0.06683323
-3.507761	istante	-0.03462578
-3.958364	istanti	-0.02230716
-3.958364	istinto	-0.05831663
-3.857343	jacaré	-0.06455456
-3.958364	juan	-0.06754174
-3.958364	l'abito	-0.05831663
-3.958364	l'abitudine	-0.05617108
-3.958364	l'accampamento	-0.06547083
-3.655032	l'acqua	-0.06645572
-3.958364	l'affare	-0.06729936
-3.958364	l'affido	-0.06749342
-3.397983	l'africano	-0.1661475
-3.655032	l'alba	-0.05852627
-3.958364	l'allarme	-0.06754174
-3.958364	l'altra	-0.06683323
-3.31043	l'altro	-0.02387176
-3.958364	l'amare	-0.06484659
-3.507761	l'amburghese	-0.07022254
-3.857343	l'amico	-0.06342007
-3.958364	l'ammiraglio	-0.03574293
-3.958364	l'ancoraggio	-0.03574293
-3.655032	l'angolo	-0.1420937
-3.958364	l'anima	-0.05617108
-3.958364	l'animale	-0.06748141
-3.857343	l'archibugio	-0.06385075
-3.958364	l'aria	-0.06752922
-3.958364	l'arma	-0.05942497
-3.958364	l'assalto	-0.06547083
-3.857343	l'assassino	-0.1869024
-3.958364	l'assedio	-0.0672217
-3.958364	l'attacco	-0.06508078
-3.958364	l'attitudine	-0.06754174
-3.958364	l'audace	-0.05831663
-3.958364	l'avesse	-0.06754174
-3.857343	l'aveva	-0.06749393
-3.958364	l'avrebbero	-0.0605305
-3.958364	l'avrete	-0.0605305
-3.857343	l'avventuriero	-0.03202353
-3.958364	l'eco	-0.06418236
-3.958364	l'egual	-0.06752922
-3.958364	l'equipaggio	-0.06160532
-3.958364	l'esplosione	-0.06671662
-3.958364	l'estremità	-0.06484659
-3.958364	l'hai	-0.06714404
-3.397983	l'ho	-0.09811381
-3.857343	l'idea	-0.06279287
-3.958364	l'imbarcazione	-0.06617203
-3.958364	l'impresa	-0.03574293
-3.958364	l'incarico	-0.05617108
-3.958364	l'indiano	-0.03574293
-3.958364	l'indomani	-0.03574293
-3.958364	l'intera	-0.06754174
-3.958364	l'invidiabile	-0.06745462
-3.958364	l'isola	-0.03574293
-3.958364	l'istante	-0.06386942
-3.857343	l'occasione	-0.056122
-3.958364	l'oceano	-0.06749342
-3.958364	l'odio	-0.06752922
-3.958364	l'odore	-0.05575356
-3.237601	l'olonese	-0.029542
-3.958364	l'opposta	-0.06752922
-3.958364	l'ordine	-0.06752922
-3.958364	l'uccisore	-0.06547083
-3.958364	l'ultima	-0.06741581
-3.958364	l'ultimo	-0.06752922
-3.655032	l'una	-0.05490624
-3.958364	l'uno	-0.06687209
-3.507761	l'uomo	-0.05596446
-3.958364	l'uragano	-0.05617108
-1.835528	la	-0.2694662
-3.857343	labbra	-0.1344984
-3.958364	laccio	-0.06754174
-3.958364	ladrone	-0.06593842
-3.958364	ladroni	-0.05617108
-3.655032	laggiú	-0.02599218
-3.958364	laghetto	-0.03574293
-3.507761	lago	-0.07952147
-3.958364	laguna	-0.03574293
-3.857343	lama	-0.056122
-3.958364	lamantini	-0.06752922
-3.958364	lamenti	-0.03574293
-3.958364	lampi	-0.06754174
-3.655032	lampo	-0.06544369
-3.958364	lanciando	-0.06687209
-3.958364	lanciandosi	-0.06659998
-3.958364	lanciarsi	-0.06593842
-3.958364	lanciata	-0.06694981
-3.958364	lanciato	-0.06021492
-3.958364	lanciò	-0.06733818
-3.857343	largo	-0.05777656
-3.958364	lasceranno	-0.06737699
-3.958364	lasceremo	-0.06021492
-3.958364	lascerete	-0.06754174
-3.958364	lascerà	-0.06741581
-3.958364	lasci	-0.06745462
-3.958364	lascia	-0.06718287
-3.958364	lasciamo	-0.06465133
-3.958364	lasciando	-0.06609417
-3.958364	lasciandolo	-0.06754174
-3.958364	lasciandosi	-0.06749342
-3.857343	lasciano	-0.06451549
-3.958364	lasciarci	-0.06741581
-3.397983	lasciare	-0.04369944
-3.958364	lasciarla	-0.06752922
-3.958364	lasciarono	-0.06754174
-3.857343	lasciarvi	-0.03563949
-3.958364	lasciassi	-0.06752922
-3.857343	lasciate	-0.06449382
-3.958364	lasciatevi	-0.06749342
-3.958364	lasciati	-0.06741581
-3.655032	lasciato	-0.0600922
-3.958364	lascieremo	-0.06386942
-3.958364	lascio	-0.06120034
-3.857343	lasciò	-0.06016629
-3.857343	lassú	-0.06381161
-3.958364	latte	-0.03574293
-3.958364	lattiginosa	-0.06754174
-3.958364	lazo	-0.03574293
-2.069086	le	-0.1709126
-3.958364	legando	-0.06754174
-3.958364	legare	-0.06386942
-3.958364	legate	-0.03574293
-3.857343	legato	-0.03446866
-3.958364	leggera	-0.06593842
-3.857343	leggermente	-0.06748141
-3.857343	leggi	-0.05570444
-3.958364	legheremo	-0.06593842
-3.958364	legherò	-0.06656109
-3.958364	legna	-0.05531478
-3.958364	legnate	-0.0257563
-3.857343	legni	-0.0674068
-3.655032	legno	-0.04605858
-3.958364	lei	-0.03574293
-3.958364	lentamente	-0.05617108
-3.958364	leone	-0.06558777
-3.857343	leoni	-0.05905014
-3.958364	lerma	-0.0341006
-3.958364	lesto	-0.0605305
-3.958364	levandosi	-0.06021492
-3.958364	levarci	-0.06754174
-3.958364	levati	-0.06371287
-3.958364	levato	-0.03574293
-3.958364	levava	-0.06754174
-3.120735	li	-0.06574024
-3.958364	liane	-0.03574293
-3.958364	libbre	-0.06683323
-3.958364	libera	-0.03574293
-3.958364	liberi	-0.05942497
-3.857343	libero	-0.04664839
-3.857343	libertà	-0.03513809
-3.958364	licenza	-0.03574293
-3.958364	lieto	-0.05617108
-3.958364	lieve	-0.06752922
-3.958364	limitano	-0.0605305
-3.958364	linea	-0.06005579
-3.958364	linfa	-0.03574293
-3.958364	lingua	-0.03574293
-3.958364	liquidi	-0.06754174
-2.486964	lo	-0.09714426
-3.958364	lontana	-0.05617108
-3.958364	lontananza	-0.06749342
-3.857343	lontani	-0.03505447
-3.237601	lontano	-0.0881623
-2.737715	loro	-0.03450228
-3.655032	lotta	-0.02303857
-3.958364	lucciole	-0.06656109
-3.857343	luce	-0.1571745
-3.958364	lugubre	-0.06492467
-3.072307	lui	-0.08159567
-3.958364	lume	-0.06745462
-3.857343	luminose	-0.1571745
-3.958364	luminosi	-0.06615344
-3.958364	luna	-0.06754174
-3.857343	lunga	-0.05865429
-3.958364	lungamente	-0.06706636
-3.857343	lunghe	-0.06046918
-3.857343	lunghi	-0.06749393
-3.397983	lungo	-0.06932756
-3.958364	luoghi	-0.06754174
-3.958364	luogo	-0.03574293
-3.958364	luogotenente	-0.0283531
-3.397983	là	-0.09184735
-3.958364	lí	-0.06535386
-3.958364	m'abbiate	-0.06718287
-3.857343	m'aveva	-0.06713501
-3.958364	m'avrebbe	-0.06752922
-3.857343	m'inganno	-0.06541323
-2.475219	ma	-0.05390087
-3.958364	macchia	-0.06386942
-3.857343	macchie	-0.03569148
-3.958364	macchioni	-0.03574293
-3.857343	macigni	-0.03559773
-3.857343	maestra	-0.02695082
-3.958364	maestro	-0.06752922
-3.857343	maggior	-0.06739728
-3.857343	maggiore	-0.03569148
-3.655032	maggiori	-0.0233765
-3.958364	maghi	-0.06508078
-3.958364	magro	-0.06752922
-3.028742	mai	-0.02412114
-3.958364	mal	-0.05617108
-3.397983	male	-0.02835832
-3.958364	maledetta	-0.06694981
-3.958364	man	-0.06754174
-3.958364	manca	-0.06749393
-3.857343	mancanza	-0.05610915
-3.958364	mancare	-0.06683323
-3.958364	mancassero	-0.03574293
-3.958364	mancate	-0.06683323
-3.857343	mancavano	-0.02633362
-3.958364	mancheremo	-0.05617108
-3.958364	manco	-0.05831663
-3.507761	mandare	-0.4413628
-3.958364	mandarlo	-0.0605305
-3.958364	mandarmi	-0.06749342
-3.655032	mandato	-0.1404936
-3.857343	manderemo	-0.05754397
-3.958364	manderò	-0.0605305
-3.857343	mangeremo	-0.03513809
-3.958364	mangerà	-0.06465133
-3.958364	mangi	-0.06593842
-3.857343	mangiare	-0.03559773
-3.958364	mangiarsi	-0.06449506
-3.958364	mangiata	-0.06729936
-3.958364	mangiato	-0.06726053
-3.397983	mani	-0.03876438
-3.072307	mano	-0.03057459
-3.958364	manovrandolo	-0.06449506
-3.958364	mantello	-0.03574293
-3.958364	mantenere	-0.06021492
-3.958364	maracaibo	-0.06729034
-3.175249	maracaybo	-0.09358488
-3.958364	marcia	-0.06729936
-3.958364	marciamo	-0.06754174
-3.958364	marciare	-0.06741581
-3.958364	marciava	-0.06749342
-3.958364	marcio	-0.05831663
-3.31043	mare	-0.1178531
-3.958364	margine	-0.05359528
-3.397983	marinai	-0.05169466
-3.655032	marinaio	-0.05289498
-3.958364	mariti	-0.03574293
-3.958364	marmellata	-0.03574293
-3.958364	marosi	-0.06120034
-3.958364	martellano	-0.06593842
-3.958364	massa	-0.06752922
-3.958364	masse	-0.06647427
-3.958364	massicci	-0.06754174
-3.958364	massimo	-0.06120034
-3.958364	masso	-0.06484659
-3.958364	masticando	-0.06745462
-3.958364	mastri	-0.05942497
-3.857343	mastro	-0.03559773
-3.958364	matrimoni	-0.06547083
-3.958364	mattina	-0.03574293
-3.958364	mattinieri	-0.06752922
-3.958364	maturazione	-0.03574293
-3.958364	mazza	-0.06754174
-3.958364	mazze	-0.05942497
-3.31043	me	-0.08276309
-3.958364	medesimo	-0.06716433
-3.958364	meditabonda	-0.03574293
-3.237601	meglio	-0.04523983
-3.958364	melmoso	-0.06749342
-3.857343	membra	-0.03569148
-3.958364	memoria	-0.06733818
-3.857343	meno	-0.03559773
-3.958364	menti	-0.06752922
-3.958364	mentito	-0.06749342
-3.958364	mento	-0.06754174
-2.919387	mentre	-0.1015119
-3.958364	meraviglioso	-0.03574293
-3.958364	mescolata	-0.0605305
-3.958364	mescolavano	-0.06386942
-3.958364	messi	-0.0605305
-3.958364	messicano	-0.06355626
-3.655032	messo	-0.09962245
-3.958364	metallica	-0.05831663
-3.958364	meticce	-0.03567801
-3.857343	metri	-0.03563949
-3.958364	metro	-0.06547083
-3.958364	metterai	-0.06484659
-3.507761	mettere	-0.1126583
-3.655032	metteremo	-0.1406894
-3.958364	mettervi	-0.06739427
-3.958364	metti	-0.0605305
-3.958364	metto	-0.06745462
-3.958364	mezz'ora	-0.06754174
-3.958364	mezza	-0.0672217
-3.958364	mezzanotte	-0.06754174
-3.958364	mezzi	-0.06386942
-3.397983	mezzo	-0.05430718
-3.958364	mezzodí	-0.06754174
-2.660224	mi	-0.1067663
-3.120735	mia	-0.07454532
-3.958364	miagolii	-0.06547083
-3.857343	miccia	-0.03354651
-3.857343	michele	-0.1816465
-3.958364	midolla	-0.06752922
-3.655032	mie	-0.06721672
-3.072307	miei	-0.1043512
-3.958364	miglia	-0.06547083
-3.857343	migliaia	-0.1776027
-3.857343	migliore	-0.06240042
-3.958364	migliori	-0.06754174
-3.857343	mille	-0.06748141
-3.857343	mina	-0.03438491
-3.958364	minaccia	-0.03574293
-3.958364	minacciando	-0.06694981
-3.958364	minacciava	-0.06694981
-3.958364	minacciosa	-0.06733818
-3.958364	minaccioso	-0.05942497
-3.958364	minima	-0.06754174
-3.31043	minuti	-0.04380283
-3.958364	minuto	-0.06558777
-2.919387	mio	-0.1425836
-3.958364	miracoli	-0.03574293
-3.958364	miracolo	-0.03574293
-3.958364	mischia	-0.03574293
-3.857343	mise	-0.06043332
-3.958364	misericordia	-0.06702751
-3.857343	missione	-0.03354651
-3.857343	misteriosa	-0.06479848
-3.958364	misteriose	-0.06754174
-3.857343	misterioso	-0.03569148
-3.958364	misurarvi	-0.06449506
-3.958364	mitraglia	-0.06537423
-3.655032	modo	-0.03280929
-3.397983	moko	-0.05889598
-3.958364	molluschi	-0.06754174
-3.958364	molta	-0.06754174
-3.958364	molte	-0.06752922
-3.857343	molti	-0.05202983
-3.397983	molto	-0.06462541
-3.857343	momenti	-0.03569148
-3.175249	momento	-0.01606758
-3.857343	mondo	-0.03083255
-3.958364	monotoni	-0.05942497
-3.857343	montagna	-0.03036784
-3.958364	montare	-0.06120034
-3.958364	montava	-0.06726053
-3.857343	montbars	-0.05901057
-3.237601	morgan	-0.08375116
-3.958364	moribondo	-0.03574293
-3.857343	mormorando	-0.03467797
-3.072307	mormorò	-0.1738008
-3.958364	morta	-0.03574293
-3.397983	morte	-0.05151716
-3.857343	morti	-0.1289827
-3.397983	morto	-0.02637823
-3.958364	moschettone	-0.03574293
-3.958364	moschettoni	-0.06752922
-3.958364	mossa	-0.06732916
-3.958364	mosse	-0.03574293
-3.958364	mossi	-0.03569148
-3.958364	mosso	-0.06749342
-3.958364	mostrando	-0.06386942
-3.958364	mostrarci	-0.06371287
-3.857343	mostrarsi	-0.06748141
-3.958364	mostreranno	-0.03574293
-3.958364	mostri	-0.05942497
-3.958364	mostriate	-0.06386942
-3.958364	motivi	-0.06754174
-3.857343	motivo	-0.02047167
-3.857343	moto	-0.05235141
-3.958364	movimento	-0.03574293
-3.958364	muggendo	-0.06754174
-3.958364	muggito	-0.05617108
-3.958364	mulatta	-0.05831663
-3.958364	muli	-0.03574293
-3.958364	muniti	-0.06754174
-3.958364	munizioni	-0.03574293
-3.857343	muove	-0.06704781
-3.958364	muoverei	-0.06386942
-3.958364	muovergli	-0.06749342
-3.958364	muoversi	-0.06386942
-3.958364	muovesse	-0.06737699
-3.958364	muovono	-0.06737699
-3.958364	mura	-0.05359528
-3.958364	murata	-0.06749342
-3.958364	murate	-0.02639858
-3.958364	muscoli	-0.06628878
-3.958364	musica	-0.06749342
-3.857343	muso	-0.03567801
-3.857343	muta	-0.05610915
-3.958364	muti	-0.06754174
-3.958364	nasale	-0.03574293
-3.958364	nascondere	-0.06021492
-3.958364	nascondiamoci	-0.06752922
-3.958364	nascondigli	-0.06729936
-3.857343	nascosto	-0.06658141
-3.958364	naso	-0.03241209
-3.958364	nativo	-0.06754174
-3.958364	naturale	-0.05831663
-3.958364	nau	-0.05908971
-3.857343	navaje	-0.1571745
-3.028742	nave	-0.05885686
-3.655032	navi	-0.06744612
-3.958364	naviga	-0.06659998
-3.958364	navigare	-0.06449506
-3.958364	navigava	-0.06706636
-2.919387	ne	-0.07536206
-3.958364	necessarie	-0.06386942
-3.857343	necessario	-0.06221549
-3.958364	necessita	-0.06741581
-3.958364	necessità	-0.0661331
-3.857343	negli	-0.06743308
-3.958364	nego	-0.06745462
-3.397983	negro	-0.1004317
-3.857343	nei	-0.0674068
-2.832103	nel	-0.1142914
-3.958364	nell'altra	-0.03574293
-3.958364	nell'angusto	-0.06752922
-2.75946	nella	-0.1513334
-3.175249	nelle	-0.216089
-3.958364	nemica	-0.061929
-3.655032	nemici	-0.03195155
-3.958364	nemico	-0.06741581
-3.397983	nemmeno	-0.07796967
-3.958364	neppure	-0.06687209
-3.958364	nera	-0.06752922
-3.958364	nere	-0.03574293
-3.655032	nero	-0.001159601
-3.958364	nessun	-0.06717385
-3.857343	nessuna	-0.06708666
-3.175249	nessuno	-0.05932061
-3.958364	nicaragua	-0.03574293
-3.958364	nient'altro	-0.03574293
-3.857343	niente	-0.06749393
-3.958364	niku	-0.06754174
-3.655032	nipote	-0.02460329
-3.958364	no	-0.04804596
-3.958364	nobile	-0.06752922
-3.958364	nobiltà	-0.03574293
-2.626114	noi	-0.07187574
-3.958364	noia	-0.06469039
-3.507761	nome	-0.01057682
-2.034141	non	-0.1786463
-3.857343	nondimeno	-0.06731664
-3.958364	nonostante	-0.06558777
-3.397983	nostra	-0.06509373
-3.397983	nostre	-0.06688142
-3.857343	nostri	-0.09960216
-3.958364	nostro	-0.06669082
-3.958364	nota	-0.06558777
-3.507761	notaio	-0.1067719
-3.958364	note	-0.06754174
-3.958364	notizie	-0.05831663
-3.237601	notte	-0.04640029
-3.958364	notturno	-0.03574293
-3.857343	nulla	-0.05419588
-3.397983	numero	-0.1734374
-3.857343	numerosa	-0.02344327
-3.958364	numerose	-0.06749342
-3.857343	numerosi	-0.0620469
-3.958364	numeroso	-0.06752922
-3.958364	nuova	-0.06386942
-3.958364	nuovamente	-0.03574293
-3.857343	nuove	-0.03567801
-3.958364	nutriate	-0.06659998
-3.958364	nutrono	-0.06547083
-2.78235	né	-0.1117755
-2.565011	o	-0.06442607
-3.857343	obbedire	-0.06743308
-3.958364	obbedirgli	-0.03574293
-3.958364	occasione	-0.06754174
-3.175249	occhi	-0.06195141
-3.958364	occuparti	-0.05617108
-3.958364	occupasse	-0.06754174
-3.958364	occupata	-0.03574293
-3.958364	occupatevi	-0.06752922
-3.958364	occupati	-0.06558777
-3.958364	occupatissimi	-0.03574293
-3.655032	occupato	-0.05692902
-3.397983	od	-0.05975442
-3.958364	odiasse	-0.03574293
-3.655032	odio	-0.06278379
-3.958364	odore	-0.06754174
-3.958364	offeso	-0.03574293
-3.958364	offra	-0.06752922
-3.958364	offre	-0.06706636
-3.958364	offriva	-0.06687209
-3.958364	offrí	-0.06021492
-3.857343	oggi	-0.06580298
-3.958364	ogni	-0.06748141
-3.958364	ognuno	-0.06120034
-3.958364	olonese	-0.06554879
-3.857343	oltre	-0.06377247
-3.958364	oltrepassati	-0.05617108
-3.958364	ombrello	-0.0672217
-3.072307	onde	-0.06422591
-3.958364	ondeggiavano	-0.06371287
-3.958364	onorevole	-0.06754174
-3.857343	opera	-0.05359528
-3.958364	opportuno	-0.03574293
-2.78235	ora	-0.02731233
-3.958364	oramai	-0.06617203
-3.958364	ordinato	-0.05617108
-3.958364	ordini	-0.03574293
-3.958364	ordinò	-0.06021492
-3.507761	ore	-0.04957178
-3.857343	orecchi	-0.03563949
-3.958364	orecchio	-0.03574293
-3.958364	organizzarsi	-0.06749342
-3.175249	ormai	-0.04150368
-3.958364	orribili	-0.06754174
-3.958364	orribilmente	-0.05942497
-3.958364	orrore	-0.03574293
-3.958364	orsú	-0.0674336
-3.958364	osa	-0.06754174
-3.958364	osare	-0.06754174
-3.958364	oscure	-0.03574293
-3.958364	oscuri	-0.03574293
-3.958364	oseranno	-0.06754174
-3.857343	oserà	-0.06748141
-3.958364	osi	-0.06752922
-3.958364	oso	-0.06754174
-3.857343	ospitalità	-0.05976177
-3.958364	ospiti	-0.06535386
-3.958364	ossa	-0.03574293
-3.958364	osservato	-0.06593842
-3.958364	ossi	-0.06749342
-3.958364	ossia	-0.06386942
-3.655032	ostacoli	-0.1028299
-3.958364	ostante	-0.06683323
-3.958364	ostinate	-0.06754174
-3.958364	ostinati	-0.06752922
-3.958364	ostinazione	-0.06754174
-3.507761	otto	-0.05583693
-3.857343	ove	-0.06400725
-3.958364	ovunque	-0.06752922
-3.958364	pace	-0.03574293
-3.958364	padre	-0.06754174
-3.958364	padrini	-0.05942497
-3.655032	padrone	-0.06155634
-3.857343	paese	-0.06056867
-3.958364	paesi	-0.0664055
-3.857343	pagare	-0.0646032
-3.958364	pagheranno	-0.06593842
-3.958364	pagheremo	-0.0605305
-3.857343	pagherà	-0.0600382
-3.958364	paio	-0.05617108
-3.958364	palazzina	-0.05942497
-3.958364	paletuvieri	-0.03574293
-3.857343	palla	-0.06312405
-3.958364	palle	-0.06474986
-3.857343	pallidi	-0.06749393
-3.655032	pallido	-0.0453863
-3.857343	palude	-0.05901057
-3.857343	paludosa	-0.03492901
-3.958364	pani	-0.03574293
-3.958364	panni	-0.06706636
-3.958364	parallelamente	-0.0605305
-3.857343	parare	-0.185301
-3.857343	parate	-0.03241209
-3.655032	pare	-0.1618892
-3.857343	parecchi	-0.06749393
-3.958364	parecchie	-0.06752922
-3.857343	parenti	-0.1571745
-3.175249	pareva	-0.1750488
-3.857343	parevano	-0.06749393
-3.655032	pari	-0.03327465
-3.958364	parlando	-0.06659998
-3.857343	parlare	-0.05399577
-3.958364	parlava	-0.03574293
-3.958364	parlavano	-0.06593842
-3.958364	parlerai	-0.06566572
-3.958364	parleremo	-0.06547083
-3.507761	parola	-0.08183667
-3.507761	parole	-0.1359863
-3.31043	parte	-0.1195992
-3.958364	partenza	-0.06386942
-3.958364	parti	-0.03133894
-3.958364	partita	-0.06694981
-3.958364	partite	-0.06752922
-3.857343	partito	-0.06482796
-3.857343	parve	-0.1353413
-3.958364	pascolo	-0.06659998
-3.958364	passa	-0.06741581
-3.655032	passare	-0.03091699
-3.857343	passato	-0.06603665
-3.958364	passava	-0.06749342
-3.958364	passeggiare	-0.06694981
-3.958364	passerella	-0.05912927
-3.237601	passi	-0.1738325
-3.857343	passo	-0.02924724
-3.857343	passò	-0.06736798
-3.958364	pasto	-0.06754174
-3.958364	paterazzo	-0.05942497
-3.857343	patria	-0.061929
-3.958364	patrio	-0.06754174
-3.175249	paura	-0.1819667
-3.958364	pazienza	-0.06714404
-3.958364	pazzi	-0.03574293
-3.958364	pazzo	-0.05617108
-3.958364	peccato	-0.05831663
-3.655032	peggio	-0.03081241
-3.857343	pel	-0.06700896
-3.958364	pelame	-0.06754174
-3.958364	peli	-0.03574293
-3.958364	pelle	-0.06469039
-3.857343	pendere	-0.06690193
-3.958364	pennone	-0.05617108
-3.857343	pensare	-0.1819621
-3.655032	pensate	-0.04908622
-3.857343	pensato	-0.05686846
-3.958364	pensavo	-0.06632769
-3.958364	penseremo	-0.06663886
-3.958364	pensiamo	-0.06683323
-3.857343	pensieri	-0.06696111
-3.857343	pensiero	-0.06326336
-3.958364	penso	-0.05831663
-3.958364	pentirmi	-0.06754174
-3.958364	pentirti	-0.03574293
-3.958364	penzolare	-0.06694981
-2.069086	per	-0.08297727
-3.120735	perché	-0.05687135
-3.958364	perciò	-0.06617203
-3.958364	percuotendo	-0.06741581
-3.507761	perdere	-0.08128043
-3.857343	perderà	-0.04961036
-3.958364	perderò	-0.05617108
-3.958364	perdeva	-0.06754174
-3.958364	perdite	-0.03574293
-3.958364	perdonate	-0.06665918
-3.958364	perdonato	-0.06729936
-3.958364	perduta	-0.06752922
-3.958364	perduti	-0.03574293
-3.857343	perduto	-0.05674914
-3.857343	perfino	-0.06357673
-3.397983	pericolo	-0.02702808
-3.857343	pericolosa	-0.0584166
-3.655032	pericolose	-0.1122535
-3.857343	pericolosi	-0.05610915
-3.655032	pericoloso	-0.05606316
-3.958364	permesso	-0.06754174
-3.958364	permettervi	-0.05617108
-3.958364	permettete	-0.05831663
-3.958364	personale	-0.03574293
-3.958364	personali	-0.05942497
-3.397983	persone	-0.1337697
-2.463782	però	-0.07402925
-3.958364	perú	-0.06469039
-3.857343	pesce	-0.1444678
-3.958364	pesci	-0.02695082
-3.958364	peso	-0.05617108
-3.958364	petto	-0.06449506
-3.857343	pezzi	-0.02344327
-3.958364	pezzo	-0.05617108
-3.958364	piacere	-0.05617108
-3.958364	piacevole	-0.06752922
-3.958364	piantagione	-0.05617108
-3.857343	piante	-0.03569148
-3.857343	pianura	-0.06560814
-3.958364	piastra	-0.06386942
-3.958364	piastre	-0.03505447
-3.958364	piazza	-0.06754174
-3.958364	picchiato	-0.06667774
-3.958364	picco	-0.03574293
-3.857343	piccola	-0.06693126
-3.958364	piccole	-0.06749342
-3.958364	piccoli	-0.0661331
-3.507761	piccolo	-0.06371213
-3.958364	piede	-0.06667774
-3.655032	piedi	-0.03280471
-3.857343	piena	-0.06739427
-3.958364	pienamente	-0.06733818
-3.958364	piene	-0.03574293
-3.857343	pieno	-0.03569148
-3.958364	pierre	-0.06386942
-3.857343	pietra	-0.03543064
-3.31043	pietro	-0.04986
-3.958364	pilota	-0.06718287
-3.958364	piomba	-0.06449506
-3.958364	piombare	-0.06737699
-3.958364	piombato	-0.06737699
-3.958364	piombavo	-0.06694981
-3.958364	piomberemo	-0.06679437
-3.958364	piombo	-0.03574293
-3.958364	pistola	-0.03574293
-3.958364	pistole	-0.03574293
-3.958364	pittoresco	-0.06754174
-3.958364	piume	-0.06754174
-2.312771	piú	-0.04225392
-3.857343	plaza	-0.1889608
-3.958364	po'	-0.05459817
-3.397983	pochi	-0.07187593
-3.31043	poco	-0.02922238
-3.857343	poderoso	-0.06732916
-2.660224	poi	-0.0623031
-3.507761	poiché	-0.1183957
-3.958364	poitou	-0.06617203
-3.857343	polvere	-0.06124151
-3.857343	pomeridiane	-0.05603255
-3.958364	pomeriggio	-0.06021492
-3.958364	ponete	-0.06386942
-3.655032	ponte	-0.107442
-3.958364	ponti	-0.06718287
-3.958364	popolazione	-0.05617108
-3.507761	poppa	-0.02268065
-3.958364	porgendogli	-0.06484659
-3.958364	porgendola	-0.0664055
-3.958364	porgeva	-0.03574293
-3.958364	porgli	-0.06371287
-3.958364	porrai	-0.06371287
-3.857343	porse	-0.05371547
-3.958364	porta	-0.01832683
-3.958364	portare	-0.05303397
-3.958364	portata	-0.0605305
-3.958364	portati	-0.06737699
-3.857343	portato	-0.06322417
-3.857343	portava	-0.03173845
-3.958364	portavoce	-0.06535386
-3.958364	porte	-0.05942497
-3.857343	porti	-0.06731664
-3.857343	porto	-0.03567801
-3.958364	posa	-0.06754174
-3.857343	possa	-0.06722046
-3.857343	possano	-0.06744561
-3.958364	possedere	-0.06386942
-3.958364	possedete	-0.06386942
-3.958364	possessioni	-0.05942497
-3.397983	possiamo	-0.06452864
-3.507761	possibile	-0.03427145
-3.857343	posso	-0.06719042
-3.857343	possono	-0.06728082
-3.857343	posto	-0.06739427
-3.958364	potendo	-0.06737699
-3.958364	poter	-0.06741581
-3.958364	poterli	-0.06752922
-3.958364	poterlo	-0.06741581
-3.958364	poterne	-0.06754174
-3.958364	poterono	-0.06752922
-3.958364	potesse	-0.06749342
-3.958364	potessero	-0.06745462
-3.958364	potessimo	-0.06741581
-3.857343	poteva	-0.06742108
-3.958364	potevo	-0.06754174
-3.857343	potrebbe	-0.06748141
-3.857343	potrei	-0.06635757
-3.397983	potremo	-0.06673498
-3.655032	potrà	-0.0669007
-3.655032	potuto	-0.0673983
-3.958364	poté	-0.06741581
-3.857343	povero	-0.06735846
-3.958364	pozze	-0.05831663
-3.958364	pranzare	-0.06449506
-3.958364	pratico	-0.05617108
-3.958364	precauzione	-0.05617108
-3.958364	precauzioni	-0.06754174
-3.958364	preceduti	-0.06718287
-3.958364	precipitarsi	-0.0672217
-3.857343	precipitati	-0.03467797
-3.958364	precipitato	-0.0605305
-3.857343	precipitosamente	-0.06739728
-3.958364	precipitò	-0.06737699
-3.958364	precipizio	-0.03574293
-3.958364	preda	-0.06617203
-3.958364	predare	-0.05831663
-3.958364	predata	-0.03574293
-3.857343	predatore	-0.05267275
-3.958364	predoni	-0.03574293
-3.857343	preferisco	-0.05809948
-3.958364	preferito	-0.06752922
-3.958364	prego	-0.056122
-3.958364	preme	-0.06355626
-3.958364	premio	-0.05831663
-3.958364	prendano	-0.06706636
-3.958364	prendendolo	-0.06659998
-3.958364	prender	-0.06737699
-3.237601	prendere	-0.2050758
-3.958364	prenderete	-0.06687209
-3.958364	prendersela	-0.06449506
-3.958364	prenderti	-0.06449506
-3.958364	prenderà	-0.06449506
-3.857343	prenderò	-0.05916883
-3.958364	prendevo	-0.06558777
-3.958364	prendi	-0.06706636
-3.958364	prendiamo	-0.06754174
-3.958364	prendo	-0.0661331
-3.958364	preoccupa	-0.05942497
-3.958364	preoccupatevi	-0.05617108
-3.958364	preoccupato	-0.06754174
-3.958364	preoccupavano	-0.03574293
-3.958364	prepara	-0.0605305
-3.958364	preparano	-0.06617203
-3.958364	prepararci	-0.06632769
-3.655032	preparare	-0.05823916
-3.958364	preparata	-0.06706636
-3.958364	preparavano	-0.0605305
-3.958364	prepariamo	-0.06465133
-3.958364	presa	-0.06484659
-3.857343	prese	-0.0638212
-3.958364	presentando	-0.06617203
-3.958364	presentavano	-0.06617203
-3.958364	presenteranno	-0.06120034
-3.958364	presentimento	-0.06733818
-3.857343	presenza	-0.03346258
-3.958364	presidio	-0.06752922
-3.958364	preso	-0.06021492
-3.175249	presso	-0.1579984
-3.958364	prestano	-0.06386942
-3.507761	presto	-0.06266662
-3.857343	prevedendo	-0.06424189
-3.958364	prevedere	-0.0664055
-3.958364	prezioso	-0.06371287
-3.857343	prigioniera	-0.03349482
-3.507761	prigionieri	-0.09118527
-3.397983	prigioniero	-0.06553136
-2.717009	prima	-0.188144
-3.958364	prime	-0.06731065
-3.958364	primi	-0.04997414
-3.507761	primo	-0.06165558
-3.958364	principio	-0.05617108
-3.958364	privazioni	-0.06698866
-3.958364	probabile	-0.06609417
-3.857343	probabilmente	-0.05551428
-3.857343	procedendo	-0.06345924
-3.857343	processione	-0.05583329
-3.958364	procureranno	-0.06733818
-3.958364	prodezza	-0.06752922
-3.958364	prodigiosi	-0.06754174
-3.958364	produce	-0.06659998
-3.958364	producono	-0.0665222
-3.958364	profezia	-0.06508078
-3.958364	profondi	-0.06752922
-3.857343	profondo	-0.06739728
-3.958364	profumo	-0.06749342
-3.857343	progetto	-0.03140123
-3.958364	prolungarsi	-0.06386942
-3.958364	promesse	-0.06355626
-3.958364	promesso	-0.05942497
-3.857343	prometto	-0.02290707
-3.857343	promontorio	-0.06412155
-3.655032	prontamente	-0.05545536
-3.958364	pronte	-0.05942497
-3.857343	pronti	-0.05976177
-3.397983	pronto	-0.1850292
-3.958364	pronunciare	-0.06754174
-3.958364	pronunciò	-0.06484659
-3.958364	pronunziato	-0.06694981
-3.958364	propagata	-0.06741581
-3.958364	propizia	-0.06386942
-3.958364	proporzioni	-0.06754174
-3.958364	propria	-0.06754174
-3.958364	proprio	-0.06754174
-3.655032	prora	-0.02899345
-3.958364	prosciutto	-0.05617108
-3.958364	prosegui	-0.06628878
-3.958364	proseguire	-0.05742484
-3.958364	protegge	-0.06465133
-3.958364	proteggerà	-0.06683323
-3.857343	prova	-0.0579805
-3.958364	provassi	-0.06021492
-3.857343	provato	-0.03459426
-3.958364	proveniente	-0.06694981
-3.958364	provvedere	-0.06683323
-3.857343	provviste	-0.0345524
-3.655032	provò	-0.1408948
-3.958364	prudente	-0.03574293
-3.958364	prudentemente	-0.06120034
-3.958364	prudenti	-0.03574293
-3.958364	prudenza	-0.05937625
-3.958364	pugnali	-0.06386942
-3.857343	pugno	-0.02325094
-3.958364	punire	-0.06752922
-3.958364	punivano	-0.06741581
-3.958364	punta	-0.06508078
-3.958364	puntando	-0.06465133
-3.958364	puntandola	-0.06659998
-3.958364	puntato	-0.0672217
-3.857343	punti	-0.1889733
-3.958364	punto	-0.06748141
-3.857343	puoi	-0.067242
-3.958364	pur	-0.06754174
-3.175249	pure	-0.02800396
-3.958364	puzzolente	-0.06754174
-3.072307	può	-0.1150766
-3.507761	quadro	-0.06023025
-3.958364	quadrumani	-0.03574293
-3.958364	qual	-0.06752922
-2.78235	qualche	-0.09709409
-3.507761	qualcuno	-0.06249036
-3.655032	quale	-0.06145762
-3.958364	qualsiasi	-0.06754174
-3.958364	qualunque	-0.06741581
-3.958364	quand'ebbe	-0.06754174
-2.919387	quando	-0.07506782
-3.958364	quanta	-0.0672217
-3.958364	quante	-0.06355626
-3.958364	quanti	-0.0671052
-3.655032	quanto	-0.06651495
-3.397983	quantunque	-0.06309929
-3.958364	quaranta	-0.06754174
-3.958364	quartier	-0.06752922
-3.958364	quartiere	-0.06683323
-3.857343	quarto	-0.056122
-3.31043	quasi	-0.1357297
-3.507761	quattro	-0.06595754
-3.655032	quegli	-0.06682599
-3.120735	quei	-0.1032083
-2.75946	quel	-0.08024486
-3.958364	quell'affermazione	-0.06754174
-3.958364	quell'epoca	-0.0661331
-3.958364	quell'importuno	-0.05942497
-3.857343	quell'infame	-0.03413356
-3.958364	quell'istante	-0.05493639
-3.958364	quell'odio	-0.06617203
-3.958364	quell'organismo	-0.06754174
-3.958364	quell'orgia	-0.05617108
-3.958364	quell'ostacolo	-0.06617203
-3.237601	quell'uomo	-0.08055408
-2.832103	quella	-0.1248888
-3.072307	quelle	-0.1016419
-3.655032	quelli	-0.09669738
-3.237601	quello	-0.136945
-3.958364	quest'ora	-0.06608692
-3.958364	quest'orribile	-0.06754174
-3.857343	quest'uomo	-0.05623172
-2.919387	questa	-0.1089007
-3.237601	queste	-0.08807184
-3.072307	questi	-0.05836198
-3.237601	questo	-0.04564647
-3.028742	qui	-0.1901736
-3.175249	quindi	-0.06222618
-3.958364	quindici	-0.06737699
-3.958364	quintale	-0.03574293
-3.958364	rabbia	-0.05942497
-3.958364	rabbonita	-0.06694981
-3.958364	raccogliendo	-0.06120034
-3.958364	raccoglierci	-0.03574293
-3.857343	raccogliere	-0.06537423
-3.857343	raccolta	-0.05387566
-3.958364	raccolti	-0.03574293
-3.958364	raddoppiò	-0.06465133
-3.958364	rado	-0.03487748
-3.958364	radura	-0.06554879
-3.958364	raggi	-0.06754174
-3.857343	raggiungere	-0.06115182
-3.958364	raggiungerli	-0.06687209
-3.958364	raggiungermi	-0.06737699
-3.958364	raggiungerò	-0.03574293
-3.958364	raje	-0.05831663
-3.857343	rami	-0.03569148
-3.958364	rammenterete	-0.06729936
-3.655032	ramo	-0.02417061
-3.958364	randa	-0.03574293
-3.958364	randello	-0.03574293
-3.958364	ranocchi	-0.05831663
-3.857343	rapida	-0.06589043
-3.072307	rapidamente	-0.068428
-3.958364	rapidità	-0.03574293
-3.958364	rapido	-0.06748141
-3.958364	rapire	-0.06021492
-3.857343	rara	-0.05995924
-3.958364	rassegnarsi	-0.06617203
-3.958364	rassegnazione	-0.06120034
-3.958364	rasserenasse	-0.0671052
-3.958364	rassicuratevi	-0.06609417
-3.958364	rassicurato	-0.06752922
-3.958364	rauca	-0.06745462
-3.958364	rauchi	-0.06754174
-3.958364	recato	-0.05831663
-3.958364	recente	-0.06754174
-3.958364	rechi	-0.0665222
-3.958364	recise	-0.06449506
-3.958364	refrattari	-0.06754174
-3.958364	regione	-0.06617203
-3.655032	regnava	-0.1433827
-3.958364	regolare	-0.06741581
-3.958364	rematori	-0.03574293
-3.958364	remi	-0.06754174
-3.958364	remo	-0.06754174
-3.958364	rendere	-0.06386942
-3.958364	rendergli	-0.06752922
-3.958364	renderlo	-0.06547083
-3.958364	reni	-0.03574293
-3.958364	repentinamente	-0.06754174
-3.655032	resa	-0.03564004
-3.857343	resistenza	-0.03562657
-3.958364	resistenze	-0.06726053
-3.397983	resistere	-0.1039537
-3.857343	resisteva	-0.1859266
-3.958364	respinti	-0.06683323
-3.958364	respirasse	-0.03574293
-3.857343	respiro	-0.1086434
-3.958364	resta	-0.06120034
-3.958364	restituire	-0.06386942
-3.958364	resto	-0.0605305
-3.958364	rettile	-0.06373332
-3.958364	rettili	-0.05942497
-3.958364	riacquistare	-0.06120034
-3.958364	riacquistata	-0.06120034
-3.958364	rialzato	-0.0667555
-3.857343	rialzò	-0.06713501
-3.958364	ricadere	-0.06371287
-3.958364	ricaricate	-0.06749342
-3.958364	ricchezze	-0.03574293
-3.958364	riceverli	-0.06449506
-3.958364	riceverà	-0.06749342
-3.958364	riconosciuta	-0.06371287
-3.958364	ricordarmi	-0.06021492
-3.958364	ricorderemo	-0.06694981
-3.958364	ricordi	-0.05831663
-3.958364	ricordo	-0.0671052
-3.958364	ricorrere	-0.0605305
-3.958364	ricovero	-0.03574293
-3.397983	ridendo	-0.305518
-3.958364	ridere	-0.06371287
-3.958364	ridicolo	-0.03574293
-3.958364	ridiventato	-0.06741581
-3.958364	riempí	-0.06386942
-3.958364	riescono	-0.0605305
-3.958364	riflessione	-0.03574293
-3.958364	rifugio	-0.06752922
-3.857343	rigorosamente	-0.06669806
-3.958364	riguarda	-0.06593842
-3.857343	rimanevano	-0.05678892
-3.958364	rimarranno	-0.06683323
-3.857343	rimarrà	-0.06748141
-3.857343	rimase	-0.06342007
-3.958364	rimasto	-0.0673978
-3.857343	rimbombare	-0.05817878
-3.958364	rimbombarono	-0.06752922
-3.958364	rimbombato	-0.06659998
-3.958364	rimbombo	-0.06659998
-3.958364	rimessi	-0.06754174
-3.655032	rimesso	-0.06187095
-3.958364	rimetterci	-0.06371287
-3.958364	rimise	-0.06371287
-3.958364	rimisero	-0.06371287
-3.958364	rimorchio	-0.06386942
-3.958364	rimprovererà	-0.05617108
-3.958364	rimuovendo	-0.0672217
-3.958364	rinchiuse	-0.06754174
-3.958364	rincresce	-0.06748141
-3.958364	rincrescerebbe	-0.06353757
-3.958364	rincresciuto	-0.05831663
-3.958364	ringrazio	-0.06726053
-3.958364	rintronare	-0.06659998
-3.958364	rintronò	-0.06683323
-3.958364	riorganizzare	-0.06484659
-3.958364	riparati	-0.0672217
-3.958364	ripari	-0.06718287
-3.958364	ripartire	-0.06593842
-3.958364	ripercosse	-0.06754174
-3.958364	ripercuote	-0.06617203
-3.857343	ripeté	-0.05869389
-3.958364	riportata	-0.06120034
-3.958364	riposarti	-0.03574293
-3.958364	riposava	-0.03574293
-3.958364	riposo	-0.06663886
-3.958364	riprendere	-0.06021492
-3.958364	riprendete	-0.06120034
-3.857343	riprese	-0.02780204
-3.857343	ripresero	-0.05956421
-3.958364	ripreso	-0.06021492
-3.958364	risa	-0.03574293
-3.655032	riscatto	-0.1122535
-3.958364	riserva	-0.06749342
-3.958364	riserve	-0.06469039
-3.958364	risollevato	-0.06718287
-3.958364	risoluta	-0.06484659
-3.958364	risolutamente	-0.06628878
-3.958364	risoluzione	-0.03574293
-3.958364	risparmiamo	-0.06465133
-3.958364	risparmiaste	-0.06120034
-3.958364	risparmiato	-0.06754174
-3.958364	risparmieremo	-0.06554879
-3.958364	risparmio	-0.05617108
-3.958364	rispettavano	-0.06752922
-3.958364	rispetteremo	-0.06120034
-3.655032	rispondere	-0.04737175
-3.958364	risponderete	-0.0605305
-3.958364	risponderà	-0.06386942
-3.958364	rispondeva	-0.06021492
-3.958364	rispondevamo	-0.0605305
-3.857343	rispondo	-0.06439825
-2.35458	rispose	-0.5711537
-3.857343	risposero	-0.06334172
-3.958364	risposta	-0.06752922
-3.958364	risposto	-0.06386942
-3.958364	risuonava	-0.0672217
-3.958364	ritengo	-0.06745462
-3.958364	ritentato	-0.06754174
-3.958364	ritirata	-0.0667555
-3.958364	ritiratevi	-0.06726053
-3.958364	ritorna	-0.06726053
-3.857343	ritornare	-0.03476167
-3.958364	ritornato	-0.06752922
-3.655032	ritorno	-0.02914225
-3.958364	ritroveremo	-0.06593842
-3.958364	ritto	-0.0605305
-3.857343	riusciremo	-0.05908971
-3.958364	riuscirà	-0.06754174
-3.958364	riuscito	-0.0605305
-3.958364	riusciva	-0.0605305
-3.857343	rive	-0.1865124
-3.958364	rivederla	-0.06754174
-3.958364	rivederti	-0.0664055
-3.958364	rivedervi	-0.06693126
-3.958364	rivedranno	-0.06021492
-3.655032	rivolgendosi	-0.1424868
-3.958364	rivolgersi	-0.06733818
-3.958364	rivolta	-0.06617203
-3.958364	rivoltato	-0.06733818
-3.958364	rizzava	-0.06726053
-3.958364	robuste	-0.03574293
-3.958364	robusto	-0.06737699
-3.958364	roccanera	-0.06349537
-3.958364	roccia	-0.03574293
-3.958364	rombare	-0.06754174
-3.857343	rompendo	-0.05991975
-3.958364	ronda	-0.05942497
-3.958364	rospi	-0.05831663
-3.857343	rossi	-0.1098641
-3.958364	rosso	-0.03534708
-3.857343	rossore	-0.03358847
-3.958364	rotolando	-0.06386942
-3.958364	rotolare	-0.06741581
-3.958364	rotonde	-0.03574293
-3.655032	rotta	-0.03499271
-3.958364	rotti	-0.03574293
-3.958364	rotto	-0.06729936
-3.958364	rovesciati	-0.06687209
-3.958364	ruggiti	-0.06547083
-3.857343	ruggito	-0.06591983
-3.655032	rupe	-0.06226388
-3.958364	russano	-0.06754174
-3.857343	ruvidamente	-0.06584193
-3.958364	s	-0.03574293
-3.958364	s'accavallavano	-0.06754174
-3.958364	s'affrettò	-0.0605305
-3.958364	s'aggrappò	-0.06617203
-3.958364	s'allargavano	-0.0672217
-3.958364	s'allontanò	-0.06752922
-3.857343	s'alzò	-0.05952469
-3.958364	s'arrestò	-0.06752922
-3.958364	s'avanzavano	-0.06754174
-3.958364	s'avanzino	-0.05942497
-3.507761	s'era	-0.06648083
-3.958364	s'immergesse	-0.06371287
-3.958364	s'impegnò	-0.06492467
-3.958364	s'impregnava	-0.0672217
-3.958364	s'incaricarono	-0.06508078
-3.958364	s'inchinò	-0.0667555
-3.958364	s'inclinava	-0.0605305
-3.958364	s'incrocia	-0.06021492
-3.958364	s'inganna	-0.06745462
-3.507761	sa	-0.05556578
-3.958364	sabbia	-0.06754174
-3.958364	saccheggiare	-0.06439825
-3.857343	sacco	-0.1776027
-3.655032	sai	-0.1325878
-3.958364	salami	-0.0672217
-3.958364	salgono	-0.06741581
-3.958364	salire	-0.06752922
-3.958364	salirono	-0.06371287
-3.655032	salito	-0.1194165
-3.958364	saliva	-0.06754174
-3.958364	salivano	-0.06449506
-3.958364	salma	-0.0647108
-3.857343	salotto	-0.06380858
-3.958364	saltare	-0.06749342
-3.655032	salti	-0.02769671
-3.958364	salutare	-0.06021492
-3.958364	salutarla	-0.03574293
-3.857343	salute	-0.0647108
-3.857343	salvacondotto	-0.03173845
-3.958364	salvata	-0.06120034
-3.958364	salverò	-0.06120034
-3.857343	salvo	-0.05627155
-3.958364	salí	-0.06667774
-3.397983	sangue	-0.02960827
-3.958364	sanguinari	-0.06754174
-3.958364	sanguinario	-0.06752922
-3.958364	sanguinosa	-0.03574293
-3.958364	sanguinosissima	-0.06754174
-3.958364	sanguinoso	-0.06754174
-3.958364	sanno	-0.05831663
-3.857343	sapendo	-0.05758367
-3.958364	sapendovi	-0.06371287
-3.397983	sapere	-0.02222047
-3.507761	sapete	-0.03258227
-3.958364	sapore	-0.06754174
-3.958364	saporitamente	-0.06492467
-3.958364	sappi	-0.06741581
-3.958364	sappia	-0.06733818
-3.958364	saprai	-0.06656109
-3.958364	saprei	-0.06566572
-3.958364	saprà	-0.05617108
-3.958364	sarai	-0.05617108
-3.507761	saranno	-0.05382196
-3.397983	sarebbe	-0.09750045
-3.958364	sarebbero	-0.06737699
-3.958364	sarei	-0.06741581
-3.958364	saremmo	-0.06754174
-3.31043	saremo	-0.1206436
-3.175249	sarà	-0.05239691
-3.507761	sarò	-0.05787177
-3.857343	sassi	-0.03156987
-3.958364	satura	-0.06754174
-3.507761	savana	-0.0792857
-3.958364	sbarazzandosi	-0.06484659
-3.958364	sbarazzarsi	-0.06754174
-3.958364	sbarazzatisi	-0.06547083
-3.958364	sbarcare	-0.06745462
-3.958364	sbarcato	-0.06749342
-3.958364	sbarco	-0.06729936
-3.958364	sbirciò	-0.05617108
-3.958364	sbucavano	-0.06659998
-3.958364	sbudellare	-0.06386942
-3.958364	scagliarsi	-0.03574293
-3.958364	scagliò	-0.06733818
-3.958364	scala	-0.05999872
-3.857343	scale	-0.1571745
-3.857343	scaletta	-0.0257563
-3.958364	scambiare	-0.06671662
-3.958364	scapperò	-0.0672217
-3.958364	scarica	-0.06030531
-3.958364	scaricava	-0.06687209
-3.958364	scariche	-0.06754174
-3.958364	scena	-0.06726053
-3.958364	scendendo	-0.06120034
-3.958364	scendere	-0.06752922
-3.857343	scendeva	-0.06688939
-3.958364	scene	-0.06418236
-3.958364	scesa	-0.06492467
-3.857343	scese	-0.05895212
-3.958364	scheggione	-0.06667774
-3.958364	schiacciare	-0.03574293
-3.958364	schiacciati	-0.06729936
-3.958364	schiacciato	-0.03574293
-3.958364	schierandosi	-0.06741581
-3.958364	schierato	-0.06741581
-3.958364	scia	-0.06749342
-3.507761	sciabola	-0.03213818
-3.857343	sciabole	-0.05825499
-3.397983	scialuppa	-0.07533514
-3.507761	scialuppe	-0.08930826
-3.857343	scimmie	-0.05741563
-3.958364	scintillante	-0.06741581
-3.958364	scintillava	-0.0671052
-3.958364	sciolti	-0.06706636
-3.958364	scivolava	-0.0672217
-3.857343	scoglio	-0.05988026
-3.958364	scoli	-0.05617108
-3.958364	scolpito	-0.06371287
-3.958364	scombussolato	-0.06021492
-3.958364	scompaiano	-0.05942497
-3.958364	scomparire	-0.06418236
-3.958364	scomparsi	-0.0671052
-3.958364	scomparso	-0.06706636
-3.958364	scomparve	-0.06752922
-3.958364	scoperta	-0.06386942
-3.958364	scoperte	-0.06386942
-3.857343	scoperto	-0.02780204
-3.958364	scoppi	-0.0667555
-3.958364	scoppiare	-0.0584166
-3.958364	scoprendosi	-0.06021492
-3.958364	scordate	-0.05831663
-3.958364	scorgo	-0.06752922
-3.857343	scorridore	-0.1862782
-3.958364	scorridori	-0.06484659
-3.958364	scorse	-0.06617203
-3.857343	scorta	-0.03279056
-3.958364	scortata	-0.06729936
-3.958364	scorticare	-0.06021492
-3.857343	scosse	-0.06748141
-3.958364	scovarci	-0.03574293
-3.958364	scovarlo	-0.06683323
-3.958364	scricchiolio	-0.05831663
-3.958364	scritta	-0.03574293
-3.857343	scuotendo	-0.06016629
-3.958364	scuoteva	-0.06386942
-3.958364	scure	-0.06754174
-3.958364	scuri	-0.03574293
-3.958364	scusate	-0.06558777
-3.958364	sdraiato	-0.0664055
-2.42083	se	-0.1773426
-3.958364	sebbene	-0.06729936
-3.958364	secchi	-0.03574293
-3.655032	seconda	-0.03541072
-3.958364	secondi	-0.03574293
-3.655032	secondo	-0.05702624
-3.958364	sedere	-0.06741581
-3.958364	sedettero	-0.06749342
-3.958364	segnalata	-0.06484659
-3.958364	segue	-0.06386942
-3.958364	seguente	-0.06754174
-3.958364	seguiamo	-0.06465133
-3.958364	seguimi	-0.06371287
-3.958364	seguirlo	-0.03574293
-3.958364	seguita	-0.03574293
-3.958364	seguite	-0.06706636
-3.31043	seguito	-0.1098446
-3.958364	seguiva	-0.06749342
-3.958364	seguivano	-0.06749342
-3.958364	seguo	-0.06752922
-3.175249	sei	-0.06112139
-3.958364	seicento	-0.06673694
-3.958364	selva	-0.06656109
-3.857343	selvaggi	-0.06589043
-3.857343	selvaggina	-0.03328494
-3.857343	selve	-0.06194956
-3.857343	sembra	-0.06001631
-3.958364	sembrava	-0.05831663
-3.958364	semi	-0.06749342
-3.958364	semispenta	-0.03574293
-3.958364	semplicemente	-0.05617108
-2.832103	sempre	-0.04060261
-3.857343	sentendo	-0.1889733
-3.958364	sentendola	-0.06749342
-3.958364	sentendosi	-0.06754174
-3.958364	senti	-0.06752922
-3.958364	sentiamo	-0.0671052
-3.958364	sentiero	-0.06752922
-3.958364	sentinella	-0.0605305
-3.857343	sentito	-0.0674068
-3.958364	sentivano	-0.06683323
-3.857343	sento	-0.06377299
-2.717009	senza	-0.0692521
-3.958364	separava	-0.06694981
-3.958364	sepolti	-0.06465133
-3.958364	sepoltura	-0.03574293
-3.958364	sequestro	-0.06754174
-3.655032	sera	-0.05064306
-3.958364	serale	-0.03574293
-3.958364	serenità	-0.03574293
-3.958364	sereno	-0.06355626
-3.958364	serie	-0.05617108
-3.958364	serio	-0.06754174
-3.958364	serpente	-0.03574293
-3.958364	serpenti	-0.01797705
-3.857343	servi	-0.06381161
-3.958364	servire	-0.03574293
-3.958364	servito	-0.05617108
-3.958364	servizio	-0.0664055
-3.958364	seta	-0.03574293
-3.958364	sete	-0.05831663
-3.857343	sette	-0.1888474
-3.958364	settecento	-0.06752922
-3.958364	settentrionali	-0.06752922
-3.857343	settimana	-0.02695082
-3.958364	severe	-0.05831663
-3.958364	sfidano	-0.06120034
-3.958364	sfidare	-0.06120034
-3.958364	sfiorando	-0.06754174
-3.958364	sfiorò	-0.06386942
-3.958364	sfoderata	-0.06120034
-3.958364	sfondato	-0.06484659
-3.958364	sforzi	-0.06754174
-3.958364	sforzo	-0.06754174
-3.857343	sfugge	-0.02344327
-3.958364	sfuggi	-0.0664055
-3.857343	sfuggire	-0.05674914
-3.958364	sfuggirà	-0.06547083
-3.958364	sfuggita	-0.05617108
-3.857343	sfuggono	-0.06682421
-3.958364	sgombero	-0.06547083
-3.958364	sguainando	-0.06021492
-3.655032	sguardi	-0.07864399
-3.857343	sguardo	-0.03267341
-2.10709	si	-0.2072272
-3.120735	sia	-0.05295957
-3.507761	siamo	-0.09005994
-3.175249	siano	-0.06620399
-3.655032	siate	-0.06537475
-3.958364	sibilare	-0.06741581
-3.958364	sicura	-0.03574293
-3.857343	sicuro	-0.06342007
-3.31043	siete	-0.06166271
-3.958364	sigaretta	-0.0672217
-3.958364	significa	-0.05831663
-3.397983	signor	-0.1500913
-3.120735	signora	-0.1398779
-2.75946	signore	-0.08659638
-3.958364	signori	-0.06659998
-3.397983	silenzio	-0.01644062
-3.857343	silenziosa	-0.06659095
-3.857343	silenzioso	-0.05774245
-3.958364	sillaba	-0.05942497
-3.857343	simile	-0.03555596
-3.857343	simili	-0.03569148
-3.958364	singhiozzi	-0.03569148
-3.958364	singhiozzo	-0.03574293
-3.958364	sintomi	-0.06547083
-3.958364	slanciarsi	-0.06737699
-3.958364	slanciati	-0.0672217
-3.958364	slanciato	-0.06752922
-3.958364	slegava	-0.06021492
-3.958364	smarrito	-0.06609417
-3.958364	smorfie	-0.03574293
-3.958364	smorte	-0.06754174
-3.958364	smuovere	-0.06021492
-3.958364	snudando	-0.06449506
-3.31043	so	-0.09059822
-3.958364	soccorso	-0.06729936
-3.958364	sofferto	-0.06355626
-3.958364	soffiava	-0.06593842
-3.958364	soffro	-0.0667555
-3.958364	sogno	-0.03574293
-3.958364	sola	-0.06745462
-3.175249	solamente	-0.05599817
-3.31043	soldati	-0.03373799
-3.655032	soldato	-0.05154886
-3.655032	sole	-0.03285649
-3.958364	solenne	-0.03574293
-3.655032	soli	-0.06684453
-3.958364	solido	-0.03574293
-3.958364	solito	-0.03574293
-3.175249	solo	-0.05733059
-3.958364	sommessamente	-0.06492467
-2.610014	sono	-0.04384262
-3.958364	sonoramente	-0.03574293
-3.958364	sonoro	-0.06617203
-3.958364	sopportare	-0.0672217
-3.958364	sopra	-0.06021492
-3.958364	soprattutto	-0.06737699
-3.958364	sordamente	-0.03574293
-3.958364	sordi	-0.06508078
-3.958364	sordo	-0.06741581
-3.958364	sorgerà	-0.06535386
-3.655032	sorpresa	-0.2882976
-3.958364	sorridendo	-0.03574293
-3.857343	sorridere	-0.03569148
-3.958364	sorriso	-0.02339036
-3.958364	sorta	-0.0672217
-3.655032	sorte	-0.112765
-3.958364	sorti	-0.06508078
-3.958364	sorto	-0.06021492
-3.958364	sorvegliamo	-0.06754174
-3.958364	sorveglierò	-0.03574293
-3.958364	sospetta	-0.06754174
-3.958364	sospettando	-0.06683323
-3.507761	sospettare	-0.2298251
-3.958364	sospettato	-0.06386942
-3.958364	sospetti	-0.03574293
-3.958364	sospetto	-0.06752922
-3.958364	sospiri	-0.06687209
-3.958364	sospiro	-0.03574293
-3.958364	sostanza	-0.06754174
-3.958364	sostegno	-0.06694981
-2.919387	sotto	-0.1777794
-3.958364	sottovento	-0.03574293
-3.958364	sovente	-0.0605305
-3.958364	spaccata	-0.06492467
-3.397983	spada	-0.1172616
-3.958364	spade	-0.05770276
-3.655032	spagna	-0.02249935
-3.857343	spagnuola	-0.0656177
-3.655032	spagnuoli	-0.01916101
-3.31043	spagnuolo	-0.01045838
-3.857343	spalle	-0.03459618
-3.958364	sparando	-0.06754174
-3.958364	sparare	-0.0672217
-3.958364	spari	-0.03574293
-3.958364	sparizione	-0.06752922
-3.958364	sparizioni	-0.06754174
-3.958364	sparo	-0.06718287
-3.958364	spaventevole	-0.03574293
-3.857343	spavento	-0.06726881
-3.958364	spazio	-0.06694981
-3.958364	spazzava	-0.06021492
-3.857343	specialmente	-0.06682421
-3.958364	specificata	-0.0664055
-3.397983	spedizione	-0.02213432
-3.958364	spegnendosi	-0.06671662
-3.857343	spegnersi	-0.03569148
-3.958364	spegnerà	-0.05831663
-3.958364	spenta	-0.03574293
-3.958364	spento	-0.06737699
-3.958364	speranza	-0.05831663
-3.958364	sperate	-0.06609417
-3.958364	speriamo	-0.04664839
-3.175249	spero	-0.2361744
-3.958364	sperone	-0.06386942
-3.958364	spettacolo	-0.06656109
-3.958364	spezzarsi	-0.0672217
-3.857343	spezzato	-0.06118155
-3.958364	spezzo	-0.06465133
-3.958364	spia	-0.06566572
-3.958364	spiacerebbe	-0.05831663
-3.958364	spiacerà	-0.05831663
-3.507761	spiaggia	-0.04687955
-3.857343	spianata	-0.05714674
-3.958364	spiccare	-0.06120034
-3.958364	spiccava	-0.06659998
-3.958364	spiega	-0.06733818
-3.958364	spiegami	-0.06609417
-3.958364	spiegazione	-0.06726053
-3.958364	spiegherete	-0.06021492
-3.857343	spine	-0.02689834
-3.958364	spingarde	-0.03574293
-3.857343	spinge	-0.06490604
-3.958364	spingendo	-0.06733818
-3.958364	spingendolo	-0.06386942
-3.958364	spingersi	-0.06754174
-3.958364	spinto	-0.06718287
-3.958364	spirito	-0.06484659
-3.958364	spogliano	-0.06469039
-3.958364	spolpato	-0.03574293
-3.857343	sponde	-0.056122
-3.958364	sporgere	-0.06386942
-3.958364	sposa	-0.06754174
-3.958364	sprecato	-0.05831663
-3.958364	sprigionare	-0.06754174
-3.958364	spuma	-0.06547083
-3.958364	spunta	-0.06021492
-3.958364	spunterà	-0.06749342
-3.958364	sputare	-0.06371287
-3.958364	squadra	-0.06749342
-3.507761	sta	-0.1577663
-3.958364	sta'	-0.06741581
-3.958364	stamane	-0.06386942
-3.857343	stanchi	-0.03304269
-3.958364	stanno	-0.06754174
-3.655032	stanza	-0.06242096
-3.958364	starmene	-0.06752922
-3.507761	stata	-0.06640105
-3.958364	state	-0.06754174
-3.857343	stati	-0.0673983
-3.175249	stato	-0.0768014
-3.507761	stava	-0.06264736
-3.655032	stavano	-0.06377299
-3.958364	stavo	-0.06386942
-3.958364	stento	-0.06386942
-3.958364	sterminarci	-0.06702751
-3.958364	sterminare	-0.06702751
-3.857343	sterminerò	-0.06697964
-3.958364	sternuti	-0.06617203
-3.857343	stesso	-0.1571745
-3.958364	stille	-0.05617108
-3.958364	stiller	0.0109269
-3.958364	stiva	-0.05942497
-3.958364	stomaco	-0.03574293
-3.958364	stormire	-0.06386942
-3.958364	stracci	-0.03574293
-3.958364	strage	-0.06659998
-3.857343	strani	-0.06748141
-3.958364	strano	-0.05831663
-3.958364	straordinarie	-0.06752922
-3.958364	strapparli	-0.0605305
-3.958364	strato	-0.05617108
-3.958364	straziante	-0.06754174
-3.958364	streghino	-0.03574293
-3.958364	stretta	-0.06120034
-3.958364	strettamente	-0.06754174
-3.958364	stretti	-0.03574293
-3.958364	stridore	-0.06547083
-3.958364	stringeva	-0.06752922
-3.958364	strinse	-0.06752922
-3.958364	strinsero	-0.06752922
-3.958364	strisciare	-0.06593842
-3.958364	strisciava	-0.06547083
-3.958364	stropicciandosi	-0.06754174
-3.958364	stupido	-0.06749342
-3.958364	stupito	-0.05942497
-3.655032	stupore	-0.06011767
-3.175249	su	-0.1334961
-3.237601	sua	-0.05235651
-3.958364	suana	-0.06741581
-3.237601	subito	-0.02750545
-3.958364	succeda	-0.06355626
-3.857343	succedere	-0.05905014
-3.857343	succedono	-0.06556917
-3.857343	successe	-0.06110279
-3.857343	successo	-0.02344327
-3.958364	succhiare	-0.06120034
-3.655032	sudore	-0.1126713
-3.857343	sue	-0.09433202
-3.655032	sufficiente	-0.05601355
-3.958364	suggerí	-0.06609417
-3.655032	sui	-0.06668603
-2.67834	sul	-0.1442126
-3.958364	sull'alberetto	-0.06508078
-3.958364	sull'arrosto	-0.0672217
-3.958364	sull'orlo	-0.06508078
-2.642834	sulla	-0.1517384
-2.919387	sulle	-0.08080115
-3.958364	sullo	-0.06752922
-3.175249	suo	-0.06570005
-3.507761	suoi	-0.08170471
-3.857343	suolo	-0.03241209
-3.958364	suonatore	-0.06752922
-3.958364	suoni	-0.06749342
-3.958364	supera	-0.06386942
-3.958364	superano	-0.06386942
-3.958364	superiore	-0.05942497
-3.857343	superstizioni	-0.1571745
-3.958364	superstizioso	-0.06752922
-3.958364	suppongo	-0.06469039
-3.958364	supposizione	-0.06754174
